{"learner":{"attributes":{"scikit_learn":"{\"_estimator_type\": \"classifier\"}"},"feature_names":["open","high","low","close","tick_volume","spread","realvolume","hour","dayofweek","sma_10","ema_20","sma_50","ema_100","rsi","macd","macd_h","macd_s","bbl","bbm","bbu","bbb","bbp","atr","stoch_k","stoch_d","ichimoku_ts","ichimoku_ks","close_lag1","close_lag2","volume_lag1","volume_lag2"],"feature_types":["float","float","float","float","float","float","float","float","float","float","float","float","float","float","float","float","float","float","float","float","float","float","float","float","float","float","float","float","float","float","float"],"gradient_booster":{"model":{"gbtree_model_param":{"num_parallel_tree":"1","num_trees":"100"},"iteration_indptr":[0,1,2,3,4,5,6,7,8,9,10,11,12,13,14,15,16,17,18,19,20,21,22,23,24,25,26,27,28,29,30,31,32,33,34,35,36,37,38,39,40,41,42,43,44,45,46,47,48,49,50,51,52,53,54,55,56,57,58,59,60,61,62,63,64,65,66,67,68,69,70,71,72,73,74,75,76,77,78,79,80,81,82,83,84,85,86,87,88,89,90,91,92,93,94,95,96,97,98,99,100],"tree_info":[0,0,0,0,0,0,0,0,0,0,0,0,0,0,0,0,0,0,0,0,0,0,0,0,0,0,0,0,0,0,0,0,0,0,0,0,0,0,0,0,0,0,0,0,0,0,0,0,0,0,0,0,0,0,0,0,0,0,0,0,0,0,0,0,0,0,0,0,0,0,0,0,0,0,0,0,0,0,0,0,0,0,0,0,0,0,0,0,0,0,0,0,0,0,0,0,0,0,0,0],"trees":[{"base_weights":[-3.7047393E-8,4.7309938E-1,-3.385707E-2,2.3372668E-1,1.0588145E0,-2.6557768E-2,-9.110962E-1,-1.2621202E0,3.375381E-1,1.2489591E0,1.0848478E-2,-5.405076E-2,2.176693E-1,1.9010732E-2,-1.099293E0,-1.5195064E-1,-2.1499522E-2,-7.5824296E-1,4.3243414E-1,7.320049E-1,1.5747668E0,-7.4026024E-1,1.0087069E-1,-3.339986E-2,-3.7538645E-1,2.8505E-1,-5.762611E-1,8.6787215E-4,-1.3397917E0,-1.4571656E-1,1.4288411E-2,5.7481E-2,-3.2141294E-2,9.88589E-2,-5.3718504E-2,7.471443E-2,1.7671259E-1,-1.2644774E-1,2.2945968E-2,5.7942785E-2,-4.1213143E-3,2.0483308E-2,-6.2055845E-2,8.6165406E-2,2.0175053E-2,-9.073429E-2,2.3235478E-2,-1.6016243E-1,7.810827E-4],"categories":[],"categories_nodes":[],"categories_segments":[],"categories_sizes":[],"default_left":[0,0,0,0,0,0,0,0,0,0,0,0,0,0,0,0,0,0,0,0,0,0,0,0,0,0,0,0,0,0,0,0,0,0,0,0,0,0,0,0,0,0,0,0,0,0,0,0,0],"id":0,"left_children":[1,3,5,7,9,11,13,15,17,19,21,23,25,-1,27,-1,-1,29,31,33,35,37,-1,39,41,43,45,-1,47,-1,-1,-1,-1,-1,-1,-1,-1,-1,-1,-1,-1,-1,-1,-1,-1,-1,-1,-1,-1],"loss_changes":[2.7100872E1,1.5594933E1,1.008608E1,1.3081294E1,6.462303E0,1.0532992E1,2.9030352E0,1.1555967E0,8.334422E0,3.4788322E0,5.243548E0,9.338665E0,8.65633E0,0E0,3.0092497E0,0E0,0E0,4.3018765E0,7.8584976E0,4.6015706E0,1.2268105E0,2.323457E0,0E0,6.369164E0,1.2218157E1,6.8863926E0,3.6240964E0,0E0,3.2762165E0,0E0,0E0,0E0,0E0,0E0,0E0,0E0,0E0,0E0,0E0,0E0,0E0,0E0,0E0,0E0,0E0,0E0,0E0,0E0,0E0],"parents":[2147483647,0,0,1,1,2,2,3,3,4,4,5,5,6,6,7,7,8,8,9,9,10,10,11,11,12,12,14,14,17,17,18,18,19,19,20,20,21,21,23,23,24,24,25,25,26,26,28,28],"right_children":[2,4,6,8,10,12,14,16,18,20,22,24,26,-1,28,-1,-1,30,32,34,36,38,-1,40,42,44,46,-1,48,-1,-1,-1,-1,-1,-1,-1,-1,-1,-1,-1,-1,-1,-1,-1,-1,-1,-1,-1,-1],"split_conditions":[-8.4843993E-1,1.2474211E0,1.700963E0,-1.6834766E0,6.920607E-1,1.2422295E0,3.4667742E-1,-8.0700827E-1,-9.196474E-1,-4.5425627E-1,5.488177E-1,1.5857203E0,1.273399E0,1.9010732E-2,-7.3226005E-1,-1.5195064E-1,-2.1499522E-2,-9.169357E-1,7.599749E-1,-5.5157274E-1,-1.2140168E0,-2.0121085E-2,1.0087069E-1,-9.1410565E-1,-8.3930486E-1,-1.3837671E0,1.0930662E0,8.6787215E-4,1.2768228E-1,-1.4571656E-1,1.4288411E-2,5.7481E-2,-3.2141294E-2,9.88589E-2,-5.3718504E-2,7.471443E-2,1.7671259E-1,-1.2644774E-1,2.2945968E-2,5.7942785E-2,-4.1213143E-3,2.0483308E-2,-6.2055845E-2,8.6165406E-2,2.0175053E-2,-9.073429E-2,2.3235478E-2,-1.6016243E-1,7.810827E-4],"split_indices":[6,7,24,22,16,22,20,29,30,20,17,6,2,0,8,0,0,6,14,20,16,8,0,29,21,23,7,0,30,0,0,0,0,0,0,0,0,0,0,0,0,0,0,0,0,0,0,0,0],"split_type":[0,0,0,0,0,0,0,0,0,0,0,0,0,0,0,0,0,0,0,0,0,0,0,0,0,0,0,0,0,0,0,0,0,0,0,0,0,0,0,0,0,0,0,0,0,0,0,0,0],"sum_hessian":[1.6899282E3,1.1199525E2,1.577933E3,8.049658E1,3.1498663E1,1.5659336E3,1.1999491E1,4.4998093E0,7.599677E1,2.6498875E1,4.999788E0,1.4081902E3,1.577433E2,1.7499257E0,1.0249565E1,3.2498622E0,1.249947E0,5.4997663E0,7.049701E1,1.1499512E1,1.4999363E1,2.9998727E0,1.9999151E0,1.3241938E3,8.399644E1,1.459938E2,1.1749501E1,1.9999151E0,8.24965E0,2.7498832E0,2.7498832E0,5.9497475E1,1.0999533E1,9.749586E0,1.7499257E0,3.7498407E0,1.1249522E1,1.7499257E0,1.249947E0,1.5749331E1,1.3084445E3,2.499894E1,5.8997498E1,1.7249268E1,1.2874454E2,8.24965E0,3.4998515E0,6.7497134E0,1.4999363E0],"tree_param":{"num_deleted":"0","num_feature":"31","num_nodes":"49","size_leaf_vector":"1"}},{"base_weights":[-4.5621826E-5,-2.276985E-2,6.034184E-1,1.7780575E-1,-5.54937E-2,7.7821064E-1,-9.2945844E-1,-7.012461E-1,2.2530122E-1,-8.265387E-2,1.727336E-1,1.0718806E0,4.597662E-1,-1.320434E-1,-1.7841875E-4,-1.0686368E0,9.200402E-2,5.7870585E-1,1.287351E-1,-6.12848E-2,-3.183519E-1,1.4946465E-1,1.3544941E-1,-2.429632E-1,1.267857E0,-1.3463031E-1,6.4711446E-1,-1.3545056E-1,2.0221248E-2,1.0358151E-1,3.0511016E-2,2.3646308E-2,-2.6879935E-2,-3.8062842E-3,-3.6185298E-2,5.35281E-2,-4.1994765E-2,3.043409E-2,-2.0160764E-2,5.107657E-2,-9.076681E-2,1.459348E-1,3.324142E-2,7.6039024E-3,9.362999E-2],"categories":[],"categories_nodes":[],"categories_segments":[],"categories_sizes":[],"default_left":[0,0,0,0,0,0,0,0,0,0,0,0,0,0,0,0,0,0,0,0,0,0,0,0,0,0,0,0,0,0,0,0,0,0,0,0,0,0,0,0,0,0,0,0,0],"id":1,"left_children":[1,3,5,7,9,11,13,15,17,19,21,23,25,-1,-1,27,-1,29,31,33,35,-1,37,39,41,-1,43,-1,-1,-1,-1,-1,-1,-1,-1,-1,-1,-1,-1,-1,-1,-1,-1,-1,-1],"loss_changes":[2.3196398E1,1.0709492E1,1.7170586E1,9.714404E0,8.706415E0,4.711094E0,2.441845E0,8.116799E0,7.3622513E0,6.2954483E0,7.163495E0,7.5740967E0,1.0497051E1,0E0,0E0,3.989108E0,0E0,5.496834E0,7.448189E0,8.018671E0,9.242996E0,0E0,8.39828E0,2.7165935E0,3.9396057E0,0E0,4.296916E0,0E0,0E0,0E0,0E0,0E0,0E0,0E0,0E0,0E0,0E0,0E0,0E0,0E0,0E0,0E0,0E0,0E0,0E0],"parents":[2147483647,0,0,1,1,2,2,3,3,4,4,5,5,6,6,7,7,8,8,9,9,10,10,11,11,12,12,15,15,17,17,18,18,19,19,20,20,22,22,23,23,24,24,26,26],"right_children":[2,4,6,8,10,12,14,16,18,20,22,24,26,-1,-1,28,-1,30,32,34,36,-1,38,40,42,-1,44,-1,-1,-1,-1,-1,-1,-1,-1,-1,-1,-1,-1,-1,-1,-1,-1,-1,-1],"split_conditions":[1.710486E0,-7.337479E-1,1.2135909E0,-1.6834766E0,1.2422295E0,-2.7611005E-1,1.0354209E0,-6.2358814E-1,-1.0075923E0,1.4017762E0,-2.2342136E0,-1.5303954E0,-1.2416307E-1,-1.320434E-1,-1.7841875E-4,4.0367103E-1,9.200402E-2,-8.919201E-1,6.711818E-1,1.5857203E0,-1.3062798E0,1.4946465E-1,7.339817E-1,-8.628034E-1,1.4041568E0,-1.3463031E-1,-2.0121085E-2,-1.3545056E-1,2.0221248E-2,1.0358151E-1,3.0511016E-2,2.3646308E-2,-2.6879935E-2,-3.8062842E-3,-3.6185298E-2,5.35281E-2,-4.1994765E-2,3.043409E-2,-2.0160764E-2,5.107657E-2,-9.076681E-2,1.459348E-1,3.324142E-2,7.6039024E-3,9.362999E-2],"split_indices":[7,29,16,22,22,14,21,6,22,7,18,25,14,0,0,0,0,29,21,6,21,0,23,21,8,0,8,0,0,0,0,0,0,0,0,0,0,0,0,0,0,0,0,0,0],"split_type":[0,0,0,0,0,0,0,0,0,0,0,0,0,0,0,0,0,0,0,0,0,0,0,0,0,0,0,0,0,0,0,0,0,0,0,0,0,0,0,0,0,0,0,0,0],"sum_hessian":[1.6895295E3,1.6291443E3,6.0385292E1,2.2789078E2,1.4012534E3,5.4646347E1,5.7389436E0,1.0976266E1,2.1691452E2,1.2528018E3,1.4845172E2,2.7198168E1,2.7448181E1,3.7395144E0,1.9994291E0,9.226395E0,1.7498714E0,4.5479523E1,1.71435E2,1.149816E3,1.0298567E2,2.9999616E0,1.4545177E2,3.4969158E0,2.3701252E1,1.9982836E0,2.5449896E1,7.4783616E0,1.7480328E0,1.5985635E1,2.9493887E1,1.352018E2,3.62332E1,1.0683981E3,8.141803E1,1.0499288E1,9.248638E1,9.6962944E1,4.8488823E1,1.7472486E0,1.7496672E0,1.9208988E1,4.492263E0,8.979793E0,1.6470104E1],"tree_param":{"num_deleted":"0","num_feature":"31","num_nodes":"45","size_leaf_vector":"1"}},{"base_weights":[8.968447E-5,3.9650115E-1,-2.8166195E-2,-8.171676E-1,4.842502E-1,7.49446E-1,-3.496599E-2,-1.2737711E-1,-1.1529062E-1,6.420539E-1,-1.2886696E-1,-4.8433134E-1,1.1396254E0,2.2412601E-3,-2.2259566E-1,5.6152947E-2,-8.099731E-2,5.186745E-1,1.386999E0,-3.0190945E-1,1.22272335E-1,1.9516023E-2,-1.09954216E-1,1.3407756E0,-2.1412231E-2,-2.4979201E-1,3.376033E-2,-9.188972E-3,-4.2274326E-1,-1.4836567E-2,6.311008E-2,1.572581E-1,6.457441E-2,4.7311317E-2,-6.120009E-2,5.9835207E-2,1.520667E-1,-1.008217E-2,-8.081397E-2,6.512027E-2,2.2672627E-3,6.215106E-3,-1.045023E-1,-1.1875186E-1,-3.393781E-2],"categories":[],"categories_nodes":[],"categories_segments":[],"categories_sizes":[],"default_left":[0,0,0,0,0,0,0,0,0,0,0,0,0,0,0,0,0,0,0,0,0,0,0,0,0,0,0,0,0,0,0,0,0,0,0,0,0,0,0,0,0,0,0,0,0],"id":2,"left_children":[1,3,5,7,9,11,13,-1,15,17,19,21,23,25,27,-1,-1,29,31,33,-1,-1,-1,35,-1,37,39,41,43,-1,-1,-1,-1,-1,-1,-1,-1,-1,-1,-1,-1,-1,-1,-1,-1],"loss_changes":[1.8938341E1,1.2376612E1,8.371539E0,2.4033265E0,1.0294071E1,7.159658E0,1.0929943E1,0E0,2.446412E0,7.010723E0,5.6166778E0,1.8865714E0,3.207984E0,1.0394788E1,1.1062458E1,0E0,0E0,5.6244736E0,5.462723E-1,5.262426E0,0E0,0E0,0E0,3.5575294E-1,0E0,1.2017039E1,7.9472656E0,9.406374E0,8.119486E0,0E0,0E0,0E0,0E0,0E0,0E0,0E0,0E0,0E0,0E0,0E0,0E0,0E0,0E0,0E0,0E0],"parents":[2147483647,0,0,1,1,2,2,3,3,4,4,5,5,6,6,8,8,9,9,10,10,11,11,12,12,13,13,14,14,17,17,18,18,19,19,23,23,25,25,26,26,27,27,28,28],"right_children":[2,4,6,8,10,12,14,-1,16,18,20,22,24,26,28,-1,-1,30,32,34,-1,-1,-1,36,-1,38,40,42,44,-1,-1,-1,-1,-1,-1,-1,-1,-1,-1,-1,-1,-1,-1,-1,-1],"split_conditions":[-8.4843993E-1,-9.196474E-1,-2.1552315E0,-9.169357E-1,5.805712E-1,7.0825264E-2,1.1617055E0,-1.2737711E-1,-1.0075923E0,-5.3136414E-1,1.2488302E0,-7.8840977E-1,-2.0814235E0,-1.6193523E0,2.7711713E-1,5.6152947E-2,-8.099731E-2,-7.3226005E-1,-1.4831147E-1,-7.334748E-1,1.22272335E-1,1.9516023E-2,-1.09954216E-1,-1.3080004E-1,-2.1412231E-2,-1.9100138E0,-2.065915E0,1.700963E0,2.7739286E-1,-1.4836567E-2,6.311008E-2,1.572581E-1,6.457441E-2,4.7311317E-2,-6.120009E-2,5.9835207E-2,1.520667E-1,-1.008217E-2,-8.081397E-2,6.512027E-2,2.2672627E-3,6.215106E-3,-1.045023E-1,-1.1875186E-1,-3.393781E-2],"split_indices":[6,30,12,6,16,15,24,0,22,29,0,13,9,28,0,0,0,8,16,22,0,0,0,30,0,0,14,24,10,0,0,0,0,0,0,0,0,0,0,0,0,0,0,0,0],"split_type":[0,0,0,0,0,0,0,0,0,0,0,0,0,0,0,0,0,0,0,0,0,0,0,0,0,0,0,0,0,0,0,0,0,0,0,0,0,0,0,0,0,0,0,0,0],"sum_hessian":[1.6887821E3,1.1149852E2,1.5772836E3,6.95739E0,1.0454113E2,1.2726163E1,1.5645575E3,3.7215455E0,3.2358446E0,8.310454E1,2.143659E1,2.9996707E0,9.726492E0,1.3064705E3,2.58087E2,1.7360795E0,1.499765E0,7.275153E1,1.0353007E1,1.9692064E1,1.7445248E0,1.749808E0,1.2498628E0,8.4765625E0,1.2499303E0,1.4445468E2,1.1620157E3,1.2541239E2,1.326746E2,1.0447207E1,6.2304325E1,7.383059E0,2.9699483E0,5.477138E0,1.4214927E1,2.4970896E0,5.9794726E0,1.1496258E2,2.9492098E1,1.9480331E1,1.1425354E3,1.1821095E2,7.2014346E0,1.1738958E1,1.2093565E2],"tree_param":{"num_deleted":"0","num_feature":"31","num_nodes":"45","size_leaf_vector":"1"}},{"base_weights":[1.1929065E-4,-1.9302221E-2,5.2061707E-1,1.5350707E-1,-4.7457747E-2,6.758762E-1,-8.3847725E-1,-6.428121E-1,1.9637316E-1,-7.161698E-2,1.5571693E-1,5.174859E-1,1.1783302E0,-1.1964238E-1,8.154707E-5,-9.862389E-1,8.6084515E-2,5.141999E-1,1.09686874E-1,-4.0822074E-2,-2.052377E-1,1.2930451E-1,1.2411241E-1,6.3122237E-1,-7.7259153E-1,1.3503112E0,-4.6993415E-3,-1.2507519E-1,1.8150924E-2,1.2737438E-2,8.342968E-2,-1.4268807E-2,2.4645686E-2,-3.0953512E-2,-2.0928055E-3,-2.4924219E-2,7.83544E-2,1.5966957E-2,-1.1860187E-1,-6.3458E-2,6.873324E-2,1.6248122E-2,-1.2557791E-1,1.480771E-1,1.8574843E-2],"categories":[],"categories_nodes":[],"categories_segments":[],"categories_sizes":[],"default_left":[0,0,0,0,0,0,0,0,0,0,0,0,0,0,0,0,0,0,0,0,0,0,0,0,0,0,0,0,0,0,0,0,0,0,0,0,0,0,0,0,0,0,0,0,0],"id":3,"left_children":[1,3,5,7,9,11,13,15,17,19,21,23,25,-1,-1,27,-1,29,31,33,35,-1,37,39,41,43,-1,-1,-1,-1,-1,-1,-1,-1,-1,-1,-1,-1,-1,-1,-1,-1,-1,-1,-1],"loss_changes":[1.7082962E1,7.933826E0,1.3393618E1,7.92537E0,6.891167E0,3.7760239E0,2.0073638E0,6.9966106E0,5.9380245E0,5.149037E0,5.204991E0,6.897331E0,2.6818905E0,0E0,0E0,3.3644981E0,0E0,5.633417E0,5.979717E0,5.4454913E0,1.0398884E1,0E0,7.006576E0,3.3264828E0,2.0062797E0,1.3854866E0,0E0,0E0,0E0,0E0,0E0,0E0,0E0,0E0,0E0,0E0,0E0,0E0,0E0,0E0,0E0,0E0,0E0,0E0,0E0],"parents":[2147483647,0,0,1,1,2,2,3,3,4,4,5,5,6,6,7,7,8,8,9,9,10,10,11,11,12,12,15,15,17,17,18,18,19,19,20,20,22,22,23,23,24,24,25,25],"right_children":[2,4,6,8,10,12,14,16,18,20,22,24,26,-1,-1,28,-1,30,32,34,36,-1,38,40,42,44,-1,-1,-1,-1,-1,-1,-1,-1,-1,-1,-1,-1,-1,-1,-1,-1,-1,-1,-1],"split_conditions":[1.710486E0,-7.337479E-1,1.2135909E0,-1.6834766E0,1.2422295E0,-3.9419033E-2,1.0354209E0,-6.2358814E-1,-1.0075923E0,1.1005728E0,-2.2342136E0,-7.4345577E-1,1.4041568E0,-1.1964238E-1,8.154707E-5,4.0367103E-1,8.6084515E-2,-4.3662924E-1,-8.344015E-1,-9.6687025E-1,1.0267779E0,1.2930451E-1,1.6490759E0,-2.123446E0,-4.220322E-1,1.5544686E0,-4.6993415E-3,-1.2507519E-1,1.8150924E-2,1.2737438E-2,8.342968E-2,-1.4268807E-2,2.4645686E-2,-3.0953512E-2,-2.0928055E-3,-2.4924219E-2,7.83544E-2,1.5966957E-2,-1.1860187E-1,-6.3458E-2,6.873324E-2,1.6248122E-2,-1.2557791E-1,1.480771E-1,1.8574843E-2],"split_indices":[7,29,16,22,22,30,21,6,22,23,18,6,8,0,0,0,0,24,30,20,22,0,23,9,29,22,0,0,0,0,0,0,0,0,0,0,0,0,0,0,0,0,0,0,0],"split_type":[0,0,0,0,0,0,0,0,0,0,0,0,0,0,0,0,0,0,0,0,0,0,0,0,0,0,0,0,0,0,0,0,0,0,0,0,0,0,0,0,0,0,0,0,0],"sum_hessian":[1.6879071E3,1.6281194E3,5.978766E1,2.2747865E2,1.4006407E3,5.410909E1,5.6785684E0,1.0904834E1,2.1657382E2,1.2523705E3,1.482702E2,4.268368E1,1.1425406E1,3.682514E0,1.9960542E0,9.157434E0,1.7473997E0,4.5354454E1,1.7121936E2,1.0188636E3,2.3350693E2,2.9296536E0,1.4534055E2,3.96948E1,2.988883E0,9.929712E0,1.4956944E0,7.408267E0,1.7491671E0,2.1169636E1,2.4184818E1,6.0162037E1,1.1105733E2,6.922786E1,9.4963574E2,2.2427383E2,9.233095E0,1.4235513E2,2.9854121E0,1.2472879E0,3.8447514E1,1.2444103E0,1.7444727E0,8.685226E0,1.2444854E0],"tree_param":{"num_deleted":"0","num_feature":"31","num_nodes":"45","size_leaf_vector":"1"}},{"base_weights":[1.5633722E-4,-1.7298488E-2,4.715109E-1,5.1503396E-1,-2.555421E-2,6.143182E-1,-7.806141E-1,8.063481E-1,-7.326816E-1,-1.125654E-2,-3.104403E-1,8.769532E-1,3.3528477E-1,-1.164388E-1,-1.2092167E-3,-1.01590484E-1,1.2059718E0,-1.0492166E0,1.566728E-2,4.2533156E-2,-8.703768E-2,4.1160846E-1,-4.186313E-1,-2.7174366E-1,1.0533154E0,-1.285033E-1,5.0761634E-1,-7.7374555E-2,5.5517077E-2,3.1580606E-3,1.4182062E-1,-2.7352845E-2,-1.3016646E-1,5.929438E-3,-4.6642005E-2,1.09314896E-1,-9.974928E-3,1.2501131E-1,-7.6090164E-2,-7.949364E-2,-2.1481154E-2,6.007111E-2,-7.9300635E-2,1.2290013E-1,2.2625063E-2,-2.2520602E-4,7.713514E-2],"categories":[],"categories_nodes":[],"categories_segments":[],"categories_sizes":[],"default_left":[0,0,0,0,0,0,0,0,0,0,0,0,0,0,0,0,0,0,0,0,0,0,0,0,0,0,0,0,0,0,0,0,0,0,0,0,0,0,0,0,0,0,0,0,0,0,0],"id":4,"left_children":[1,3,5,7,9,11,13,15,17,19,21,23,25,-1,-1,27,29,31,-1,33,35,37,39,41,43,-1,45,-1,-1,-1,-1,-1,-1,-1,-1,-1,-1,-1,-1,-1,-1,-1,-1,-1,-1,-1,-1],"loss_changes":[1.3894178E1,7.1699476E0,1.1262644E1,9.647505E0,6.5321875E0,3.7138615E0,1.9366598E0,7.624667E0,1.639591E0,6.235922E0,6.1595454E0,5.8682613E0,8.508794E0,0E0,0E0,3.6263223E0,3.5530796E0,4.2620182E-1,0E0,7.66155E0,9.635895E0,1.1266197E1,4.979581E0,2.5057073E0,3.2225227E0,0E0,3.5178785E0,0E0,0E0,0E0,0E0,0E0,0E0,0E0,0E0,0E0,0E0,0E0,0E0,0E0,0E0,0E0,0E0,0E0,0E0,0E0,0E0],"parents":[2147483647,0,0,1,1,2,2,3,3,4,4,5,5,6,6,7,7,8,8,9,9,10,10,11,11,12,12,15,15,16,16,17,17,19,19,20,20,21,21,22,22,23,23,24,24,26,26],"right_children":[2,4,6,8,10,12,14,16,18,20,22,24,26,-1,-1,28,30,32,-1,34,36,38,40,42,44,-1,46,-1,-1,-1,-1,-1,-1,-1,-1,-1,-1,-1,-1,-1,-1,-1,-1,-1,-1,-1,-1],"split_conditions":[1.710486E0,-2.065915E0,1.2135909E0,-9.953088E-1,1.2746241E0,-2.7611005E-1,1.0267779E0,5.177466E-1,1.0930662E0,3.2129127E-1,-5.4583746E-1,-1.5303954E0,-1.2416307E-1,-1.164388E-1,-1.2092167E-3,-2.2161589E0,-3.325414E0,-5.805236E-1,1.566728E-2,1.6071827E0,-2.1552315E0,1.3162812E0,4.1243002E-1,-2.0121085E-2,1.4041568E0,-1.285033E-1,-2.0121085E-2,-7.7374555E-2,5.5517077E-2,3.1580606E-3,1.4182062E-1,-2.7352845E-2,-1.3016646E-1,5.929438E-3,-4.6642005E-2,1.09314896E-1,-9.974928E-3,1.2501131E-1,-7.6090164E-2,-7.949364E-2,-2.1481154E-2,6.007111E-2,-7.9300635E-2,1.2290013E-1,2.2625063E-2,-2.2520602E-4,7.713514E-2],"split_indices":[7,14,16,23,0,14,22,22,7,7,14,25,14,0,0,13,15,29,0,24,12,30,14,8,8,0,8,0,0,0,0,0,0,0,0,0,0,0,0,0,0,0,0,0,0,0,0],"split_type":[0,0,0,0,0,0,0,0,0,0,0,0,0,0,0,0,0,0,0,0,0,0,0,0,0,0,0,0,0,0,0,0,0,0,0,0,0,0,0,0,0,0,0,0,0,0,0],"sum_hessian":[1.6867751E3,1.6274712E3,5.9303913E1,2.3916857E1,1.6035544E3,5.368986E1,5.6140547E0,1.9676556E1,4.240302E0,1.5279121E3,7.5642296E1,2.6553785E1,2.7136074E1,3.4007397E0,2.213315E0,6.2415776E0,1.3434978E1,2.9946935E0,1.2456088E0,8.938753E2,6.3403674E2,9.491714E0,6.615058E1,3.462263E0,2.3091522E1,1.9879525E0,2.514812E1,2.9966085E0,3.244969E0,2.232167E0,1.120281E1,1.2468977E0,1.7477957E0,8.6623145E2,2.7643877E1,5.850607E0,6.2818616E2,5.4954977E0,3.996216E0,2.2222248E1,4.3928337E1,1.2379124E0,2.2243507E0,1.8644962E1,4.4465604E0,8.911442E0,1.623668E1],"tree_param":{"num_deleted":"0","num_feature":"31","num_nodes":"47","size_leaf_vector":"1"}},{"base_weights":[1.2965052E-4,3.1976622E-1,-2.2395836E-2,-7.506803E-1,3.9758015E-1,8.951088E-1,-2.6532305E-2,-1.17684774E-1,-1.0209586E-1,5.383105E-1,-1.433129E-1,1.4845008E-2,1.1095577E0,-2.0657621E-2,-7.8854996E-1,-7.59592E-2,5.3502936E-2,4.3328768E-1,1.1990783E0,-3.0374593E-1,1.127482E-1,1.2815936E-1,3.9842833E-2,-4.3088477E-3,-2.4506795E-1,2.48874E-2,-9.8948264E-1,2.4570117E-2,8.571281E-2,1.3745524E-1,5.352782E-2,-6.912039E-2,3.0690879E-2,-6.03066E-3,7.1112774E-3,1.5954755E-2,-4.3409016E-2,-6.1575375E-3,-1.1712899E-1],"categories":[],"categories_nodes":[],"categories_segments":[],"categories_sizes":[],"default_left":[0,0,0,0,0,0,0,0,0,0,0,0,0,0,0,0,0,0,0,0,0,0,0,0,0,0,0,0,0,0,0,0,0,0,0,0,0,0,0],"id":5,"left_children":[1,3,5,7,9,11,13,-1,15,17,19,-1,21,23,25,-1,-1,27,29,31,-1,-1,-1,33,35,-1,37,-1,-1,-1,-1,-1,-1,-1,-1,-1,-1,-1,-1],"loss_changes":[1.2150281E1,9.55226E0,6.0067596E0,2.0565028E0,8.010458E0,9.72806E-1,7.013566E0,0E0,2.1731808E0,5.234293E0,4.890482E0,0E0,1.4567757E-1,5.719994E0,2.744956E0,0E0,0E0,5.602001E0,5.228176E-1,5.0849285E0,0E0,0E0,0E0,6.147258E0,8.166407E0,0E0,1.6558619E0,0E0,0E0,0E0,0E0,0E0,0E0,0E0,0E0,0E0,0E0,0E0,0E0],"parents":[2147483647,0,0,1,1,2,2,3,3,4,4,5,5,6,6,8,8,9,9,10,10,12,12,13,13,14,14,17,17,18,18,19,19,23,23,24,24,26,26],"right_children":[2,4,6,8,10,12,14,-1,16,18,20,-1,22,24,26,-1,-1,28,30,32,-1,-1,-1,34,36,-1,38,-1,-1,-1,-1,-1,-1,-1,-1,-1,-1,-1,-1],"split_conditions":[-8.4843993E-1,-9.196474E-1,-2.1694434E0,-9.169357E-1,5.805712E-1,-2.2950258E0,1.700963E0,-1.17684774E-1,-3.1518573E-1,-5.3136414E-1,1.2488302E0,1.4845008E-2,-2.1883147E0,1.5857203E0,3.4667742E-1,-7.59592E-2,5.3502936E-2,5.574958E-2,-1.4831147E-1,1.0096977E0,1.127482E-1,1.2815936E-1,3.9842833E-2,-1.8230003E-1,-8.07883E-1,2.48874E-2,-7.3226005E-1,2.4570117E-2,8.571281E-2,1.3745524E-1,5.352782E-2,-6.912039E-2,3.0690879E-2,-6.03066E-3,7.1112774E-3,1.5954755E-2,-4.3409016E-2,-6.1575375E-3,-1.1712899E-1],"split_indices":[6,30,12,6,16,28,24,0,16,29,0,0,25,6,20,0,0,21,16,13,0,0,0,29,21,0,8,0,0,0,0,0,0,0,0,0,0,0,0],"split_type":[0,0,0,0,0,0,0,0,0,0,0,0,0,0,0,0,0,0,0,0,0,0,0,0,0,0,0,0,0,0,0,0,0,0,0,0,0,0,0],"sum_hessian":[1.6855516E3,1.1009587E2,1.5754557E3,6.8748584E0,1.03221016E2,6.104166E0,1.5693516E3,3.6572752E0,3.217583E0,8.191343E1,2.1307587E1,1.7395878E0,4.3645782E0,1.5583646E3,1.0986915E1,1.4888805E0,1.7287025E0,7.210823E1,9.805196E0,1.9594797E1,1.7127892E0,2.8684506E0,1.4961275E0,1.4534937E3,1.0487093E2,1.7439957E0,9.242919E0,5.108039E1,2.1027843E1,6.908276E0,2.8969197E0,1.1907579E1,7.687218E0,8.342755E2,6.192182E2,3.3441963E1,7.142897E1,1.7336104E0,7.5093083E0],"tree_param":{"num_deleted":"0","num_feature":"31","num_nodes":"39","size_leaf_vector":"1"}},{"base_weights":[3.0059024E-4,2.3857433E-1,-2.5200566E-2,-7.350244E-1,2.8251466E-1,-2.9803162E-2,8.537422E-1,-9.8356575E-1,2.6534757E-2,3.57618E-1,-1.959353E-1,-1.21502755E-2,-2.7734676E-1,2.0349236E-1,1.2552724E0,-1.296922E-1,-1.2590744E-2,-1.9885255E-1,4.3260247E-1,-4.4068766E-1,1.1228844E-1,-7.662894E-2,7.0193306E-2,1.4404756E-1,-4.884313E-1,8.687278E-2,-4.7548037E-2,2.8018925E-2,1.5231602E-1,9.3962744E-2,-5.359167E-2,3.335625E-2,9.1937505E-2,4.2247217E-2,-8.33032E-2,-6.4640506E-3,-1.10172726E-1,7.074445E-2,4.9803434E-3,-6.298565E-2,4.7425523E-2,-7.299472E-2,2.1253483E-2],"categories":[],"categories_nodes":[],"categories_segments":[],"categories_sizes":[],"default_left":[0,0,0,0,0,0,0,0,0,0,0,0,0,0,0,0,0,0,0,0,0,0,0,0,0,0,0,0,0,0,0,0,0,0,0,0,0,0,0,0,0,0,0],"id":6,"left_children":[1,3,5,7,9,11,13,15,-1,17,19,21,23,25,27,-1,-1,29,31,33,-1,35,37,39,41,-1,-1,-1,-1,-1,-1,-1,-1,-1,-1,-1,-1,-1,-1,-1,-1,-1,-1],"loss_changes":[1.0246703E1,7.182229E0,6.18795E0,2.0804565E0,5.7013273E0,6.6229124E0,1.8252578E0,1.4691195E0,0E0,5.7527657E0,7.5664945E0,7.5259876E0,9.044611E0,2.326268E0,8.0963373E-1,0E0,0E0,6.954979E0,5.478256E0,6.8531284E0,0E0,9.697425E0,8.05425E0,9.100804E0,1.1573601E1,0E0,0E0,0E0,0E0,0E0,0E0,0E0,0E0,0E0,0E0,0E0,0E0,0E0,0E0,0E0,0E0,0E0,0E0],"parents":[2147483647,0,0,1,1,2,2,3,3,4,4,5,5,6,6,7,7,9,9,10,10,11,11,12,12,13,13,14,14,17,17,18,18,19,19,21,21,22,22,23,23,24,24],"right_children":[2,4,6,8,10,12,14,16,-1,18,20,22,24,26,28,-1,-1,30,32,34,-1,36,38,40,42,-1,-1,-1,-1,-1,-1,-1,-1,-1,-1,-1,-1,-1,-1,-1,-1,-1,-1],"split_conditions":[-7.937073E-1,-1.7209979E0,2.508414E0,-8.1851304E-1,1.1709753E0,1.5857203E0,7.945931E-1,-7.94878E-1,2.6534757E-2,-8.796077E-1,8.046901E-1,-1.8230003E-1,-8.07883E-1,6.6781014E-1,-3.0205005E-1,-1.296922E-1,-1.2590744E-2,-1.3567225E0,5.167315E-1,-9.740769E-4,1.1228844E-1,2.0395963E0,-1.6777565E-1,-1.8208542E0,1.4041568E0,8.687278E-2,-4.7548037E-2,2.8018925E-2,1.5231602E-1,9.3962744E-2,-5.359167E-2,3.335625E-2,9.1937505E-2,4.2247217E-2,-8.33032E-2,-6.4640506E-3,-1.10172726E-1,7.074445E-2,4.9803434E-3,-6.298565E-2,4.7425523E-2,-7.299472E-2,2.1253483E-2],"split_indices":[6,22,21,6,24,6,24,29,0,30,2,29,21,23,22,0,0,22,21,20,0,13,29,21,8,0,0,0,0,0,0,0,0,0,0,0,0,0,0,0,0,0,0],"split_type":[0,0,0,0,0,0,0,0,0,0,0,0,0,0,0,0,0,0,0,0,0,0,0,0,0,0,0,0,0,0,0,0,0,0,0,0,0,0,0,0,0,0,0],"sum_hessian":[1.6843622E3,1.6203253E2,1.5223297E3,6.3178706E0,1.5571466E2,1.5153606E3,6.9691153E0,5.074033E0,1.2438383E0,1.3480635E2,2.0908298E1,1.4154694E3,9.98912E1,3.235784E0,3.733331E0,3.3411393E0,1.7328932E0,1.5811915E1,1.1899444E2,1.8197056E1,2.711243E0,7.938888E2,6.215806E2,3.3443844E1,6.644736E1,1.4932613E0,1.7425227E0,1.2455566E0,2.4877744E0,3.2036088E0,1.2608307E1,1.0027707E2,1.871737E1,5.662573E0,1.2534483E1,7.8576245E2,8.12636E0,1.8227112E1,6.033535E2,9.730687E0,2.3713158E1,4.938913E1,1.7058226E1],"tree_param":{"num_deleted":"0","num_feature":"31","num_nodes":"43","size_leaf_vector":"1"}},{"base_weights":[4.0278735E-4,-1.371114E-2,3.9032766E-1,4.622922E-1,-2.1054028E-2,5.163692E-1,-7.0763236E-1,7.336185E-1,-6.893788E-1,3.882644E-2,-8.1032716E-2,3.6685136E-1,9.993768E-1,-1.0042679E0,2.235204E-2,-9.97214E-2,1.1040614E0,1.596954E-2,-9.9390167E-1,7.012379E-3,5.581431E-1,-3.0156352E-2,-3.3947885E-1,4.6956596E-1,-7.4881095E-1,1.1641889E0,-1.0522292E-2,-1.2570709E-1,-2.1472745E-2,-7.1872905E-2,5.076888E-2,2.672318E-3,1.3012174E-1,-2.6014496E-2,-1.232772E-1,-1.569109E-2,9.388946E-3,6.9363415E-2,-1.53388E-2,3.0769926E-4,-4.323843E-2,-8.934888E-2,-2.0516245E-2,5.2715268E-2,-6.2428858E-2,1.11929355E-2,-1.17969625E-1,1.68703E-2,1.2966084E-1],"categories":[],"categories_nodes":[],"categories_segments":[],"categories_sizes":[],"default_left":[0,0,0,0,0,0,0,0,0,0,0,0,0,0,0,0,0,0,0,0,0,0,0,0,0,0,0,0,0,0,0,0,0,0,0,0,0,0,0,0,0,0,0,0,0,0,0,0,0],"id":7,"left_children":[1,3,5,7,9,11,13,15,17,19,21,23,25,27,-1,29,31,-1,33,35,37,39,41,43,45,47,-1,-1,-1,-1,-1,-1,-1,-1,-1,-1,-1,-1,-1,-1,-1,-1,-1,-1,-1,-1,-1,-1,-1],"loss_changes":[9.273908E0,5.694021E0,8.51167E0,8.239542E0,5.7587686E0,3.4885073E0,2.0153048E0,6.443243E0,1.5122085E0,1.3256383E1,1.0521158E1,5.203924E0,2.314125E0,7.478514E-1,0E0,3.0834413E0,2.99938E0,0E0,3.7886E-1,1.0799396E1,4.571705E0,8.961502E0,9.612257E0,2.8102064E0,1.5989189E0,1.1730871E0,0E0,0E0,0E0,0E0,0E0,0E0,0E0,0E0,0E0,0E0,0E0,0E0,0E0,0E0,0E0,0E0,0E0,0E0,0E0,0E0,0E0,0E0,0E0],"parents":[2147483647,0,0,1,1,2,2,3,3,4,4,5,5,6,6,7,7,8,8,9,9,10,10,11,11,12,12,13,13,15,15,16,16,18,18,19,19,20,20,21,21,22,22,23,23,24,24,25,25],"right_children":[2,4,6,8,10,12,14,16,18,20,22,24,26,28,-1,30,32,-1,34,36,38,40,42,44,46,48,-1,-1,-1,-1,-1,-1,-1,-1,-1,-1,-1,-1,-1,-1,-1,-1,-1,-1,-1,-1,-1,-1,-1],"split_conditions":[1.710486E0,-2.065915E0,1.2135909E0,-9.953088E-1,2.8014833E-1,-3.9419033E-2,2.097652E0,5.177466E-1,-7.736293E-1,2.433932E-1,1.1709753E0,-7.4345577E-1,1.4041568E0,1.6137663E0,2.235204E-2,-2.2161589E0,-3.325414E0,1.596954E-2,-5.805236E-1,-4.1969627E-1,6.066705E-1,1.4017762E0,1.2498361E0,1.4697853E0,-4.220322E-1,-5.7971066E-1,-1.0522292E-2,-1.2570709E-1,-2.1472745E-2,-7.1872905E-2,5.076888E-2,2.672318E-3,1.3012174E-1,-2.6014496E-2,-1.232772E-1,-1.569109E-2,9.388946E-3,6.9363415E-2,-1.53388E-2,3.0769926E-4,-4.323843E-2,-8.934888E-2,-2.0516245E-2,5.2715268E-2,-6.2428858E-2,1.11929355E-2,-1.17969625E-1,1.68703E-2,1.2966084E-1],"split_indices":[7,14,16,23,3,30,13,22,21,3,24,6,8,16,0,13,15,0,29,16,16,7,24,22,29,20,0,0,0,0,0,0,0,0,0,0,0,0,0,0,0,0,0,0,0,0,0,0,0],"split_type":[0,0,0,0,0,0,0,0,0,0,0,0,0,0,0,0,0,0,0,0,0,0,0,0,0,0,0,0,0,0,0,0,0,0,0,0,0,0,0,0,0,0,0,0,0,0,0,0,0],"sum_hessian":[1.6831598E3,1.6252947E3,5.7865192E1,2.3749863E1,1.6015448E3,5.238168E1,5.4835124E0,1.9515203E1,4.2346597E0,8.016051E2,7.999397E2,4.134317E1,1.1038507E1,4.0991373E0,1.3843753E0,6.2303514E0,1.3284851E1,1.243396E0,2.9912634E0,7.5628735E2,4.531771E1,6.693012E2,1.3063847E2,3.838805E1,2.955121E0,9.558398E0,1.4801092E0,2.6564221E0,1.4427149E0,2.99495E0,3.2354016E0,2.2307405E0,1.1054111E1,1.2476925E0,1.743571E0,2.616982E2,4.9458914E2,3.8089745E1,7.227968E0,6.191384E2,5.016282E1,2.4389185E1,1.0624928E2,3.6960327E1,1.427723E0,1.2327676E0,1.7223536E0,1.3891608E0,8.169237E0],"tree_param":{"num_deleted":"0","num_feature":"31","num_nodes":"49","size_leaf_vector":"1"}},{"base_weights":[2.3815215E-4,2.5980625E-1,-1.7796509E-2,-6.7458695E-1,3.27484E-1,-2.1925373E-2,7.957007E-1,-1.07444525E-1,-7.913971E-2,4.4801465E-1,-1.8047608E-1,2.6619893E-2,-9.764356E-2,9.938767E-1,-1.5408838E-2,5.240661E-2,-6.997861E-2,3.4009427E-1,1.1263136E0,-1.1237713E0,1.1504664E-1,-4.991088E-4,2.5153762E-1,2.8417481E-2,-2.1266171E-1,1.4886165E-1,2.8041875E-1,-2.6049955E-2,4.452814E-2,3.8551E-2,1.246834E-1,-1.9145643E-2,-1.3856335E-1,-1.8431535E-2,1.2253579E-1,2.0784617E-3,-3.2167993E-2,3.5490703E-2,-4.751639E-2,-3.506988E-2,1.3040396E-2,-6.801733E-2,-1.4307096E-2,-5.877732E-2,8.867783E-2],"categories":[],"categories_nodes":[],"categories_segments":[],"categories_sizes":[],"default_left":[0,0,0,0,0,0,0,0,0,0,0,0,0,0,0,0,0,0,0,0,0,0,0,0,0,0,0,0,0,0,0,0,0,0,0,0,0,0,0,0,0,0,0,0,0],"id":8,"left_children":[1,3,5,7,9,11,13,-1,15,17,19,21,23,25,-1,-1,-1,27,29,31,33,35,37,39,41,-1,43,-1,-1,-1,-1,-1,-1,-1,-1,-1,-1,-1,-1,-1,-1,-1,-1,-1,-1],"loss_changes":[7.8826365E0,7.138778E0,5.305912E0,1.7518902E0,6.367386E0,5.7644405E0,1.6547627E0,0E0,1.9312605E0,5.7128696E0,5.8173532E0,5.8308897E0,8.888165E0,1.9597759E0,0E0,0E0,0E0,4.745243E0,5.0127316E-1,9.457364E-1,5.691625E0,5.8450737E0,7.8953466E0,1.138017E1,1.0328128E1,0E0,2.6216478E0,0E0,0E0,0E0,0E0,0E0,0E0,0E0,0E0,0E0,0E0,0E0,0E0,0E0,0E0,0E0,0E0,0E0,0E0],"parents":[2147483647,0,0,1,1,2,2,3,3,4,4,5,5,6,6,8,8,9,9,10,10,11,11,12,12,13,13,17,17,18,18,19,19,20,20,21,21,22,22,23,23,24,24,26,26],"right_children":[2,4,6,8,10,12,14,-1,16,18,20,22,24,26,-1,-1,-1,28,30,32,34,36,38,40,42,-1,44,-1,-1,-1,-1,-1,-1,-1,-1,-1,-1,-1,-1,-1,-1,-1,-1,-1,-1],"split_conditions":[-8.4843993E-1,-9.196474E-1,2.508414E0,-9.169357E-1,6.066705E-1,3.5811275E-1,1.4041568E0,-1.07444525E-1,-1.0075923E0,-5.3136414E-1,-2.8897517E-3,5.569561E-1,2.8014833E-1,3.0131415E-1,-1.5408838E-2,5.240661E-2,-6.997861E-2,-7.3226005E-1,-9.13686E-1,-6.6897464E-1,9.166155E-1,1.5857203E0,2.9402223E-1,3.7559927E-1,3.2676145E-1,1.4886165E-1,6.4555116E-2,-2.6049955E-2,4.452814E-2,3.8551E-2,1.246834E-1,-1.9145643E-2,-1.3856335E-1,-1.8431535E-2,1.2253579E-1,2.0784617E-3,-3.2167993E-2,3.5490703E-2,-4.751639E-2,-3.506988E-2,1.3040396E-2,-6.801733E-2,-1.4307096E-2,-5.877732E-2,8.867783E-2],"split_indices":[6,30,21,6,16,21,8,0,22,29,24,14,3,29,0,0,0,8,21,0,0,6,21,13,25,0,30,0,0,0,0,0,0,0,0,0,0,0,0,0,0,0,0,0,0],"split_type":[0,0,0,0,0,0,0,0,0,0,0,0,0,0,0,0,0,0,0,0,0,0,0,0,0,0,0,0,0,0,0,0,0,0,0,0,0,0,0,0,0,0,0,0,0],"sum_hessian":[1.6818962E3,1.0839466E2,1.5735016E3,6.7150927E0,1.01679565E2,1.5665238E3,6.9777637E0,3.5360851E0,3.1790073E0,8.2275055E1,1.9404512E1,9.549344E2,6.115894E2,5.7347703E0,1.2429931E0,1.69107E0,1.4879375E0,7.227688E1,9.998179E0,3.960409E0,1.5444103E1,8.530744E2,1.0185995E2,2.921467E2,3.1944275E2,2.744881E0,2.9898894E0,1.0551836E1,6.172504E1,1.986495E0,8.011684E0,1.2480562E0,2.7123528E0,1.28212385E1,2.6228642E0,8.0093414E2,5.214031E1,8.962315E1,1.2236796E1,6.1413704E1,2.3073299E2,4.025244E1,2.791903E2,1.242096E0,1.7477936E0],"tree_param":{"num_deleted":"0","num_feature":"31","num_nodes":"45","size_leaf_vector":"1"}},{"base_weights":[2.3680012E-4,-1.1503118E-2,3.3084446E-1,-6.415328E-3,-6.0112804E-1,5.1661444E-1,-3.066118E-1,-1.0211096E-2,9.7709745E-1,3.248348E-2,-8.1724393E-1,-3.5069022E-1,6.281794E-1,-5.9056485E-1,5.8560234E-1,-3.313112E-2,1.3108057E-1,1.4071763E-1,-8.342162E-3,-7.222231E-2,1.1079778E-1,-1.0575243E0,1.4027062E-2,5.891803E-2,-7.214021E-1,1.1815936E-1,8.949961E-1,-1.0323294E0,3.1215E-1,1.0102332E-1,-1.9671133E-2,5.294375E-4,-1.6745718E-2,-9.355611E-3,2.5133232E-2,-3.4284797E-2,-1.16116695E-1,1.2601367E-2,-1.1338798E-1,-6.778962E-2,3.8116787E-2,1.044557E-1,-3.3018555E-2,1.4533187E-2,-1.2852484E-1,9.371675E-2,-2.3059761E-2],"categories":[],"categories_nodes":[],"categories_segments":[],"categories_sizes":[],"default_left":[0,0,0,0,0,0,0,0,0,0,0,0,0,0,0,0,0,0,0,0,0,0,0,0,0,0,0,0,0,0,0,0,0,0,0,0,0,0,0,0,0,0,0,0,0,0,0],"id":9,"left_children":[1,3,5,7,9,11,13,15,17,19,21,23,25,27,29,31,33,-1,-1,-1,-1,35,-1,-1,37,39,41,43,45,-1,-1,-1,-1,-1,-1,-1,-1,-1,-1,-1,-1,-1,-1,-1,-1,-1,-1],"loss_changes":[6.5302186E0,4.870369E0,6.990799E0,6.0275497E0,1.9284792E0,4.5792637E0,3.8033445E0,5.207511E0,2.948645E0,4.448197E0,2.5399618E0,2.4375546E0,5.3746443E0,4.6492643E0,1.4600267E0,7.140574E0,6.0868244E0,0E0,0E0,0E0,0E0,2.2608662E-1,0E0,0E0,1.7479136E0,3.395671E0,5.1619587E0,2.4258718E0,1.6859894E0,0E0,0E0,0E0,0E0,0E0,0E0,0E0,0E0,0E0,0E0,0E0,0E0,0E0,0E0,0E0,0E0,0E0,0E0],"parents":[2147483647,0,0,1,1,2,2,3,3,4,4,5,5,6,6,7,7,8,8,9,9,10,10,11,11,12,12,13,13,14,14,15,15,16,16,21,21,24,24,25,25,26,26,27,27,28,28],"right_children":[2,4,6,8,10,12,14,16,18,20,22,24,26,28,30,32,34,-1,-1,-1,-1,36,-1,-1,38,40,42,44,46,-1,-1,-1,-1,-1,-1,-1,-1,-1,-1,-1,-1,-1,-1,-1,-1,-1,-1],"split_conditions":[1.710486E0,1.520648E0,6.920607E-1,1.5276321E0,-3.3344138E-1,-1.5303954E0,7.866285E-1,9.6621156E-1,1.520264E0,-5.1524323E-1,2.5123336E0,-4.133667E-1,-4.5425627E-1,-7.8026426E-1,6.9201785E-1,7.8435624E-1,-3.0714065E-1,1.4071763E-1,-8.342162E-3,-7.222231E-2,1.1079778E-1,-1.0679035E0,1.4027062E-2,5.891803E-2,-8.628034E-1,-8.628034E-1,1.4239237E0,-5.9297305E-1,9.375406E-1,1.0102332E-1,-1.9671133E-2,5.294375E-4,-1.6745718E-2,-9.355611E-3,2.5133232E-2,-3.4284797E-2,-1.16116695E-1,1.2601367E-2,-1.1338798E-1,-6.778962E-2,3.8116787E-2,1.044557E-1,-3.3018555E-2,1.4533187E-2,-1.2852484E-1,9.371675E-2,-2.3059761E-2],"split_indices":[7,25,16,17,6,25,17,22,12,6,6,20,20,6,8,7,13,0,0,0,0,7,0,0,21,21,24,29,16,0,0,0,0,0,0,0,0,0,0,0,0,0,0,0,0,0,0],"split_type":[0,0,0,0,0,0,0,0,0,0,0,0,0,0,0,0,0,0,0,0,0,0,0,0,0,0,0,0,0,0,0,0,0,0,0,0,0,0,0,0,0,0,0,0,0,0,0],"sum_hessian":[1.6804987E3,1.6238025E3,5.669622E1,1.6109131E3,1.2889461E1,4.404889E1,1.2647328E1,1.6057056E3,5.207442E0,3.4943557E0,9.395105E0,4.7761087E0,3.927278E1,9.85045E0,2.7968793E0,1.3822462E3,2.2345941E2,3.4723878E0,1.7350538E0,2.246437E0,1.2479186E0,7.426931E0,1.9681742E0,1.1842766E0,3.591832E0,1.398442E1,2.528836E1,6.517416E0,3.3330333E0,1.6240327E0,1.1728466E0,1.0755372E3,3.06709E2,7.799067E1,1.4546873E2,1.4862628E0,5.940668E0,1.4033047E0,2.1885273E0,3.0811484E0,1.0903272E1,2.266858E1,2.6197817E0,1.2274497E0,5.2899666E0,1.2113532E0,2.12168E0],"tree_param":{"num_deleted":"0","num_feature":"31","num_nodes":"47","size_leaf_vector":"1"}},{"base_weights":[2.732321E-4,2.2738121E-1,-1.53121045E-2,-8.528718E-1,2.821436E-1,8.2677156E-1,-1.9059343E-2,-1.1921897E-1,3.4427338E-3,2.0039007E-1,8.746697E-1,1.4067977E-2,1.0268327E0,-1.3919589E-2,-6.998459E-1,6.4066344E-1,5.8870953E-2,1.0310682E0,-3.4005288E-2,1.1965599E-1,3.5910077E-2,-1.8069194E-1,5.9884964E-3,2.4880825E-2,-8.9052117E-1,1.851079E-2,1.07397296E-1,-9.7531036E-2,1.3278926E-2,2.286835E-2,1.19340874E-1,-4.3386086E-3,-5.7724226E-2,8.289852E-3,-5.404325E-3,-8.632486E-3,-1.0718721E-1],"categories":[],"categories_nodes":[],"categories_segments":[],"categories_sizes":[],"default_left":[0,0,0,0,0,0,0,0,0,0,0,0,0,0,0,0,0,0,0,0,0,0,0,0,0,0,0,0,0,0,0,0,0,0,0,0,0],"id":10,"left_children":[1,3,5,7,9,11,13,-1,-1,15,17,-1,19,21,23,25,27,29,-1,-1,-1,31,33,-1,35,-1,-1,-1,-1,-1,-1,-1,-1,-1,-1,-1,-1],"loss_changes":[5.9514585E0,6.628275E0,4.980771E0,1.6844065E0,4.839304E0,8.1545067E-1,5.47492E0,0E0,0E0,5.711052E0,2.6786537E0,0E0,1.6595793E-1,5.1696277E0,2.3424315E0,4.2114286E0,5.5512195E0,1.1735268E0,0E0,0E0,0E0,9.015961E0,6.429968E0,0E0,1.3631268E0,0E0,0E0,0E0,0E0,0E0,0E0,0E0,0E0,0E0,0E0,0E0,0E0],"parents":[2147483647,0,0,1,1,2,2,3,3,4,4,5,5,6,6,9,9,10,10,12,12,13,13,14,14,15,15,16,16,17,17,21,21,22,22,24,24],"right_children":[2,4,6,8,10,12,14,-1,-1,16,18,-1,20,22,24,26,28,30,-1,-1,-1,32,34,-1,36,-1,-1,-1,-1,-1,-1,-1,-1,-1,-1,-1,-1],"split_conditions":[-8.4843993E-1,-1.7209979E0,-2.1694434E0,-8.0700827E-1,-5.2561826E-1,-2.2950258E0,1.700963E0,-1.1921897E-1,3.4427338E-3,-9.953318E-1,1.0096977E0,1.4067977E-2,-2.1883147E0,-1.6193523E0,3.4667742E-1,-9.169357E-1,-9.118978E-1,-9.13686E-1,-3.4005288E-2,1.1965599E-1,3.5910077E-2,-1.919402E0,2.8014833E-1,2.4880825E-2,8.368231E-1,1.851079E-2,1.07397296E-1,-9.7531036E-2,1.3278926E-2,2.286835E-2,1.19340874E-1,-4.3386086E-3,-5.7724226E-2,8.289852E-3,-5.404325E-3,-8.632486E-3,-1.0718721E-1],"split_indices":[6,22,12,29,29,28,24,0,0,22,13,0,25,28,20,6,30,21,0,0,0,1,3,0,21,0,0,0,0,0,0,0,0,0,0,0,0],"split_type":[0,0,0,0,0,0,0,0,0,0,0,0,0,0,0,0,0,0,0,0,0,0,0,0,0,0,0,0,0,0,0,0,0,0,0,0,0],"sum_hessian":[1.6794309E3,1.069774E2,1.5724535E3,4.45829E0,1.0251911E2,5.9933176E0,1.5664602E3,2.9764352E0,1.4818546E0,9.126505E1,1.1254058E1,1.7375907E0,4.2557273E0,1.5557354E3,1.0724932E1,2.1341984E1,6.992307E1,1.0104295E1,1.1497627E0,2.7617552E0,1.4939718E0,1.6504636E2,1.390689E3,1.7438732E0,8.981058E0,1.1099661E1,1.0242323E1,3.8509197E0,6.607215E1,2.1056364E0,7.998659E0,1.2342111E2,4.1625248E1,6.094753E2,7.812137E2,1.9242095E0,7.0568485E0],"tree_param":{"num_deleted":"0","num_feature":"31","num_nodes":"37","size_leaf_vector":"1"}},{"base_weights":[2.8705393E-4,4.4938177E-1,-6.9855847E-3,7.0606697E-1,-6.242387E-1,-3.378631E-3,-8.049224E-1,-4.5062855E-2,9.7577864E-1,-1.083142E0,5.824274E-2,2.2637172E-2,-1.1376416E-1,-1.4473464E-1,3.365535E-1,-4.589653E-1,7.511656E-2,-5.4769523E-2,1.1637267E0,-2.4113411E-2,-1.3342495E-1,-1.8581074E-1,4.960552E-2,-1.8526578E-1,2.7927983E-1,1.10883646E-1,-5.8945157E-2,5.3574055E-2,-9.0352915E-2,1.2522805E-1,1.0297069E-2,-5.096325E-3,-6.204259E-2,3.5885007E-3,4.6428815E-2,-1.7758043E-3,-3.660203E-2,6.0733773E-2,-1.2615934E-2],"categories":[],"categories_nodes":[],"categories_segments":[],"categories_sizes":[],"default_left":[0,0,0,0,0,0,0,0,0,0,0,0,0,0,0,0,0,0,0,0,0,0,0,0,0,0,0,0,0,0,0,0,0,0,0,0,0,0,0],"id":11,"left_children":[1,3,5,7,9,11,13,15,17,19,-1,21,23,-1,25,27,-1,-1,29,-1,-1,31,33,35,37,-1,-1,-1,-1,-1,-1,-1,-1,-1,-1,-1,-1,-1,-1],"loss_changes":[5.487275E0,7.819045E0,4.755774E0,4.5164547E0,3.7853842E0,4.7320833E0,5.9398656E0,2.5820274E0,5.3011923E0,6.2482643E-1,0E0,7.5061502E0,8.883997E0,0E0,3.1488235E0,2.7337756E0,0E0,0E0,1.2630882E0,0E0,0E0,8.934324E0,6.7064347E0,8.062734E0,6.5636253E0,0E0,0E0,0E0,0E0,0E0,0E0,0E0,0E0,0E0,0E0,0E0,0E0,0E0,0E0],"parents":[2147483647,0,0,1,1,2,2,3,3,4,4,5,5,6,6,7,7,8,8,9,9,11,11,12,12,14,14,15,15,18,18,21,21,22,22,23,23,24,24],"right_children":[2,4,6,8,10,12,14,16,18,20,-1,22,24,-1,26,28,-1,-1,30,-1,-1,32,34,36,38,-1,-1,-1,-1,-1,-1,-1,-1,-1,-1,-1,-1,-1,-1],"split_conditions":[-2.065915E0,-9.953088E-1,5.2467947E0,-2.335122E0,-2.1306784E0,1.1005728E0,1.0930662E0,3.06653E-1,-1.9661193E0,-5.805236E-1,5.824274E-2,-1.6193523E0,1.0267779E0,-1.4473464E-1,1.2562486E0,-6.976153E-1,7.511656E-2,-5.4769523E-2,-1.273609E0,-2.4113411E-2,-1.3342495E-1,-1.9233826E0,1.710486E0,-3.0209908E-1,1.5544686E0,1.10883646E-1,-5.8945157E-2,5.3574055E-2,-9.0352915E-2,1.2522805E-1,1.0297069E-2,-5.096325E-3,-6.204259E-2,3.5885007E-3,4.6428815E-2,-1.7758043E-3,-3.660203E-2,6.0733773E-2,-1.2615934E-2],"split_indices":[14,23,30,13,14,23,7,19,28,29,0,28,22,0,17,0,0,0,16,0,0,10,7,30,22,0,0,0,0,0,0,0,0,0,0,0,0,0,0],"split_type":[0,0,0,0,0,0,0,0,0,0,0,0,0,0,0,0,0,0,0,0,0,0,0,0,0,0,0,0,0,0,0,0,0,0,0,0,0,0,0],"sum_hessian":[1.6781067E3,2.5773436E1,1.6523333E3,2.107669E1,4.6967444E0,1.6458975E3,6.435798E0,5.788635E0,1.5288056E1,3.4768445E0,1.2198997E0,1.332619E3,3.1327844E2,3.9466558E0,2.4891424E0,4.087441E0,1.7011936E0,1.468728E0,1.3819328E1,1.2490017E0,2.2278428E0,1.5198477E2,1.1806343E3,2.655067E2,4.777171E1,1.2495685E0,1.239574E0,1.1991858E0,2.8882554E0,1.25879135E1,1.2314152E0,1.1684782E2,3.5136963E1,1.1438737E3,3.6760555E1,1.383729E2,1.2713384E2,2.6130472E1,2.164124E1],"tree_param":{"num_deleted":"0","num_feature":"31","num_nodes":"39","size_leaf_vector":"1"}},{"base_weights":[2.1903524E-4,1.6278198E-1,-1.678158E-2,-6.572426E-1,1.9976999E-1,-2.0739703E-2,7.385661E-1,-8.8986766E-1,2.4083778E-2,4.040334E-1,4.199257E-2,-1.6859358E-2,-8.380324E-1,2.3008032E-1,1.1883713E-1,-1.1659136E-1,-1.47242835E-2,6.892844E-1,4.5515332E-2,-1.1617436E-1,1.04572095E-1,7.794455E-1,-2.0502375E-2,-2.4612366E-1,-1.3166319E-1,1.1562313E-1,-5.010657E-1,4.205344E-3,9.893005E-2,-1.9887676E-2,8.177861E-2,2.3612448E-3,1.1023176E-1,1.3501281E-2,9.70559E-2,-1.5932395E-3,-6.591861E-2,7.519519E-2,-8.7220125E-2,-1.0227972E-1,2.4236917E-2],"categories":[],"categories_nodes":[],"categories_segments":[],"categories_sizes":[],"default_left":[0,0,0,0,0,0,0,0,0,0,0,0,0,0,0,0,0,0,0,0,0,0,0,0,0,0,0,0,0,0,0,0,0,0,0,0,0,0,0,0,0],"id":12,"left_children":[1,3,5,7,9,11,13,15,-1,17,19,21,23,25,-1,-1,-1,27,29,-1,31,33,35,37,-1,-1,39,-1,-1,-1,-1,-1,-1,-1,-1,-1,-1,-1,-1,-1,-1],"loss_changes":[4.639832E0,4.95244E0,4.559533E0,1.6962144E0,4.909343E0,4.784091E0,1.5449948E0,1.0269442E0,0E0,6.769347E0,6.7021036E0,4.3872757E0,1.6954541E0,3.9460664E0,0E0,0E0,0E0,7.135868E0,5.9259453E0,0E0,6.755888E0,7.172761E-1,4.3704576E0,3.415949E0,0E0,0E0,1.596185E0,0E0,0E0,0E0,0E0,0E0,0E0,0E0,0E0,0E0,0E0,0E0,0E0,0E0,0E0],"parents":[2147483647,0,0,1,1,2,2,3,3,4,4,5,5,6,6,7,7,9,9,10,10,11,11,12,12,13,13,17,17,18,18,20,20,21,21,22,22,23,23,26,26],"right_children":[2,4,6,8,10,12,14,16,-1,18,20,22,24,26,-1,-1,-1,28,30,-1,32,34,36,38,-1,-1,40,-1,-1,-1,-1,-1,-1,-1,-1,-1,-1,-1,-1,-1,-1],"split_conditions":[-7.937073E-1,-1.7209979E0,2.508414E0,-8.1851304E-1,-4.7976854E-1,1.5649385E0,-7.2760455E-2,-7.94878E-1,2.4083778E-2,3.417486E-1,-9.0317947E-1,-2.1694434E0,1.0796179E0,6.4370596E-1,1.1883713E-1,-1.1659136E-1,-1.47242835E-2,-9.0909386E-1,-6.1415005E-1,-1.1617436E-1,1.191354E0,-2.2950258E0,1.700963E0,9.4717336E-1,-1.3166319E-1,1.1562313E-1,8.780579E-1,4.205344E-3,9.893005E-2,-1.9887676E-2,8.177861E-2,2.3612448E-3,1.1023176E-1,1.3501281E-2,9.70559E-2,-1.5932395E-3,-6.591861E-2,7.519519E-2,-8.7220125E-2,-1.0227972E-1,2.4236917E-2],"split_indices":[6,22,21,6,22,3,20,29,0,28,30,12,16,15,0,0,0,6,22,0,26,28,24,6,0,0,15,0,0,0,0,0,0,0,0,0,0,0,0,0,0],"split_type":[0,0,0,0,0,0,0,0,0,0,0,0,0,0,0,0,0,0,0,0,0,0,0,0,0,0,0,0,0,0,0,0,0,0,0,0,0,0,0,0,0],"sum_hessian":[1.6768778E3,1.5795059E2,1.5189272E3,6.093286E0,1.5185732E2,1.5119768E3,6.950417E0,4.8469505E0,1.2463355E0,6.549924E1,8.635807E1,1.5058479E3,6.12884E0,3.971883E0,2.9785342E0,3.1179624E0,1.7289879E0,3.5963043E1,2.9536196E1,3.3996916E0,8.295838E1,5.8879185E0,1.4999601E3,3.4170523E0,2.7117877E0,1.4957737E0,2.4761093E0,1.1751486E1,2.4211555E1,2.3000088E1,6.5361085E0,7.767897E1,5.2794075E0,1.7370511E0,4.1508675E0,1.4903213E3,9.638766E0,1.2397016E0,2.1773505E0,1.2341962E0,1.2419131E0],"tree_param":{"num_deleted":"0","num_feature":"31","num_nodes":"41","size_leaf_vector":"1"}},{"base_weights":[2.7167643E-4,4.066254E-1,-6.2308814E-3,6.478067E-1,-5.9158194E-1,9.4460525E-2,-3.2597892E-2,-3.66652E-2,8.9688885E-1,-1.0275803E0,5.526462E-2,-1.9710654E-1,1.6126457E-1,-3.6904904E-1,-1.842817E-2,-4.2345822E-1,7.1000874E-2,-5.135419E-2,1.0757717E0,-2.5194187E-2,-1.2505643E-1,-8.606411E-1,-4.5126196E-2,7.390536E-2,3.873755E-1,-1.0239542E0,-1.1567876E-1,-1.5573248E-1,1.1794943E-2,5.0908614E-2,-8.394637E-2,1.158901E-1,9.822125E-3,1.580021E-2,-1.1818707E-1,1.0712421E-1,-1.9538984E-2,8.6234845E-2,3.5627857E-3,6.327538E-2,1.8316483E-2,7.203688E-2,-1.2654804E-1,9.751074E-3,-1.0318687E-1,-1.682785E-3,-4.2765077E-2,1.7208019E-3,-7.453496E-2],"categories":[],"categories_nodes":[],"categories_segments":[],"categories_sizes":[],"default_left":[0,0,0,0,0,0,0,0,0,0,0,0,0,0,0,0,0,0,0,0,0,0,0,0,0,0,0,0,0,0,0,0,0,0,0,0,0,0,0,0,0,0,0,0,0,0,0,0,0],"id":13,"left_children":[1,3,5,7,9,11,13,15,17,19,-1,21,23,25,27,29,-1,-1,31,-1,-1,33,35,37,39,41,43,45,47,-1,-1,-1,-1,-1,-1,-1,-1,-1,-1,-1,-1,-1,-1,-1,-1,-1,-1,-1,-1],"loss_changes":[4.432923E0,6.7446094E0,4.387085E0,3.7425222E0,3.3938396E0,6.7112503E0,6.235387E0,2.2547882E0,4.5873995E0,4.548216E-1,0E0,6.453E0,5.493306E0,8.653166E0,5.2200856E0,2.399526E0,0E0,0E0,1.0657558E0,0E0,0E0,4.094263E0,9.172715E0,6.0921307E0,3.7760944E0,7.0705757E0,7.7656956E0,8.564064E0,4.2406225E0,0E0,0E0,0E0,0E0,0E0,0E0,0E0,0E0,0E0,0E0,0E0,0E0,0E0,0E0,0E0,0E0,0E0,0E0,0E0,0E0],"parents":[2147483647,0,0,1,1,2,2,3,3,4,4,5,5,6,6,7,7,8,8,9,9,11,11,12,12,13,13,14,14,15,15,18,18,21,21,22,22,23,23,24,24,25,25,26,26,27,27,28,28],"right_children":[2,4,6,8,10,12,14,16,18,20,-1,22,24,26,28,30,-1,-1,32,-1,-1,34,36,38,40,42,44,46,48,-1,-1,-1,-1,-1,-1,-1,-1,-1,-1,-1,-1,-1,-1,-1,-1,-1,-1,-1,-1],"split_conditions":[-2.065915E0,-9.953088E-1,-6.343643E-1,-2.335122E0,-2.1306784E0,-7.3226005E-1,-5.928715E-1,3.06653E-1,-1.9661193E0,-5.805236E-1,5.526462E-2,-1.0894629E0,7.105963E-1,-8.79144E-1,-7.1645665E-1,-6.976153E-1,7.1000874E-2,-5.135419E-2,-1.273609E0,-2.5194187E-2,-1.2505643E-1,-1.1090356E0,-3.822662E-1,-1.514378E0,2.1947088E-2,-1.5877641E0,8.8334495E-1,3.6323562E-1,5.2467947E0,5.0908614E-2,-8.394637E-2,1.158901E-1,9.822125E-3,1.580021E-2,-1.1818707E-1,1.0712421E-1,-1.9538984E-2,8.6234845E-2,3.5627857E-3,6.327538E-2,1.8316483E-2,7.203688E-2,-1.2654804E-1,9.751074E-3,-1.0318687E-1,-1.682785E-3,-4.2765077E-2,1.7208019E-3,-7.453496E-2],"split_indices":[14,23,30,13,14,8,30,19,28,29,0,17,1,23,22,0,0,0,16,0,0,24,19,23,21,23,17,3,30,0,0,0,0,0,0,0,0,0,0,0,0,0,0,0,0,0,0,0,0],"split_type":[0,0,0,0,0,0,0,0,0,0,0,0,0,0,0,0,0,0,0,0,0,0,0,0,0,0,0,0,0,0,0,0,0,0,0,0,0,0,0,0,0,0,0,0,0,0,0,0,0],"sum_hessian":[1.6756924E3,2.5423288E1,1.6502692E3,2.0758715E1,4.6645746E0,3.4192596E2,1.3083431E3,5.766182E0,1.4992532E1,3.4513948E0,1.2131798E0,6.3374905E1,2.7855106E2,5.1862232E1,1.256481E3,4.083642E0,1.6825397E0,1.4768938E0,1.3515638E1,1.2462486E0,2.2051463E0,1.0941649E1,5.2433254E1,2.0188034E2,7.667072E1,1.36189575E1,3.8243275E1,2.2592871E2,1.0305522E3,1.1907139E0,2.8929284E0,1.2285394E1,1.2302445E0,2.7450428E0,8.196607E0,5.493177E0,4.6940075E1,8.350349E0,1.9352998E2,3.3871906E1,4.2798813E1,1.4152601E0,1.2203697E1,3.1749102E1,6.494173E0,1.5024208E2,7.568662E1,1.0242072E3,6.3451204E0],"tree_param":{"num_deleted":"0","num_feature":"31","num_nodes":"49","size_leaf_vector":"1"}},{"base_weights":[1.9670786E-4,2.2740707E-2,-1.14801876E-1,-1.6480246E-1,4.6915036E-2,9.276131E-1,-1.4882374E-1,-5.6083955E-2,-5.9062E-1,6.934066E-1,3.9426092E-2,1.1290706E0,-1.663819E-2,-9.971223E-2,-5.4215413E-1,6.4795476E-1,-1.1103681E-1,-1.4816777E-1,-9.846194E-1,1.0883496E0,-3.1983337E-1,2.6841933E-2,4.2160004E-1,4.677848E-1,1.356071E-1,-1.6797337E-1,3.2495776E-1,-1.4540862E-1,-3.7420747E-1,-3.998768E-2,8.944892E-2,-3.4540128E-2,8.783427E-3,-7.333085E-2,2.7365172E-2,-1.2861717E-1,-4.3028514E-3,1.36897145E-2,1.3329063E-1,5.2158307E-2,-9.8450325E-2,-2.6921198E-2,4.219553E-3,-9.190937E-3,7.276973E-2,1.00809634E-1,-2.774953E-2,-1.2695444E-2,-1.1537005E-1,9.0261385E-2,-1.2127782E-2,-1.8029684E-2,-1.0401019E-1],"categories":[],"categories_nodes":[],"categories_segments":[],"categories_sizes":[],"default_left":[0,0,0,0,0,0,0,0,0,0,0,0,0,0,0,0,0,0,0,0,0,0,0,0,0,0,0,0,0,0,0,0,0,0,0,0,0,0,0,0,0,0,0,0,0,0,0,0,0,0,0,0,0],"id":14,"left_children":[1,3,5,7,9,11,13,15,17,19,21,23,-1,25,27,29,31,33,35,37,39,41,43,45,-1,47,49,-1,51,-1,-1,-1,-1,-1,-1,-1,-1,-1,-1,-1,-1,-1,-1,-1,-1,-1,-1,-1,-1,-1,-1,-1,-1],"loss_changes":[4.347337E0,6.364093E0,9.885538E0,7.388147E0,5.9892855E0,2.1328588E0,5.1040516E0,5.0553517E0,5.5196323E0,6.018681E0,5.90195E0,5.0367355E-1,0E0,6.9714985E0,3.9608812E0,2.8046155E0,5.638937E0,4.2697196E0,4.7755814E0,2.2428513E0,3.1684058E0,5.4269104E0,6.217081E0,1.6746249E0,0E0,8.191961E0,8.714729E0,0E0,3.1937683E0,0E0,0E0,0E0,0E0,0E0,0E0,0E0,0E0,0E0,0E0,0E0,0E0,0E0,0E0,0E0,0E0,0E0,0E0,0E0,0E0,0E0,0E0,0E0,0E0],"parents":[2147483647,0,0,1,1,2,2,3,3,4,4,5,5,6,6,7,7,8,8,9,9,10,10,11,11,13,13,14,14,15,15,16,16,17,17,18,18,19,19,20,20,21,21,22,22,23,23,25,25,26,26,28,28],"right_children":[2,4,6,8,10,12,14,16,18,20,22,24,-1,26,28,30,32,34,36,38,40,42,44,46,-1,48,50,-1,52,-1,-1,-1,-1,-1,-1,-1,-1,-1,-1,-1,-1,-1,-1,-1,-1,-1,-1,-1,-1,-1,-1,-1,-1],"split_conditions":[1.1617055E0,-1.6193523E0,-2.0536091E0,-1.9103084E0,-1.535873E0,-2.1459403E0,1.632391E0,-6.079874E-1,2.1765101E-1,-9.0760306E-2,1.710486E0,-2.106883E0,-1.663819E-2,5.2113724E-1,1.2213956E0,-8.641171E-1,-2.0692115E0,-4.6661717E-1,7.180798E-1,-3.8118702E-1,-1.6965688E0,-1.6932675E0,-4.5425627E-1,-1.9313942E-1,1.356071E-1,1.6035123E0,1.4210737E-1,-1.4540862E-1,1.1315465E0,-3.998768E-2,8.944892E-2,-3.4540128E-2,8.783427E-3,-7.333085E-2,2.7365172E-2,-1.2861717E-1,-4.3028514E-3,1.36897145E-2,1.3329063E-1,5.2158307E-2,-9.8450325E-2,-2.6921198E-2,4.219553E-3,-9.190937E-3,7.276973E-2,1.00809634E-1,-2.774953E-2,-1.2695444E-2,-1.1537005E-1,9.0261385E-2,-1.2127782E-2,-1.8029684E-2,-1.0401019E-1],"split_indices":[24,28,28,27,18,26,21,22,22,30,7,1,0,30,13,22,18,30,24,22,11,21,20,22,0,22,25,0,16,0,0,0,0,0,0,0,0,0,0,0,0,0,0,0,0,0,0,0,0,0,0,0,0],"split_type":[0,0,0,0,0,0,0,0,0,0,0,0,0,0,0,0,0,0,0,0,0,0,0,0,0,0,0,0,0,0,0,0,0,0,0,0,0,0,0,0,0,0,0,0,0,0,0,0,0,0,0,0,0],"sum_hessian":[1.6748647E3,1.4010159E3,2.7384894E2,1.5930658E2,1.2417092E3,7.8251295E0,2.660238E2,1.2780698E2,3.1499601E1,1.31703825E1,1.228539E3,6.581157E0,1.2439724E0,2.3760927E2,2.8414549E1,8.472237E0,1.1933474E2,1.5485643E1,1.6013958E1,9.423242E0,3.7471406E0,1.1904115E3,3.812743E1,2.4639692E0,4.117188E0,2.0522588E2,3.2383396E1,3.2281296E0,2.5186419E1,1.4952146E0,6.9770217E0,5.4440823E1,6.489392E1,6.1776595E0,9.307983E0,1.1852227E1,4.161731E0,2.2457776E0,7.1774635E0,1.7487034E0,1.9984374E0,5.7876694E1,1.1325348E3,1.4500723E1,2.3626705E1,1.2239742E0,1.239995E0,1.981107E2,7.115164E0,1.3667701E1,1.8715694E1,2.0490328E1,4.696092E0],"tree_param":{"num_deleted":"0","num_feature":"31","num_nodes":"53","size_leaf_vector":"1"}},{"base_weights":[1.0107732E-4,-3.1285677E-3,6.8239146E-1,1.067187E-2,-2.1975696E-1,1.8211874E-1,1.13265514E-1,3.453215E-2,-9.296547E-2,1.7087398E-1,-4.177837E-1,-3.9927304E-2,7.992365E-2,3.9174028E-2,-1.0489329E0,-1.5231156E-1,2.613322E-1,-5.0419813E-1,4.5678216E-1,-6.3850045E-1,2.1895672E-1,2.7356462E-3,4.406361E-2,-1.4091624E-1,-2.7483037E-2,-8.232191E-3,-5.17358E-2,-5.9326846E-2,3.8660847E-2,-8.77201E-2,7.482418E-2,1.2539744E-2,1.3727413E-1,-9.701718E-2,-3.7477296E-2,9.652584E-2,-1.3327219E-2],"categories":[],"categories_nodes":[],"categories_segments":[],"categories_sizes":[],"default_left":[0,0,0,0,0,0,0,0,0,0,0,0,0,0,0,0,0,0,0,0,0,0,0,0,0,0,0,0,0,0,0,0,0,0,0,0,0],"id":15,"left_children":[1,3,5,7,9,11,-1,13,15,17,19,-1,-1,21,23,25,27,29,31,33,35,-1,-1,-1,-1,-1,-1,-1,-1,-1,-1,-1,-1,-1,-1,-1,-1],"loss_changes":[3.692148E0,4.9879813E0,1.5718524E0,3.8824508E0,7.8010454E0,2.0882485E0,0E0,6.458005E0,6.2183924E0,6.855242E0,9.499638E0,0E0,0E0,6.0199656E0,1.1405697E0,6.4041686E0,4.7824183E0,5.6491556E0,7.3060713E0,3.9847145E0,4.8308167E0,0E0,0E0,0E0,0E0,0E0,0E0,0E0,0E0,0E0,0E0,0E0,0E0,0E0,0E0,0E0,0E0],"parents":[2147483647,0,0,1,1,2,2,3,3,4,4,5,5,7,7,8,8,9,9,10,10,13,13,14,14,15,15,16,16,17,17,18,18,19,19,20,20],"right_children":[2,4,6,8,10,12,-1,14,16,18,20,-1,-1,22,24,26,28,30,32,34,36,-1,-1,-1,-1,-1,-1,-1,-1,-1,-1,-1,-1,-1,-1,-1,-1],"split_conditions":[2.508414E0,1.5857203E0,9.378609E-1,1.1005728E0,-8.07883E-1,-7.2760455E-2,1.13265514E-1,1.7190653E0,1.0267779E0,-1.8208542E0,1.4041568E0,-3.9927304E-2,7.992365E-2,1.0298353E0,7.8866E-1,1.0930662E0,-5.184428E-1,-1.60764E-1,2.9818816E0,5.258802E-1,2.5080565E-1,2.7356462E-3,4.406361E-2,-1.4091624E-1,-2.7483037E-2,-8.232191E-3,-5.17358E-2,-5.9326846E-2,3.8660847E-2,-8.77201E-2,7.482418E-2,1.2539744E-2,1.3727413E-1,-9.701718E-2,-3.7477296E-2,9.652584E-2,-1.3327219E-2],"split_indices":[21,6,24,23,21,20,0,13,22,21,8,0,0,23,20,7,30,24,6,17,0,0,0,0,0,0,0,0,0,0,0,0,0,0,0,0,0],"split_type":[0,0,0,0,0,0,0,0,0,0,0,0,0,0,0,0,0,0,0,0,0,0,0,0,0,0,0,0,0,0,0,0,0,0,0,0,0],"sum_hessian":[1.6735723E3,1.6666783E3,6.893865E0,1.5677544E3,9.892397E1,3.9308746E0,2.9629903E0,1.2749023E3,2.9285214E2,3.3324535E1,6.5599434E1,2.2057874E0,1.7250872E0,1.2704232E3,4.47902E0,2.5132452E2,4.1527622E1,9.6874695E0,2.3637068E1,4.8711533E1,1.6887901E1,1.2351337E3,3.5289646E1,2.4967651E0,1.9822547E0,2.1191917E2,3.9405342E1,4.83166E0,3.6695965E1,7.695265E0,1.9922048E0,1.8192211E1,5.444855E0,2.0389904E1,2.8321629E1,4.856831E0,1.203107E1],"tree_param":{"num_deleted":"0","num_feature":"31","num_nodes":"37","size_leaf_vector":"1"}},{"base_weights":[1.02359336E-4,3.6523908E-1,-5.641172E-3,5.911168E-1,-5.590278E-1,-4.2102104E-1,6.0790346E-4,1.8895201E-2,8.754571E-1,-9.6892357E-1,5.1725376E-2,4.057043E-1,-6.774864E-1,1.01377E-1,-2.5424339E-2,4.343479E-1,-7.484686E-2,6.954413E-2,1.0342374E0,-1.21457316E-1,-2.7673244E-2,-1.977573E-1,9.053359E-1,5.9942855E-3,-1.0309457E0,-5.6808144E-1,1.2976454E-1,-9.932224E-2,3.0111827E-2,-4.7543537E-2,8.4206045E-2,5.4822303E-2,-4.509434E-2,9.477876E-4,1.1475817E-1,3.2964375E-2,-6.9324456E-2,1.4852005E-2,1.2057733E-1,6.88187E-2,-5.322181E-2,2.3357838E-3,-1.23265766E-1,-8.048548E-2,8.290414E-2,4.179943E-2,3.7068967E-3,-1.3281995E-1,-8.862455E-3,4.78887E-3,-4.125079E-2],"categories":[],"categories_nodes":[],"categories_segments":[],"categories_sizes":[],"default_left":[0,0,0,0,0,0,0,0,0,0,0,0,0,0,0,0,0,0,0,0,0,0,0,0,0,0,0,0,0,0,0,0,0,0,0,0,0,0,0,0,0,0,0,0,0,0,0,0,0,0,0],"id":16,"left_children":[1,3,5,7,9,11,13,15,17,19,-1,21,23,25,27,29,-1,31,33,-1,-1,35,37,39,41,43,45,47,49,-1,-1,-1,-1,-1,-1,-1,-1,-1,-1,-1,-1,-1,-1,-1,-1,-1,-1,-1,-1,-1,-1],"loss_changes":[3.5119474E0,5.7445893E0,4.279836E0,3.453374E0,2.9747896E0,5.4561844E0,4.266023E0,2.9078653E0,1.7483339E0,4.1351366E-1,0E0,2.1121297E0,4.6024723E0,6.418573E0,5.3069735E0,2.5846343E0,0E0,1.0976496E0,1.3610373E0,0E0,0E0,1.2018608E0,6.5918875E-1,3.1124675E0,2.6969557E0,5.221455E0,8.563467E0,7.175216E0,5.831615E0,0E0,0E0,0E0,0E0,0E0,0E0,0E0,0E0,0E0,0E0,0E0,0E0,0E0,0E0,0E0,0E0,0E0,0E0,0E0,0E0,0E0,0E0],"parents":[2147483647,0,0,1,1,2,2,3,3,4,4,5,5,6,6,7,7,8,8,9,9,11,11,12,12,13,13,14,14,15,15,17,17,18,18,21,21,22,22,23,23,24,24,25,25,26,26,27,27,28,28],"right_children":[2,4,6,8,10,12,14,16,18,20,-1,22,24,26,28,30,-1,32,34,-1,-1,36,38,40,42,44,46,48,50,-1,-1,-1,-1,-1,-1,-1,-1,-1,-1,-1,-1,-1,-1,-1,-1,-1,-1,-1,-1,-1,-1],"split_conditions":[-2.065915E0,-9.953088E-1,-1.9552122E0,5.177466E-1,-2.1306784E0,-1.2178576E0,-6.343643E-1,-4.9491856E-1,-3.325414E0,-4.6278268E-1,5.1725376E-2,-1.3762425E0,-2.0999322E0,-1.7209979E0,-2.2268103E-1,-6.127299E-1,-7.484686E-2,1.4017762E0,-1.6297965E0,-1.21457316E-1,-2.7673244E-2,-1.3837671E0,-7.3226005E-1,-1.2538469E0,-1.6574763E0,1.4041568E0,-9.6932703E-1,-2.2655208E0,1.3420129E0,-4.7543537E-2,8.4206045E-2,5.4822303E-2,-4.509434E-2,9.477876E-4,1.1475817E-1,3.2964375E-2,-6.9324456E-2,1.4852005E-2,1.2057733E-1,6.88187E-2,-5.322181E-2,2.3357838E-3,-1.23265766E-1,-8.048548E-2,8.290414E-2,4.179943E-2,3.7068967E-3,-1.3281995E-1,-8.862455E-3,4.78887E-3,-4.125079E-2],"split_indices":[14,23,16,22,14,23,30,6,15,21,0,24,16,22,29,30,0,7,21,0,0,23,8,13,13,8,22,0,11,0,0,0,0,0,0,0,0,0,0,0,0,0,0,0,0,0,0,0,0,0,0],"split_type":[0,0,0,0,0,0,0,0,0,0,0,0,0,0,0,0,0,0,0,0,0,0,0,0,0,0,0,0,0,0,0,0,0,0,0,0,0,0,0,0,0,0,0,0,0,0,0,0,0,0,0],"sum_hessian":[1.6726267E3,2.4933353E1,1.6476934E3,2.0326334E1,4.607019E0,2.3437168E1,1.6242562E3,7.101451E0,1.3224883E1,3.4086158E0,1.1984034E0,5.411405E0,1.8025763E1,3.3286465E2,1.2913916E3,4.888681E0,2.2127702E0,2.413383E0,1.08115E1,1.9587886E0,1.4498272E0,2.7246866E0,2.6867182E0,6.479485E0,1.1546278E1,1.2767164E1,3.2009747E2,5.53758E2,7.3763354E2,1.4614497E0,3.427231E0,1.2294252E0,1.1839579E0,1.1846414E0,9.626859E0,1.4819713E0,1.2427152E0,1.188124E0,1.4985943E0,2.7346365E0,3.7448483E0,1.9962946E0,9.549983E0,1.127952E1,1.487644E0,7.7039566E1,2.4305792E2,3.7161338E0,5.500419E2,7.1000934E2,2.76242E1],"tree_param":{"num_deleted":"0","num_feature":"31","num_nodes":"51","size_leaf_vector":"1"}},{"base_weights":[1.355202E-5,1.8321297E-1,-1.0869042E-2,-7.325019E-1,2.3415169E-1,-2.2692376E-1,1.5099321E-3,-1.0640838E-1,6.1270874E-3,3.381697E-1,-2.9734626E-1,9.2233837E-1,-2.980535E-1,4.51636E-1,-9.877474E-3,1.5810992E-1,7.15759E-1,-8.2483023E-1,2.8386325E-1,1.3061924E-1,-1.7061442E-2,2.6433784E-1,-4.2297503E-1,-8.678312E-1,5.7240367E-1,5.0923926E-1,-1.4511314E-2,5.37161E-2,-2.3489019E-2,8.9654885E-2,-9.679683E-3,-1.1938786E-1,8.669388E-3,9.902443E-2,-1.5545501E-2,1.1597999E-1,-9.546584E-3,-1.0961943E-1,-2.9305233E-2,-1.14762306E-1,-2.0097954E-2,3.480785E-2,1.2711929E-1,-4.324914E-2,8.3478265E-2,-1.7140469E-2,3.4494902E-4],"categories":[],"categories_nodes":[],"categories_segments":[],"categories_sizes":[],"default_left":[0,0,0,0,0,0,0,0,0,0,0,0,0,0,0,0,0,0,0,0,0,0,0,0,0,0,0,0,0,0,0,0,0,0,0,0,0,0,0,0,0,0,0,0,0,0,0],"id":17,"left_children":[1,3,5,7,9,11,13,-1,-1,15,17,19,21,23,25,27,29,31,33,-1,-1,35,37,39,41,43,45,-1,-1,-1,-1,-1,-1,-1,-1,-1,-1,-1,-1,-1,-1,-1,-1,-1,-1,-1,-1],"loss_changes":[3.3369968E0,4.549305E0,4.2259274E0,1.4306512E0,5.057701E0,7.2744036E0,7.669063E0,0E0,0E0,5.0170345E0,4.896583E0,2.419025E0,5.829803E0,6.379387E0,3.5179608E0,7.9284744E0,3.6242924E0,2.871542E0,2.6301794E0,0E0,0E0,5.0751023E0,5.537365E0,4.2107463E-1,4.9536467E0,4.3279686E0,4.07941E0,0E0,0E0,0E0,0E0,0E0,0E0,0E0,0E0,0E0,0E0,0E0,0E0,0E0,0E0,0E0,0E0,0E0,0E0,0E0,0E0],"parents":[2147483647,0,0,1,1,2,2,3,3,4,4,5,5,6,6,9,9,10,10,11,11,12,12,13,13,14,14,15,15,16,16,17,17,18,18,21,21,22,22,23,23,24,24,25,25,26,26],"right_children":[2,4,6,8,10,12,14,-1,-1,16,18,20,22,24,26,28,30,32,34,-1,-1,36,38,40,42,44,46,-1,-1,-1,-1,-1,-1,-1,-1,-1,-1,-1,-1,-1,-1,-1,-1,-1,-1,-1,-1],"split_conditions":[-8.623631E-1,-1.7209979E0,-9.6687025E-1,-8.0700827E-1,7.599749E-1,-7.7226704E-1,-9.282596E-1,-1.0640838E-1,6.1270874E-3,5.574958E-2,1.0096977E0,1.0552998E0,-5.21202E-1,-7.189701E-1,-2.1552315E0,-6.2097067E-1,7.90285E-2,-7.0182616E-1,5.9681267E-1,1.3061924E-1,-1.7061442E-2,1.3952525E-1,-3.761544E-1,-6.048386E-1,8.3160603E-1,7.0825264E-2,-1.7395996E0,5.37161E-2,-2.3489019E-2,8.9654885E-2,-9.679683E-3,-1.1938786E-1,8.669388E-3,9.902443E-2,-1.5545501E-2,1.1597999E-1,-9.546584E-3,-1.0961943E-1,-2.9305233E-2,-1.14762306E-1,-2.0097954E-2,3.480785E-2,1.2711929E-1,-4.324914E-2,8.3478265E-2,-1.7140469E-2,3.4494902E-4],"split_indices":[6,22,20,29,14,15,20,0,0,21,13,28,16,6,12,13,20,29,15,0,0,1,16,7,12,15,1,0,0,0,0,0,0,0,0,0,0,0,0,0,0,0,0,0,0,0,0],"split_type":[0,0,0,0,0,0,0,0,0,0,0,0,0,0,0,0,0,0,0,0,0,0,0,0,0,0,0,0,0,0,0,0,0,0,0,0,0,0,0,0,0,0,0,0,0,0,0],"sum_hessian":[1.6717847E3,9.285263E1,1.5789321E3,4.187882E0,8.866475E1,8.462418E1,1.4943079E3,2.7137363E0,1.4741457E0,7.4456764E1,1.4207986E1,4.2347784E0,8.0389404E1,3.5916702E1,1.4583912E3,5.137599E1,2.3080769E1,7.2285047E0,6.9794807E0,2.9896753E0,1.2451029E0,1.4408214E1,6.598119E1,2.4930046E0,3.34237E1,1.1939551E1,1.4464517E3,2.596539E1,2.5410603E1,1.879549E1,4.285278E0,4.92483E0,2.3036747E0,2.1954167E0,4.7840643E0,3.4925926E0,1.0915621E1,9.470534E0,5.651066E1,1.2482976E0,1.2447069E0,2.6435497E1,6.9882007E0,2.982696E0,8.956855E0,1.4770016E2,1.2987515E3],"tree_param":{"num_deleted":"0","num_feature":"31","num_nodes":"47","size_leaf_vector":"1"}},{"base_weights":[9.1572074E-5,1.9941828E-1,-9.730806E-3,-1.7175888E-1,5.205812E-1,-3.682335E-1,2.1295443E-3,-4.4865695E-1,5.5751115E-1,1.3803387E0,3.619698E-1,-7.7742934E-1,1.1918321E-1,3.3773416E-1,-9.108158E-3,8.736282E-1,-6.281675E-1,8.246304E-1,-5.1662154E-2,4.15315E-2,1.5975869E-1,8.150457E-1,-8.859881E-2,1.0127816E-1,-9.5477587E-1,9.07886E-1,-1.3182344E-1,9.264774E-2,9.4824266E-1,-4.330869E-3,-6.581237E-1,1.14508204E-1,1.7849548E-2,4.352391E-3,-9.94265E-2,3.7956666E-2,1.3653088E-1,1.7229911E-2,1.22331254E-1,-8.21977E-2,4.202403E-2,-4.9892712E-2,-1.3885371E-1,1.18744634E-1,-1.0034769E-2,-1.18579604E-1,1.353793E-2,-4.807994E-2,3.2283463E-2,1.140298E-1,-5.882095E-2,-8.4942067E-4,9.256119E-2,7.396775E-2,-9.48042E-2],"categories":[],"categories_nodes":[],"categories_segments":[],"categories_sizes":[],"default_left":[0,0,0,0,0,0,0,0,0,0,0,0,0,0,0,0,0,0,0,0,0,0,0,0,0,0,0,0,0,0,0,0,0,0,0,0,0,0,0,0,0,0,0,0,0,0,0,0,0,0,0,0,0,0,0],"id":18,"left_children":[1,3,5,7,9,11,13,15,17,19,21,23,25,27,29,31,33,35,-1,-1,-1,37,39,-1,41,43,45,47,49,51,53,-1,-1,-1,-1,-1,-1,-1,-1,-1,-1,-1,-1,-1,-1,-1,-1,-1,-1,-1,-1,-1,-1,-1,-1],"loss_changes":[3.274759E0,9.453478E0,6.7787457E0,7.7601743E0,5.277071E0,1.0275275E1,5.8262415E0,7.0786448E0,3.4905741E0,6.4520836E-1,7.6497593E0,9.820694E0,4.9040112E0,7.401392E0,4.632356E0,4.9502087E-1,6.1425247E0,1.6327815E0,0E0,0E0,0E0,4.6716824E0,7.627114E0,0E0,4.426037E0,1.7993894E0,5.5693555E0,5.015891E0,4.8695908E0,5.757491E0,5.125412E0,0E0,0E0,0E0,0E0,0E0,0E0,0E0,0E0,0E0,0E0,0E0,0E0,0E0,0E0,0E0,0E0,0E0,0E0,0E0,0E0,0E0,0E0,0E0,0E0],"parents":[2147483647,0,0,1,1,2,2,3,3,4,4,5,5,6,6,7,7,8,8,9,9,10,10,11,11,12,12,13,13,14,14,15,15,16,16,17,17,21,21,22,22,24,24,25,25,26,26,27,27,28,28,29,29,30,30],"right_children":[2,4,6,8,10,12,14,16,18,20,22,24,26,28,30,32,34,36,-1,-1,-1,38,40,-1,42,44,46,48,50,52,54,-1,-1,-1,-1,-1,-1,-1,-1,-1,-1,-1,-1,-1,-1,-1,-1,-1,-1,-1,-1,-1,-1,-1,-1],"split_conditions":[-1.5272051E0,8.265106E-2,-1.6932675E0,1.2474211E0,-1.7698121E0,-7.8232974E-1,-1.3929136E0,-7.9533046E-1,5.492296E-1,-7.3962104E-1,-8.762447E-1,-6.343643E-1,-1.5585761E0,5.058469E-2,4.0447955E0,-9.039602E-1,-1.3293341E0,-6.051864E-2,-5.1662154E-2,4.15315E-2,1.5975869E-1,-2.0121085E-2,-8.533327E-1,1.0127816E-1,-1.0594836E0,1.4846526E0,-1.4440379E0,-1.1780921E0,1.3457882E0,3.3742912E0,2.2531683E0,1.14508204E-1,1.7849548E-2,4.352391E-3,-9.94265E-2,3.7956666E-2,1.3653088E-1,1.7229911E-2,1.22331254E-1,-8.21977E-2,4.202403E-2,-4.9892712E-2,-1.3885371E-1,1.18744634E-1,-1.0034769E-2,-1.18579604E-1,1.353793E-2,-4.807994E-2,3.2283463E-2,1.140298E-1,-5.882095E-2,-8.4942067E-4,9.256119E-2,7.396775E-2,-9.48042E-2],"split_indices":[23,19,21,7,21,24,21,30,30,16,16,30,13,16,30,21,15,29,0,0,0,8,14,0,15,29,13,15,3,30,29,0,0,0,0,0,0,0,0,0,0,0,0,0,0,0,0,0,0,0,0,0,0,0,0],"split_type":[0,0,0,0,0,0,0,0,0,0,0,0,0,0,0,0,0,0,0,0,0,0,0,0,0,0,0,0,0,0,0,0,0,0,0,0,0,0,0,0,0,0,0,0,0,0,0,0,0,0,0,0,0,0,0],"sum_hessian":[1.6706287E3,7.755209E1,1.5930765E3,3.619068E1,4.1361412E1,5.0053787E1,1.5430228E3,2.6509878E1,9.680804E0,5.242367E0,3.6119045E1,2.6886797E1,2.316699E1,4.9052647E1,1.4939701E3,2.7065508E0,2.3803328E1,7.93883E0,1.7419746E0,1.4983506E0,3.744016E0,1.7606073E1,1.8512972E1,1.9988463E0,2.488795E1,4.9611835E0,1.8205807E1,3.5823277E1,1.3229369E1,1.484053E3,9.917178E0,1.4809464E0,1.2256044E0,8.707851E0,1.5095476E1,5.2879944E0,2.6508355E0,7.391477E0,1.0214596E1,7.331235E0,1.1181738E1,1.3183436E1,1.1704514E1,3.7450242E0,1.2161592E0,2.986771E0,1.5219036E1,9.9491E0,2.5874176E1,1.1988636E1,1.2407336E0,1.4784249E3,5.6280165E0,1.4370946E0,8.480083E0],"tree_param":{"num_deleted":"0","num_feature":"31","num_nodes":"55","size_leaf_vector":"1"}},{"base_weights":[3.7441475E-4,-2.640009E-3,6.4081913E-1,9.579704E-3,-1.9572523E-1,1.7714028E-1,1.0572685E-1,1.894309E-2,-2.3917046E-1,-2.8441033E-1,5.920004E-1,-3.6659237E-2,7.530644E-2,6.5461486E-3,2.8517866E-1,-7.5465363E-1,2.7252248E-2,-5.208569E-1,9.881243E-2,-2.0304763E-1,8.675131E-1,1.7004777E-4,6.1538067E-2,4.5079645E-3,8.134428E-2,-8.8822275E-2,6.599145E-2,4.233746E-2,-3.5591885E-2,-5.7568353E-2,1.0499227E-1,6.3679956E-2,-2.0800052E-2,2.8100526E-2,-5.9402235E-2,1.3210328E-1,-1.4608417E-3],"categories":[],"categories_nodes":[],"categories_segments":[],"categories_sizes":[],"default_left":[0,0,0,0,0,0,0,0,0,0,0,0,0,0,0,0,0,0,0,0,0,0,0,0,0,0,0,0,0,0,0,0,0,0,0,0,0],"id":19,"left_children":[1,3,5,7,9,11,-1,13,15,17,19,-1,-1,21,23,25,27,29,31,33,35,-1,-1,-1,-1,-1,-1,-1,-1,-1,-1,-1,-1,-1,-1,-1,-1],"loss_changes":[3.22754E0,3.928222E0,1.3250508E0,3.6519778E0,7.0909905E0,1.8127177E0,0E0,4.982299E0,7.8325486E0,8.183098E0,2.4436882E0,0E0,0E0,4.2589307E0,8.4822445E0,4.2547693E0,5.989084E0,5.3977585E0,5.923323E0,8.244688E-1,3.170755E0,0E0,0E0,0E0,0E0,0E0,0E0,0E0,0E0,0E0,0E0,0E0,0E0,0E0,0E0,0E0,0E0],"parents":[2147483647,0,0,1,1,2,2,3,3,4,4,5,5,7,7,8,8,9,9,10,10,13,13,14,14,15,15,16,16,17,17,18,18,19,19,20,20],"right_children":[2,4,6,8,10,12,-1,14,16,18,20,-1,-1,22,24,26,28,30,32,34,36,-1,-1,-1,-1,-1,-1,-1,-1,-1,-1,-1,-1,-1,-1,-1,-1],"split_conditions":[2.508414E0,1.5857203E0,9.378609E-1,1.632391E0,1.2135909E0,-7.2760455E-2,1.0572685E-1,1.5455409E0,1.183696E0,2.5123336E0,6.3000125E-1,-3.6659237E-2,7.530644E-2,1.5589843E0,1.0869616E0,9.7885287E-1,1.1946967E0,1.5561311E0,-8.3930486E-1,1.0866107E0,6.0553974E-1,1.7004777E-4,6.1538067E-2,4.5079645E-3,8.134428E-2,-8.8822275E-2,6.599145E-2,4.233746E-2,-3.5591885E-2,-5.7568353E-2,1.0499227E-1,6.3679956E-2,-2.0800052E-2,2.8100526E-2,-5.9402235E-2,1.3210328E-1,-1.4608417E-3],"split_indices":[21,6,24,21,16,20,0,30,13,6,7,0,0,21,22,29,24,7,21,14,15,0,0,0,0,0,0,0,0,0,0,0,0,0,0,0,0],"split_type":[0,0,0,0,0,0,0,0,0,0,0,0,0,0,0,0,0,0,0,0,0,0,0,0,0,0,0,0,0,0,0,0,0,0,0,0,0],"sum_hessian":[1.669929E3,1.6630969E3,6.831931E0,1.5650035E3,9.809342E1,3.9070928E0,2.924838E0,1.5091215E3,5.588209E1,8.8741516E1,9.351904E0,2.1966739E0,1.710419E0,1.4429565E3,6.616496E1,1.8416573E1,3.746552E1,5.46584E1,3.4083115E1,2.474435E0,6.8774686E0,1.4325576E3,1.0398832E1,4.6235844E1,1.9929117E1,1.7167627E1,1.2489465E0,1.8369846E1,1.909567E1,5.3427082E1,1.2313198E0,1.1987635E1,2.2095482E1,1.231288E0,1.2431473E0,4.2135954E0,2.6638732E0],"tree_param":{"num_deleted":"0","num_feature":"31","num_nodes":"37","size_leaf_vector":"1"}},{"base_weights":[6.11067E-4,4.4647777E-3,-4.740221E-1,-8.486779E-2,2.5553482E-2,-6.503244E-1,5.8182668E-2,3.5115298E-2,-3.8871408E-1,1.7500925E-1,3.0760309E-3,5.127204E-3,-9.8317623E-1,-3.042667E-1,1.8332602E-1,2.3798622E-1,-5.036939E-1,3.5476324E-1,1.5283389E-4,-4.390283E-3,4.8945466E-1,-8.885437E-2,5.066573E-1,3.4904506E-2,-1.2735988E-1,-3.8920376E-2,7.63943E-2,9.233972E-4,5.2164163E-2,7.0640706E-2,-5.066849E-2,-2.4438228E-2,-7.532804E-2,5.5871E-2,-5.330797E-3,8.785399E-2,-9.138004E-3,-9.321727E-6,-9.953314E-2,6.6636585E-2,-1.0246148E-1,1.0249885E-1,-2.2602959E-2],"categories":[],"categories_nodes":[],"categories_segments":[],"categories_sizes":[],"default_left":[0,0,0,0,0,0,0,0,0,0,0,0,0,0,0,0,0,0,0,0,0,0,0,0,0,0,0,0,0,0,0,0,0,0,0,0,0,0,0,0,0,0,0],"id":20,"left_children":[1,3,5,7,9,11,-1,13,15,17,19,21,23,25,27,29,31,33,35,37,39,-1,41,-1,-1,-1,-1,-1,-1,-1,-1,-1,-1,-1,-1,-1,-1,-1,-1,-1,-1,-1,-1],"loss_changes":[3.057023E0,3.125141E0,2.8840847E0,1.1564046E1,4.507359E0,2.6245813E0,0E0,1.1526859E1,6.588829E0,5.5133195E0,4.241767E0,2.7085261E0,3.5275412E0,6.6208854E0,9.381006E0,5.449475E0,4.7462006E0,7.228216E0,7.3097506E0,4.9002213E0,5.4129887E0,0E0,1.6992313E0,0E0,0E0,0E0,0E0,0E0,0E0,0E0,0E0,0E0,0E0,0E0,0E0,0E0,0E0,0E0,0E0,0E0,0E0,0E0,0E0],"parents":[2147483647,0,0,1,1,2,2,3,3,4,4,5,5,7,7,8,8,9,9,10,10,11,11,12,12,13,13,14,14,15,15,16,16,17,17,18,18,19,19,20,20,22,22],"right_children":[2,4,6,8,10,12,-1,14,16,18,20,22,24,26,28,30,32,34,36,38,40,-1,42,-1,-1,-1,-1,-1,-1,-1,-1,-1,-1,-1,-1,-1,-1,-1,-1,-1,-1,-1,-1],"split_conditions":[1.700963E0,-7.3226005E-1,4.4444823E-1,5.3231585E-1,-7.3769444E-1,-2.0121085E-2,5.8182668E-2,-2.6123393E-1,-4.3177485E-1,3.273433E-1,2.9189825E0,1.3128357E0,1.3911601E0,2.6637605E-1,-9.5466614E-2,5.900648E-1,2.3183173E-1,-1.3116759E-1,-1.1448369E0,2.623699E0,1.2279165E0,-8.885437E-2,-5.261257E-1,3.4904506E-2,-1.2735988E-1,-3.8920376E-2,7.63943E-2,9.233972E-4,5.2164163E-2,7.0640706E-2,-5.066849E-2,-2.4438228E-2,-7.532804E-2,5.5871E-2,-5.330797E-3,8.785399E-2,-9.138004E-3,-9.321727E-6,-9.953314E-2,6.6636585E-2,-1.0246148E-1,1.0249885E-1,-2.2602959E-2],"split_indices":[24,8,30,24,6,8,0,1,16,3,20,15,13,23,6,22,3,22,13,14,1,0,6,0,0,0,0,0,0,0,0,0,0,0,0,0,0,0,0,0,0,0,0],"split_type":[0,0,0,0,0,0,0,0,0,0,0,0,0,0,0,0,0,0,0,0,0,0,0,0,0,0,0,0,0,0,0,0,0,0,0,0,0,0,0,0,0,0,0],"sum_hessian":[1.6691703E3,1.6567095E3,1.2460803E1,3.158275E2,1.340882E3,1.10069685E1,1.4538344E0,2.2705304E2,8.8774475E1,1.7441118E2,1.1664707E3,4.038653E0,6.9683156E0,6.869594E1,1.583571E2,1.3596515E1,7.517796E1,8.549384E1,8.8917336E1,1.1498112E3,1.6659578E1,1.1743773E0,2.8642757E0,1.211069E0,5.757247E0,6.4224846E1,4.471093E0,1.0523306E2,5.312404E1,8.377927E0,5.218588E0,3.7841312E1,3.7336647E1,5.6758038E1,2.8735807E1,7.5798545E0,8.133749E1,1.1458425E3,3.9686778E0,1.5417954E1,1.2416235E0,1.4438765E0,1.4203992E0],"tree_param":{"num_deleted":"0","num_feature":"31","num_nodes":"43","size_leaf_vector":"1"}},{"base_weights":[5.2591506E-4,-2.2784034E-3,6.016695E-1,8.730008E-3,-1.7686856E-1,3.9550036E-2,8.8687515E-1,3.1432092E-2,-7.727074E-2,-4.8906627E-1,1.6260415E-2,6.511345E-2,-6.431651E-2,2.2113504E-2,1.0424452E-1,1.9494489E-2,5.952983E-1,5.407459E-1,-1.04837395E-1,-6.2046504E-1,4.1243932E-1,2.1676315E-1,-4.0959698E-1,2.4803292E-3,-1.1591418E-1,9.3525656E-2,5.2562105E-3,-5.10614E-2,7.25687E-2,1.4211126E-2,-1.6126996E-2,3.612198E-3,-9.310388E-2,8.110153E-2,-5.2817512E-2,3.4790908E-3,1.11985184E-1,6.9376744E-2,-6.1582733E-2],"categories":[],"categories_nodes":[],"categories_segments":[],"categories_sizes":[],"default_left":[0,0,0,0,0,0,0,0,0,0,0,0,0,0,0,0,0,0,0,0,0,0,0,0,0,0,0,0,0,0,0,0,0,0,0,0,0,0,0],"id":21,"left_children":[1,3,5,7,9,11,13,15,17,19,21,-1,-1,-1,-1,23,25,27,29,31,33,35,37,-1,-1,-1,-1,-1,-1,-1,-1,-1,-1,-1,-1,-1,-1,-1,-1],"loss_changes":[2.814973E0,3.1963217E0,1.2079585E0,3.0571666E0,5.9553995E0,1.945498E0,2.9737282E-1,8.325396E0,5.6285377E0,4.725404E0,5.3749223E0,0E0,0E0,0E0,0E0,7.6243954E0,4.6823606E0,3.1175075E0,4.3977337E0,6.8303423E0,2.4530694E0,6.9856925E0,5.015417E0,0E0,0E0,0E0,0E0,0E0,0E0,0E0,0E0,0E0,0E0,0E0,0E0,0E0,0E0,0E0,0E0],"parents":[2147483647,0,0,1,1,2,2,3,3,4,4,5,5,6,6,7,7,8,8,9,9,10,10,15,15,16,16,17,17,18,18,19,19,20,20,21,21,22,22],"right_children":[2,4,6,8,10,12,14,16,18,20,22,-1,-1,-1,-1,24,26,28,30,32,34,36,38,-1,-1,-1,-1,-1,-1,-1,-1,-1,-1,-1,-1,-1,-1,-1,-1],"split_conditions":[2.508414E0,1.5857203E0,2.8926155E-1,8.1334037E-1,2.0610297E0,-4.7358993E-1,7.9121107E-1,1.2031239E0,1.1286881E-1,1.0866107E0,4.8108062E-1,6.511345E-2,-6.431651E-2,2.2113504E-2,1.0424452E-1,1.7549374E0,7.543413E-1,-1.9194407E0,-6.398536E-1,-9.527996E-1,1.7549374E0,4.2194417E-1,4.7564626E-1,2.4803292E-3,-1.1591418E-1,9.3525656E-2,5.2562105E-3,-5.10614E-2,7.25687E-2,1.4211126E-2,-1.6126996E-2,3.612198E-3,-9.310388E-2,8.110153E-2,-5.2817512E-2,3.4790908E-3,1.11985184E-1,6.9376744E-2,-6.1582733E-2],"split_indices":[21,6,17,13,6,9,23,14,14,14,15,0,0,0,0,21,3,28,30,21,21,13,7,0,0,0,0,0,0,0,0,0,0,0,0,0,0,0,0],"split_type":[0,0,0,0,0,0,0,0,0,0,0,0,0,0,0,0,0,0,0,0,0,0,0,0,0,0,0,0,0,0,0,0,0,0,0,0,0,0,0],"sum_hessian":[1.6680032E3,1.6612498E3,6.753475E0,1.5636096E3,9.764009E1,2.6564598E0,4.0970154E0,1.237559E3,3.2605063E2,3.6731075E1,6.0909016E1,1.4256251E0,1.2308347E0,1.2347076E0,2.8623078E0,1.2129149E3,2.464403E1,1.3127581E1,3.1292307E2,3.2330498E1,4.4005795E0,4.174539E1,1.9163624E1,1.2084508E3,4.464137E0,1.4708018E1,9.93601E0,1.7003593E0,1.1427221E1,5.7925056E1,2.54998E2,1.0665709E1,2.1664787E1,3.1876333E0,1.2129463E0,3.5608757E1,6.136635E0,2.645539E0,1.6518085E1],"tree_param":{"num_deleted":"0","num_feature":"31","num_nodes":"39","size_leaf_vector":"1"}},{"base_weights":[5.7406025E-4,4.6043074E-1,-3.1199614E-3,-3.8685268E-1,7.4120253E-1,-5.330545E-1,1.4094304E-3,2.3793718E-2,-9.827172E-2,6.012227E-2,1.0686122E0,-1.3886474E-1,-1.2501444E-1,1.6351303E-1,-1.0675949E-2,7.829014E-2,-8.12846E-2,1.1600063E0,2.9388344E-2,-6.089941E-1,9.4130874E-1,8.152992E-2,6.4984465E-1,-2.9451457E-1,2.9987577E-5,1.28221E-1,3.9714705E-2,9.76103E-4,-1.1894045E-1,2.8735444E-2,1.1727162E-1,1.6842257E-2,-8.4230624E-2,1.1660756E-1,1.264134E-2,1.4338222E-2,-7.023331E-2,3.6264025E-4,-8.003567E-2],"categories":[],"categories_nodes":[],"categories_segments":[],"categories_sizes":[],"default_left":[0,0,0,0,0,0,0,0,0,0,0,0,0,0,0,0,0,0,0,0,0,0,0,0,0,0,0,0,0,0,0,0,0,0,0,0,0,0,0],"id":22,"left_children":[1,3,5,7,9,11,13,-1,-1,15,17,19,-1,21,23,-1,-1,25,-1,27,29,31,33,35,37,-1,-1,-1,-1,-1,-1,-1,-1,-1,-1,-1,-1,-1,-1],"loss_changes":[2.8352513E0,3.4508617E0,3.9753883E0,1.710912E0,2.2399406E0,3.7939038E0,3.2202635E0,0E0,0E0,3.421622E0,1.489811E-1,5.7439137E0,0E0,4.4941015E0,4.6487746E0,0E0,0E0,3.6078453E-2,0E0,2.7774715E0,1.8972325E-1,8.067905E0,4.259273E0,1.0030827E1,4.249353E0,0E0,0E0,0E0,0E0,0E0,0E0,0E0,0E0,0E0,0E0,0E0,0E0,0E0,0E0],"parents":[2147483647,0,0,1,1,2,2,3,3,4,4,5,5,6,6,9,9,10,10,11,11,13,13,14,14,17,17,19,19,20,20,21,21,22,22,23,23,24,24],"right_children":[2,4,6,8,10,12,14,-1,-1,16,18,20,-1,22,24,-1,-1,26,-1,28,30,32,34,36,38,-1,-1,-1,-1,-1,-1,-1,-1,-1,-1,-1,-1,-1,-1],"split_conditions":[-2.1552315E0,7.0825264E-2,-2.1651788E0,-7.8840977E-1,-1.3080004E-1,-2.7611005E-1,-1.4427036E0,2.3793718E-2,-9.827172E-2,-4.3480092E-1,1.4876177E0,4.7564626E-1,-1.2501444E-1,1.1618259E0,-1.4004394E0,7.829014E-2,-8.12846E-2,-2.0563045E0,2.9388344E-2,-2.2611015E0,-1.0090786E-1,1.0083804E0,1.8946352E0,-3.843331E-1,5.2467947E0,1.28221E-1,3.9714705E-2,9.76103E-4,-1.1894045E-1,2.8735444E-2,1.1727162E-1,1.6842257E-2,-8.4230624E-2,1.1660756E-1,1.264134E-2,1.4338222E-2,-7.023331E-2,3.6264025E-4,-8.003567E-2],"split_indices":[12,15,11,13,30,14,23,0,0,29,6,7,0,22,24,0,0,3,0,9,6,29,22,6,30,0,0,0,0,0,0,0,0,0,0,0,0,0,0],"split_type":[0,0,0,0,0,0,0,0,0,0,0,0,0,0,0,0,0,0,0,0,0,0,0,0,0,0,0,0,0,0,0,0,0,0,0,0,0,0,0],"sum_hessian":[1.6672054E3,1.230061E1,1.6549049E3,2.96757E0,9.333039E0,1.3035843E1,1.641869E3,1.7418501E0,1.2257199E0,3.4142728E0,5.918767E0,9.182051E0,3.853792E0,1.1304494E2,1.5288241E3,1.9242508E0,1.4900218E0,4.849383E0,1.0693837E0,6.701521E0,2.48053E0,9.7736664E1,1.5308268E1,5.4605267E1,1.4742189E3,3.5930166E0,1.2563665E0,3.7194877E0,2.9820333E0,1.2342696E0,1.2462604E0,9.008161E1,7.655053E0,7.089015E0,8.219252E0,2.664428E1,2.7960987E1,1.4686152E3,5.6035285E0],"tree_param":{"num_deleted":"0","num_feature":"31","num_nodes":"39","size_leaf_vector":"1"}},{"base_weights":[4.898959E-4,-6.7660874E-3,2.1586467E-1,-4.6712827E-2,5.1868293E-2,5.0393564E-1,-8.476503E-2,-2.2508515E-2,-3.2490104E-1,4.653734E-1,3.8245637E-2,6.4364904E-1,-4.4778895E-1,-6.7535055E-1,2.0071936E-1,-6.9481544E-3,-3.9350775E-1,5.818974E-1,-4.309165E-1,1.1566259E0,-2.799643E-1,-3.7823468E-1,5.615954E-2,1.7796609E-1,1.0374836E0,-9.4954155E-2,2.8840734E-2,-1.0519445E0,1.39811E-1,6.858269E-1,-3.1195366E-1,-2.0660183E-3,8.326174E-2,-6.3335374E-2,1.5206556E-2,1.0783968E-1,-8.484953E-2,-6.4922445E-2,-4.7301576E-3,-2.116409E-2,1.4339519E-1,8.496526E-2,-6.482812E-2,-7.7737205E-2,2.0839127E-2,-2.0306183E-3,1.4989349E-2,-7.80329E-2,5.7244774E-2,1.2014808E-1,1.2341774E-2,-2.504923E-2,-1.2217658E-1,-3.7152577E-2,7.5139284E-2,1.0409383E-1,-3.257189E-2,1.7076842E-2,-9.256183E-2],"categories":[],"categories_nodes":[],"categories_segments":[],"categories_sizes":[],"default_left":[0,0,0,0,0,0,0,0,0,0,0,0,0,0,0,0,0,0,0,0,0,0,0,0,0,0,0,0,0,0,0,0,0,0,0,0,0,0,0,0,0,0,0,0,0,0,0,0,0,0,0,0,0,0,0,0,0,0,0],"id":23,"left_children":[1,3,5,7,9,11,13,15,17,19,21,23,25,27,29,31,33,35,37,39,41,43,45,47,49,-1,-1,51,53,55,57,-1,-1,-1,-1,-1,-1,-1,-1,-1,-1,-1,-1,-1,-1,-1,-1,-1,-1,-1,-1,-1,-1,-1,-1,-1,-1,-1,-1],"loss_changes":[2.6074083E0,3.7831817E0,4.752054E0,6.4607353E0,3.669345E0,3.9998202E0,4.7662888E0,5.1050186E0,7.6352797E0,1.10334425E1,4.757128E0,4.3546505E0,1.8115717E0,2.9649558E0,5.0104275E0,9.804669E0,4.7543883E0,6.927442E0,5.7769594E0,4.46972E0,5.0472064E0,6.3215036E0,4.371335E0,5.19015E0,1.8308496E0,0E0,0E0,5.6446266E-1,1.4622955E0,4.0109496E0,3.1393182E0,0E0,0E0,0E0,0E0,0E0,0E0,0E0,0E0,0E0,0E0,0E0,0E0,0E0,0E0,0E0,0E0,0E0,0E0,0E0,0E0,0E0,0E0,0E0,0E0,0E0,0E0,0E0,0E0],"parents":[2147483647,0,0,1,1,2,2,3,3,4,4,5,5,6,6,7,7,8,8,9,9,10,10,11,11,12,12,13,13,14,14,15,15,16,16,17,17,18,18,19,19,20,20,21,21,22,22,23,23,24,24,27,27,28,28,29,29,30,30],"right_children":[2,4,6,8,10,12,14,16,18,20,22,24,26,28,30,32,34,36,38,40,42,44,46,48,50,-1,-1,52,54,56,58,-1,-1,-1,-1,-1,-1,-1,-1,-1,-1,-1,-1,-1,-1,-1,-1,-1,-1,-1,-1,-1,-1,-1,-1,-1,-1,-1,-1],"split_conditions":[1.710486E0,6.9201785E-1,1.4421727E-1,1.4017762E0,-1.565218E0,1.1708183E0,-3.5876822E-1,1.8818425E0,-1.3062798E0,-6.977174E-2,-1.6932675E0,-4.7550687E-1,-1.0486199E-1,6.861353E-1,6.9201785E-1,1.5965593E0,7.8509307E-1,6.70979E-1,-1.02495715E-1,-2.233688E0,-1.5463305E0,-7.8232974E-1,-2.1757355E-1,-5.7786393E-1,9.385181E-1,-9.4954155E-2,2.8840734E-2,-5.84035E-1,7.3161936E-1,1.1300029E0,7.603253E-1,-2.0660183E-3,8.326174E-2,-6.3335374E-2,1.5206556E-2,1.0783968E-1,-8.484953E-2,-6.4922445E-2,-4.7301576E-3,-2.116409E-2,1.4339519E-1,8.496526E-2,-6.482812E-2,-7.7737205E-2,2.0839127E-2,-2.0306183E-3,1.4989349E-2,-7.80329E-2,5.7244774E-2,1.2014808E-1,1.2341774E-2,-2.504923E-2,-1.2217658E-1,-3.7152577E-2,7.5139284E-2,1.0409383E-1,-3.257189E-2,1.7076842E-2,-9.256183E-2],"split_indices":[7,8,22,7,23,23,30,30,21,30,21,20,22,20,8,30,22,22,29,0,14,24,29,15,20,0,0,29,10,20,25,0,0,0,0,0,0,0,0,0,0,0,0,0,0,0,0,0,0,0,0,0,0,0,0,0,0,0,0],"split_type":[0,0,0,0,0,0,0,0,0,0,0,0,0,0,0,0,0,0,0,0,0,0,0,0,0,0,0,0,0,0,0,0,0,0,0,0,0,0,0,0,0,0,0,0,0,0,0,0,0,0,0,0,0,0,0,0,0,0,0],"sum_hessian":[1.6665338E3,1.6131552E3,5.3378662E1,9.5959827E2,6.535568E2,2.691335E1,2.6465315E1,8.837839E2,7.581444E1,1.9786655E1,6.337702E2,2.3750475E1,3.1628733E0,8.17922E0,1.8286097E1,8.491862E2,3.4597637E1,7.4659524E0,6.834848E1,9.979501E0,9.807155E0,2.5306454E1,6.0846375E2,1.1547825E1,1.220265E1,1.7085928E0,1.4542806E0,5.395907E0,2.7833126E0,9.222102E0,9.063993E0,8.3649963E2,1.26865635E1,2.3920685E1,1.0676951E1,5.724887E0,1.7410654E0,4.3118298E1,2.5230185E1,1.7217262E0,8.257774E0,2.0900826E0,7.7170725E0,1.4866324E1,1.0440129E1,3.3553024E2,2.729335E2,3.0822215E0,8.465604E0,1.0079755E1,2.1228955E0,1.3761859E0,4.019721E0,1.7296708E0,1.0536418E0,6.8043294E0,2.4177725E0,5.4772177E0,3.586776E0],"tree_param":{"num_deleted":"0","num_feature":"31","num_nodes":"59","size_leaf_vector":"1"}},{"base_weights":[4.803071E-4,2.7800277E-1,-5.0111893E-3,-7.012608E-1,4.3739334E-1,-2.1330886E-2,9.360487E-2,1.1477547E-2,-9.536336E-1,5.3737146E-1,-9.964518E-2,-1.454046E-2,-4.572364E-1,-2.3244806E-3,3.0461887E-1,-2.703518E-2,-1.131269E-1,1.3619898E-1,3.241139E-1,1.8833432E-3,-1.7601751E-1,3.204569E-1,-7.375882E-1,-2.3685753E-1,1.6607723E-1,5.445256E-1,-2.1762481E-1,-3.3844825E-2,6.2134452E-2,-1.3578804E-2,3.5708842E-3,-8.7197274E-2,-8.10496E-3,-2.078677E-2,9.755486E-2,2.0132884E-2,-9.839209E-2,3.78585E-2,-4.3018322E-2,1.0107303E-1,5.1448443E-3,-8.0244645E-2,6.316417E-2,7.189719E-2,-5.3869136E-2],"categories":[],"categories_nodes":[],"categories_segments":[],"categories_sizes":[],"default_left":[0,0,0,0,0,0,0,0,0,0,0,0,0,0,0,0,0,0,0,0,0,0,0,0,0,0,0,0,0,0,0,0,0,0,0,0,0,0,0,0,0,0,0,0,0],"id":24,"left_children":[1,3,5,7,9,11,13,-1,15,17,-1,19,21,23,25,-1,-1,-1,27,29,31,33,35,37,39,41,43,-1,-1,-1,-1,-1,-1,-1,-1,-1,-1,-1,-1,-1,-1,-1,-1,-1,-1],"loss_changes":[2.5404189E0,5.3552117E0,2.6328056E0,1.1210058E0,4.6113734E0,4.147323E0,4.702857E0,0E0,1.6253972E-1,4.3469424E0,0E0,3.667831E0,4.9224925E0,6.385742E0,9.215288E0,0E0,0E0,0E0,4.729212E0,5.854748E0,8.368023E0,2.415141E0,3.9220371E0,8.202257E0,9.060543E0,6.3783283E0,7.4747577E0,0E0,0E0,0E0,0E0,0E0,0E0,0E0,0E0,0E0,0E0,0E0,0E0,0E0,0E0,0E0,0E0,0E0,0E0],"parents":[2147483647,0,0,1,1,2,2,3,3,4,4,5,5,6,6,8,8,9,9,11,11,12,12,13,13,14,14,18,18,19,19,20,20,21,21,22,22,23,23,24,24,25,25,26,26],"right_children":[2,4,6,8,10,12,14,-1,16,18,-1,20,22,24,26,-1,-1,-1,28,30,32,34,36,38,40,42,44,-1,-1,-1,-1,-1,-1,-1,-1,-1,-1,-1,-1,-1,-1,-1,-1,-1,-1],"split_conditions":[-9.3038577E-1,-1.5254565E0,9.6621156E-1,-7.9481864E-1,1.3414882E0,1.7873832E0,9.467209E-1,1.1477547E-2,2.1989553E-1,-9.09884E-1,-9.964518E-2,1.0083804E0,1.0651839E0,-3.4942105E-2,1.27989E0,-2.703518E-2,-1.131269E-1,1.3619898E-1,-2.512736E-1,-7.3226005E-1,-6.634118E-1,6.9201785E-1,-5.2960354E-1,-1.3837671E0,1.5579617E-1,1.2581301E-2,-9.1994905E-1,-3.3844825E-2,6.2134452E-2,-1.3578804E-2,3.5708842E-3,-8.7197274E-2,-8.10496E-3,-2.078677E-2,9.755486E-2,2.0132884E-2,-9.839209E-2,3.78585E-2,-4.3018322E-2,1.0107303E-1,5.1448443E-3,-8.0244645E-2,6.316417E-2,7.189719E-2,-5.3869136E-2],"split_indices":[29,22,22,21,20,15,30,0,19,16,0,29,21,13,6,0,0,0,16,8,22,8,16,23,13,7,24,0,0,0,0,0,0,0,0,0,0,0,0,0,0,0,0,0,0],"split_type":[0,0,0,0,0,0,0,0,0,0,0,0,0,0,0,0,0,0,0,0,0,0,0,0,0,0,0,0,0,0,0,0,0,0,0,0,0,0,0,0,0,0,0,0,0],"sum_hessian":[1.6650125E3,3.1344383E1,1.6336681E3,3.9117484E0,2.7432636E1,1.4023765E3,2.3129166E2,1.0527954E0,2.858953E0,2.6228983E1,1.2036525E0,1.3818832E3,2.0493267E1,1.5968571E2,7.160595E1,1.110256E0,1.748697E0,4.28259E0,2.1946394E1,1.2552048E3,1.2667834E2,5.3922267E0,1.5101041E1,6.656882E1,9.31169E1,4.903687E1,2.2569078E1,6.75346E0,1.5192933E1,2.4697806E2,1.0082268E3,1.42281475E1,1.1245019E2,3.3628292E0,2.0293972E0,3.1764483E0,1.1924592E1,1.568336E1,5.0885456E1,1.0192807E1,8.292409E1,2.4800208E0,4.655685E1,5.4452333E0,1.7123844E1],"tree_param":{"num_deleted":"0","num_feature":"31","num_nodes":"45","size_leaf_vector":"1"}},{"base_weights":[3.9387253E-4,3.9938455E-3,-4.2627776E-1,1.3906459E-4,9.936778E-1,5.5097397E-2,-5.631488E-1,8.871129E-3,-2.0713377E-1,1.3654451E-1,-2.5723584E-3,-1.2081026E-1,-3.137358E-1,-9.081428E-3,2.4681589E-1,-5.984283E-1,6.7654565E-2,6.72388E-2,-5.812675E-1,3.7915847E-4,-3.365352E-2,4.3957565E-2,1.6107784E-4,1.812566E-2,-8.0524564E-2,8.678343E-2,-1.6832072E-2,-9.4592355E-2,-1.7576756E-2],"categories":[],"categories_nodes":[],"categories_segments":[],"categories_sizes":[],"default_left":[0,0,0,0,0,0,0,0,0,0,0,0,0,0,0,0,0,0,0,0,0,0,0,0,0,0,0,0,0],"id":25,"left_children":[1,3,5,7,9,-1,11,13,15,-1,-1,-1,17,19,21,23,25,-1,27,-1,-1,-1,-1,-1,-1,-1,-1,-1,-1],"loss_changes":[2.5589483E0,6.301991E0,2.1746988E0,2.9819036E0,2.4640412E0,0E0,1.667263E0,6.755469E0,7.2017546E0,0E0,0E0,0E0,3.167332E0,6.2018857E0,5.2431917E0,4.592948E0,7.703557E0,0E0,1.1371474E0,0E0,0E0,0E0,0E0,0E0,0E0,0E0,0E0,0E0,0E0],"parents":[2147483647,0,0,1,1,2,2,3,3,4,4,6,6,7,7,8,8,12,12,13,13,14,14,15,15,16,16,18,18],"right_children":[2,4,6,8,10,-1,12,14,16,-1,-1,-1,18,20,22,24,26,-1,28,-1,-1,-1,-1,-1,-1,-1,-1,-1,-1],"split_conditions":[1.520648E0,1.5276321E0,-5.950368E-1,1.2643583E0,1.520264E0,5.5097397E-2,7.036022E-2,1.0675862E0,1.2273098E0,1.3654451E-1,-2.5723584E-3,-1.2081026E-1,-2.1381786E-1,9.664561E-1,1.1926342E0,-7.0182616E-1,1.2795469E0,6.72388E-2,5.976992E-1,3.7915847E-4,-3.365352E-2,4.3957565E-2,1.6107784E-4,1.812566E-2,-8.0524564E-2,8.678343E-2,-1.6832072E-2,-9.4592355E-2,-1.7576756E-2],"split_indices":[25,17,14,0,12,0,14,9,12,0,0,0,13,12,10,29,12,0,21,0,0,0,0,0,0,0,0,0,0],"split_type":[0,0,0,0,0,0,0,0,0,0,0,0,0,0,0,0,0,0,0,0,0,0,0,0,0,0,0,0,0],"sum_hessian":[1.6638665E3,1.6509277E3,1.2938797E1,1.6455186E3,5.4090915E0,1.2178588E0,1.1720939E1,1.5799165E3,6.560209E1,3.7148561E0,1.6942356E0,2.1967108E0,9.524228E0,1.4699713E3,1.0994518E2,2.6577847E1,3.9024242E1,1.7095414E0,7.8146863E0,1.4153201E3,5.4651287E1,6.1111637E1,4.883354E1,5.597879E0,2.0979967E1,8.277619E0,3.074662E1,3.412855E0,4.401831E0],"tree_param":{"num_deleted":"0","num_feature":"31","num_nodes":"29","size_leaf_vector":"1"}},{"base_weights":[3.7399045E-4,-2.2575858E-3,5.6768394E-1,1.2997886E-3,-4.3263522E-1,1.3509066E-1,9.68078E-2,-2.273341E-3,9.1845536E-1,1.90863E-1,-7.0098287E-1,-3.65485E-2,6.831955E-2,8.08734E-3,-1.7724203E-1,1.263705E-1,-2.4110712E-3,-3.8446388E-1,1.03817426E-1,-9.117859E-1,-8.016864E-2,-2.1605127E-4,2.236813E-2,-2.6725495E-2,5.797983E-2,-6.484884E-2,9.198288E-3,-1.0527873E-1,-2.7171373E-2,3.8254183E-2,-4.7506385E-2],"categories":[],"categories_nodes":[],"categories_segments":[],"categories_sizes":[],"default_left":[0,0,0,0,0,0,0,0,0,0,0,0,0,0,0,0,0,0,0,0,0,0,0,0,0,0,0,0,0,0,0],"id":26,"left_children":[1,3,5,7,9,11,-1,13,15,17,19,-1,-1,21,23,-1,-1,25,-1,27,29,-1,-1,-1,-1,-1,-1,-1,-1,-1,-1],"loss_changes":[2.4864206E0,2.5388722E0,1.2011814E0,5.394033E0,2.4083602E0,1.5827211E0,0E0,2.9743164E0,2.1091294E0,2.7763257E0,1.1987085E0,0E0,0E0,3.423294E0,6.4052963E0,0E0,0E0,5.1680094E-1,0E0,3.599882E-1,8.321868E-1,0E0,0E0,0E0,0E0,0E0,0E0,0E0,0E0,0E0,0E0],"parents":[2147483647,0,0,1,1,2,2,3,3,4,4,5,5,7,7,8,8,9,9,10,10,13,13,14,14,17,17,19,19,20,20],"right_children":[2,4,6,8,10,12,-1,14,16,18,20,-1,-1,22,24,-1,-1,26,-1,28,30,-1,-1,-1,-1,-1,-1,-1,-1,-1,-1],"split_conditions":[2.508414E0,1.520648E0,9.378609E-1,1.5276321E0,-3.3344138E-1,-7.2760455E-2,9.68078E-2,1.5857203E0,1.520264E0,-5.1524323E-1,2.166174E0,-3.65485E-2,6.831955E-2,1.5455409E0,1.2135909E0,1.263705E-1,-2.4110712E-3,1.2581301E-2,1.03817426E-1,1.0866107E0,-1.3473544E-1,-2.1605127E-4,2.236813E-2,-2.6725495E-2,5.797983E-2,-6.484884E-2,9.198288E-3,-1.0527873E-1,-2.7171373E-2,3.8254183E-2,-4.7506385E-2],"split_indices":[21,25,24,17,6,20,0,6,12,6,6,0,0,30,16,0,0,7,0,14,13,0,0,0,0,0,0,0,0,0,0],"split_type":[0,0,0,0,0,0,0,0,0,0,0,0,0,0,0,0,0,0,0,0,0,0,0,0,0,0,0,0,0,0,0],"sum_hessian":[1.663617E3,1.656927E3,6.6899533E0,1.6443324E3,1.2594586E1,3.8585248E0,2.8314288E0,1.6389447E3,5.3876133E0,3.8764682E0,8.718118E0,2.1908445E0,1.6676801E0,1.5482214E3,9.072335E1,3.6938844E0,1.6937289E0,2.634136E0,1.2423322E0,6.1583138E0,2.5598042E0,1.478914E3,6.930741E1,8.1660774E1,9.062582E0,1.4625604E0,1.1715757E0,4.5182047E0,1.6401092E0,1.1930983E0,1.366706E0],"tree_param":{"num_deleted":"0","num_feature":"31","num_nodes":"31","size_leaf_vector":"1"}},{"base_weights":[4.6303507E-4,3.0936247E-1,-4.2502806E-3,5.128542E-1,-5.027214E-1,-3.200104E-1,2.317098E-3,-1.3436046E-1,7.552135E-1,-8.7587124E-1,4.771443E-2,7.2613955E-2,-6.710235E-1,8.707887E-2,-1.9596348E-2,4.540522E-2,-4.876564E-1,-5.6314558E-2,9.371801E-1,-1.5382359E-2,-1.1133822E-1,-7.7187043E-1,4.2085773E-1,7.700295E-2,-9.8710394E-1,7.2762215E-1,6.154666E-2,-3.1257704E-1,-7.2893067E-3,-8.089163E-2,2.7901903E-2,1.02196924E-1,2.3994946E-3,2.5472179E-2,-1.1575388E-1,1.1792951E-1,-1.7402574E-2,7.056753E-2,-7.136195E-2,-1.2933987E-1,-2.5859946E-2,1.1113203E-2,1.3619606E-1,-3.5786137E-2,1.0764232E-2,-9.357383E-2,-8.940499E-3,-1.1417407E-2,2.9805175E-3],"categories":[],"categories_nodes":[],"categories_segments":[],"categories_sizes":[],"default_left":[0,0,0,0,0,0,0,0,0,0,0,0,0,0,0,0,0,0,0,0,0,0,0,0,0,0,0,0,0,0,0,0,0,0,0,0,0,0,0,0,0,0,0,0,0,0,0,0,0],"id":27,"left_children":[1,3,5,7,9,11,13,15,17,19,-1,21,23,25,27,-1,29,-1,31,-1,-1,33,35,37,39,41,43,45,47,-1,-1,-1,-1,-1,-1,-1,-1,-1,-1,-1,-1,-1,-1,-1,-1,-1,-1,-1,-1],"loss_changes":[2.4239886E0,4.392743E0,3.4015746E0,3.317573E0,2.4357338E0,4.654733E0,2.9876041E0,1.5591419E0,4.142606E0,5.7461524E-1,0E0,5.2296104E0,4.2711973E0,5.358899E0,4.606341E0,0E0,1.3347852E0,0E0,1.0297451E0,0E0,0E0,2.3625085E0,5.8249702E0,3.5843039E0,2.4648485E0,4.7654696E0,6.2025566E0,7.078785E0,4.870783E0,0E0,0E0,0E0,0E0,0E0,0E0,0E0,0E0,0E0,0E0,0E0,0E0,0E0,0E0,0E0,0E0,0E0,0E0,0E0,0E0],"parents":[2147483647,0,0,1,1,2,2,3,3,4,4,5,5,6,6,7,7,8,8,9,9,11,11,12,12,13,13,14,14,16,16,18,18,21,21,22,22,23,23,24,24,25,25,26,26,27,27,28,28],"right_children":[2,4,6,8,10,12,14,16,18,20,-1,22,24,26,28,-1,30,-1,32,-1,-1,34,36,38,40,42,44,46,48,-1,-1,-1,-1,-1,-1,-1,-1,-1,-1,-1,-1,-1,-1,-1,-1,-1,-1,-1,-1],"split_conditions":[-2.065915E0,-9.953088E-1,-1.824366E0,-2.335122E0,-2.1306784E0,-8.628034E-1,-6.343643E-1,1.6633233E0,-1.9661193E0,-5.805236E-1,4.771443E-2,3.0803025E-1,-2.0999322E0,-1.514378E0,-5.928715E-1,4.540522E-2,2.9189825E0,-5.6314558E-2,-1.273609E0,-1.5382359E-2,-1.1133822E-1,-4.9244925E-1,-9.0760306E-2,-3.4714314E-1,2.1089962E0,-1.6204963E0,-1.5387002E0,-8.9388674E-1,-5.511868E-1,-8.089163E-2,2.7901903E-2,1.02196924E-1,2.3994946E-3,2.5472179E-2,-1.1575388E-1,1.1792951E-1,-1.7402574E-2,7.056753E-2,-7.136195E-2,-1.2933987E-1,-2.5859946E-2,1.1113203E-2,1.3619606E-1,-3.5786137E-2,1.0764232E-2,-9.357383E-2,-8.940499E-3,-1.1417407E-2,2.9805175E-3],"split_indices":[14,23,14,13,14,21,30,20,28,29,0,20,16,23,30,0,20,0,16,0,0,30,30,21,20,24,26,23,22,0,0,0,0,0,0,0,0,0,0,0,0,0,0,0,0,0,0,0,0],"split_type":[0,0,0,0,0,0,0,0,0,0,0,0,0,0,0,0,0,0,0,0,0,0,0,0,0,0,0,0,0,0,0,0,0,0,0,0,0,0,0,0,0,0,0,0,0,0,0,0,0],"sum_hessian":[1.6629922E3,2.4021849E1,1.6389703E3,1.950321E1,4.518638E0,3.242136E1,1.606549E3,5.4349422E0,1.4068269E1,3.3492987E0,1.1693395E0,1.5677963E1,1.6743397E1,3.2940976E2,1.2771393E3,1.932006E0,3.502936E0,1.4522021E0,1.2616067E1,1.2368497E0,2.112449E0,4.2223587E0,1.1455605E1,5.198103E0,1.1545293E1,1.1572967E1,3.178368E2,5.050165E1,1.2266376E3,2.4297163E0,1.0732197E0,1.1435185E1,1.1808815E0,1.2457876E0,2.976571E0,4.6037407E0,6.8518643E0,2.9554706E0,2.2426324E0,7.582053E0,3.96324E0,6.465033E0,5.1079335E0,3.080347E1,2.8703333E2,1.247498E1,3.8026672E1,3.1549274E2,9.1114484E2],"tree_param":{"num_deleted":"0","num_feature":"31","num_nodes":"49","size_leaf_vector":"1"}},{"base_weights":[3.234309E-4,-1.77647E-1,8.3821155E-3,-8.848593E-1,-5.3664863E-2,6.004589E-1,-1.7781279E-3,1.5377133E-2,-1.10226E0,-3.5396335E-1,1.836657E-1,7.379344E-2,1.0074068E0,-7.7913237E-1,1.3117539E-3,1.5895395E-3,-1.4256762E0,4.6094579E-1,-5.151679E-1,1.0316708E0,-3.6879575E-3,-8.232583E-1,6.908637E-1,1.3157548E0,3.1548813E-2,5.7281073E-2,-1.4382486E-1,4.728004E-2,-4.1592397E-2,-2.704133E-2,-1.628114E-1,1.07320905E-1,-1.3384284E-2,-1.2483592E-1,-2.428217E-2,1.3993302E-1,-2.9842336E-2,-4.0058646E-2,3.5429116E-2,2.7249947E-2,-1.2622698E-1,2.0253776E-2,1.2070079E-1,4.0988274E-2,1.5831988E-1,-5.572335E-2,6.720646E-2,3.4793883E-3,6.358895E-2,-5.5191763E-2,-2.9015185E-3],"categories":[],"categories_nodes":[],"categories_segments":[],"categories_sizes":[],"default_left":[0,0,0,0,0,0,0,0,0,0,0,0,0,0,0,0,0,0,0,0,0,0,0,0,0,0,0,0,0,0,0,0,0,0,0,0,0,0,0,0,0,0,0,0,0,0,0,0,0,0,0],"id":28,"left_children":[1,3,5,7,9,11,13,-1,15,17,19,21,23,25,27,-1,29,31,33,35,37,39,41,43,45,-1,-1,47,49,-1,-1,-1,-1,-1,-1,-1,-1,-1,-1,-1,-1,-1,-1,-1,-1,-1,-1,-1,-1,-1,-1],"loss_changes":[2.3865855E0,6.273105E0,9.577499E0,2.582799E0,4.5121036E0,5.682437E0,3.762595E0,0E0,3.26299E0,3.900828E0,5.645735E0,7.6468725E0,4.4940405E0,6.3503003E0,3.0803397E0,0E0,1.187726E0,2.0129862E0,4.439966E0,3.5617723E0,4.41599E0,3.070319E0,1.8020034E0,2.1200638E0,2.1257622E0,0E0,0E0,5.5193E0,5.169267E0,0E0,0E0,0E0,0E0,0E0,0E0,0E0,0E0,0E0,0E0,0E0,0E0,0E0,0E0,0E0,0E0,0E0,0E0,0E0,0E0,0E0,0E0],"parents":[2147483647,0,0,1,1,2,2,3,3,4,4,5,5,6,6,8,8,9,9,10,10,11,11,12,12,13,13,14,14,16,16,17,17,18,18,19,19,20,20,21,21,22,22,23,23,24,24,27,27,28,28],"right_children":[2,4,6,8,10,12,14,-1,16,18,20,22,24,26,28,-1,30,32,34,36,38,40,42,44,46,-1,-1,48,50,-1,-1,-1,-1,-1,-1,-1,-1,-1,-1,-1,-1,-1,-1,-1,-1,-1,-1,-1,-1,-1,-1],"split_conditions":[-1.4464109E0,1.8472615E-1,-1.3207824E0,-1.5736402E0,-2.0121085E-2,2.3130523E-1,-1.1210109E0,1.5377133E-2,7.878355E-2,-8.5878056E-1,-8.262303E-1,-4.1969627E-1,2.6798108E-1,-9.856538E-1,-4.15283E-2,1.5895395E-3,-7.1092385E-1,2.8179732E-1,-7.228945E-1,-1.6339953E0,-2.9612866E-1,-7.108082E-1,-5.84035E-1,-6.3271564E-1,1.2498361E0,5.7281073E-2,-1.4382486E-1,5.5771E-1,-1.4275628E0,-2.704133E-2,-1.628114E-1,1.07320905E-1,-1.3384284E-2,-1.2483592E-1,-2.428217E-2,1.3993302E-1,-2.9842336E-2,-4.0058646E-2,3.5429116E-2,2.7249947E-2,-1.2622698E-1,2.0253776E-2,1.2070079E-1,4.0988274E-2,1.5831988E-1,-5.572335E-2,6.720646E-2,3.4793883E-3,6.358895E-2,-5.5191763E-2,-2.9015185E-3],"split_indices":[22,11,22,22,8,23,20,0,11,30,21,16,10,21,21,0,29,12,29,22,7,6,29,29,24,0,0,23,16,0,0,0,0,0,0,0,0,0,0,0,0,0,0,0,0,0,0,0,0,0,0],"split_type":[0,0,0,0,0,0,0,0,0,0,0,0,0,0,0,0,0,0,0,0,0,0,0,0,0,0,0,0,0,0,0,0,0,0,0,0,0,0,0,0,0,0,0,0,0,0,0,0,0,0,0],"sum_hessian":[1.6620066E3,7.108564E1,1.5909209E3,9.687832E0,6.139781E1,2.5859991E1,1.5650609E3,1.7274812E0,7.96035E0,2.6886463E1,3.451135E1,1.1786902E1,1.4073089E1,5.201924E0,1.559859E3,1.9992261E0,5.961124E0,4.1332064E0,2.2753256E1,5.4295287E0,2.908182E1,4.6674967E0,7.119406E0,1.0429355E1,3.6437345E0,1.747824E0,3.4541E0,7.529899E2,8.068691E2,1.2370968E0,4.724027E0,1.6403302E0,2.4928758E0,5.192E0,1.7561256E1,4.2129483E0,1.2165803E0,1.3734777E1,1.5347041E1,1.4436024E0,3.2238941E0,4.37377E0,2.7456357E0,2.9545283E0,7.4748263E0,1.9662858E0,1.6774485E0,7.383857E2,1.4604241E1,1.8375935E1,7.8849316E2],"tree_param":{"num_deleted":"0","num_feature":"31","num_nodes":"51","size_leaf_vector":"1"}},{"base_weights":[3.1640602E-4,5.809917E-1,-2.111572E-3,-1.7484376E-2,7.754509E-1,-5.878368E-1,9.262855E-4,1.11901104E-1,1.654616E-1,-1.1847427E-1,-1.0243023E-2,2.064869E-2,-8.5468546E-2,-5.0263416E-2,7.4611746E-2,8.730126E-2,-6.73423E-1,9.412969E-3,3.9636505E-1,-6.0536194E-1,-4.8427355E-2,-1.0666951E-1,9.311245E-3,1.6313549E-3,-3.3501487E-2,9.3857296E-2,4.564321E-3,-1.2815359E-1,-2.698919E-2,-8.4018754E-4,-5.0884552E-2],"categories":[],"categories_nodes":[],"categories_segments":[],"categories_sizes":[],"default_left":[0,0,0,0,0,0,0,0,0,0,0,0,0,0,0,0,0,0,0,0,0,0,0,0,0,0,0,0,0,0,0],"id":29,"left_children":[1,3,5,-1,7,9,11,-1,13,-1,15,17,19,-1,-1,-1,21,23,25,27,29,-1,-1,-1,-1,-1,-1,-1,-1,-1,-1],"loss_changes":[2.3451924E0,1.1536007E0,2.9482474E0,0E0,1.007904E0,2.9353895E0,2.8116357E0,0E0,1.6259798E0,0E0,3.7238436E0,5.6673E0,5.8766036E0,0E0,0E0,0E0,1.1912893E0,3.1080856E0,7.3703065E0,4.2612042E0,5.2915444E0,0E0,0E0,0E0,0E0,0E0,0E0,0E0,0E0,0E0,0E0],"parents":[2147483647,0,0,1,1,2,2,4,4,5,5,6,6,8,8,10,10,11,11,12,12,16,16,17,17,18,18,19,19,20,20],"right_children":[2,4,6,-1,8,10,12,-1,14,-1,16,18,20,-1,-1,-1,22,24,26,28,30,-1,-1,-1,-1,-1,-1,-1,-1,-1,-1],"split_conditions":[-2.1694434E0,-7.880127E-1,-2.224646E0,-1.7484376E-2,1.0867646E0,-1.1889936E0,1.1005728E0,1.11901104E-1,8.3979046E-1,-1.1847427E-1,-2.2648702E0,1.0298353E0,-3.8207412E-1,-5.0263416E-2,7.4611746E-2,8.730126E-2,1.1034076E-1,1.1480211E0,2.590873E-1,-1.7621672E-1,1.5561311E0,-1.0666951E-1,9.311245E-3,1.6313549E-3,-3.3501487E-2,9.3857296E-2,4.564321E-3,-1.2815359E-1,-2.698919E-2,-8.4018754E-4,-5.0884552E-2],"split_indices":[12,14,26,0,13,24,23,0,14,0,2,23,14,0,0,0,6,24,0,0,7,0,0,0,0,0,0,0,0,0,0],"split_type":[0,0,0,0,0,0,0,0,0,0,0,0,0,0,0,0,0,0,0,0,0,0,0,0,0,0,0,0,0,0,0],"sum_hessian":[1.6615442E3,5.9262733E0,1.6556179E3,1.2333376E0,4.6929355E0,7.549271E0,1.6480686E3,2.4682713E0,2.2246642E0,3.1956272E0,4.353644E0,1.3423866E3,3.05682E2,1.0969243E0,1.12774E0,1.7313472E0,2.6222966E0,1.3044037E3,3.7982876E1,1.9310177E1,2.8637186E2,1.4743168E0,1.1479799E0,1.2797174E3,2.4686384E1,1.4260442E1,2.3722433E1,5.4682484E0,1.38419285E1,2.6440463E2,2.1967209E1],"tree_param":{"num_deleted":"0","num_feature":"31","num_nodes":"31","size_leaf_vector":"1"}},{"base_weights":[1.9481729E-4,3.4195345E-3,-4.0630257E-1,-4.263145E-3,1.9069725E-1,-5.7321405E-1,5.473127E-2,2.4762396E-3,-4.2537898E-1,2.9696548E-1,-7.2113824E-1,3.4206178E-2,-8.93023E-1,8.6585335E-2,-1.916829E-2,-7.858215E-1,2.5333786E-1,2.111909E-1,1.0430411E0,-1.0416958E0,7.3082573E-3,-8.2964465E-2,5.0312346E-1,3.3882182E-2,-1.1771517E-1,-5.0929744E-2,1.12342015E-2,-3.0723158E-2,-6.925933E-4,-1.0219916E-1,3.0759547E-2,1.2721625E-1,-1.8956468E-2,2.9425902E-2,-5.124688E-2,1.4698379E-1,-1.6555589E-3,-4.0951353E-2,-1.2401476E-1,9.8487E-2,-2.0212779E-2],"categories":[],"categories_nodes":[],"categories_segments":[],"categories_sizes":[],"default_left":[0,0,0,0,0,0,0,0,0,0,0,0,0,0,0,0,0,0,0,0,0,0,0,0,0,0,0,0,0,0,0,0,0,0,0,0,0,0,0,0,0],"id":30,"left_children":[1,3,5,7,9,11,-1,13,15,17,19,21,23,25,27,29,31,33,35,37,-1,-1,39,-1,-1,-1,-1,-1,-1,-1,-1,-1,-1,-1,-1,-1,-1,-1,-1,-1,-1],"loss_changes":[2.1800208E0,2.3747144E0,2.3971293E0,4.5018907E0,6.516409E0,2.2893672E0,0E0,2.8450983E0,6.3115964E0,3.5527577E0,1.8787532E0,2.4321218E0,3.077848E0,4.966324E0,4.381559E0,4.5914907E0,4.493111E0,3.4049215E0,2.6588378E0,1.3322783E-1,0E0,0E0,1.5058408E0,0E0,0E0,0E0,0E0,0E0,0E0,0E0,0E0,0E0,0E0,0E0,0E0,0E0,0E0,0E0,0E0,0E0,0E0],"parents":[2147483647,0,0,1,1,2,2,3,3,4,4,5,5,7,7,8,8,9,9,10,10,11,11,12,12,13,13,14,14,15,15,16,16,17,17,18,18,19,19,22,22],"right_children":[2,4,6,8,10,12,-1,14,16,18,20,22,24,26,28,30,32,34,36,38,-1,-1,40,-1,-1,-1,-1,-1,-1,-1,-1,-1,-1,-1,-1,-1,-1,-1,-1,-1,-1],"split_conditions":[1.700963E0,2.176729E0,4.4444823E-1,1.8937346E0,1.2292244E0,-2.0121085E-2,5.473127E-2,-6.343643E-1,-8.965048E-3,1.1102613E0,1.5279592E0,1.3128357E0,1.3911601E0,-1.7209979E0,-5.928715E-1,1.4017762E0,5.3207606E-2,2.6799428E0,1.0881913E0,1.3572485E0,7.3082573E-3,-8.2964465E-2,-5.261257E-1,3.3882182E-2,-1.1771517E-1,-5.0929744E-2,1.12342015E-2,-3.0723158E-2,-6.925933E-4,-1.0219916E-1,3.0759547E-2,1.2721625E-1,-1.8956468E-2,2.9425902E-2,-5.124688E-2,1.4698379E-1,-1.6555589E-3,-4.0951353E-2,-1.2401476E-1,9.8487E-2,-2.0212779E-2],"split_indices":[24,20,30,20,3,8,0,30,29,28,10,15,13,22,30,7,6,22,17,19,0,0,6,0,0,0,0,0,0,0,0,0,0,0,0,0,0,0,0,0,0],"split_type":[0,0,0,0,0,0,0,0,0,0,0,0,0,0,0,0,0,0,0,0,0,0,0,0,0,0,0,0,0,0,0,0,0,0,0,0,0,0,0,0,0],"sum_hessian":[1.661013E3,1.6489237E3,1.2089216E1,1.5848843E3,6.403935E1,1.0627913E1,1.4613022E0,1.5608984E3,2.398593E1,5.795895E1,6.080399E0,3.9736722E0,6.6542416E0,3.1885403E2,1.2420443E3,1.5563108E1,8.422821E0,5.3133396E1,4.8255534E0,4.109969E0,1.97043E0,1.1274251E0,2.846247E0,1.2110815E0,5.44316E0,1.2433384E1,3.0642065E2,4.9651283E1,1.1923931E3,1.2852406E1,2.710703E0,1.9847951E0,6.4380264E0,4.819457E1,4.9388285E0,3.1639667E0,1.6615868E0,1.7138665E0,2.3961024E0,1.4555213E0,1.3907257E0],"tree_param":{"num_deleted":"0","num_feature":"31","num_nodes":"41","size_leaf_vector":"1"}},{"base_weights":[1.0233082E-4,-2.3529148E-3,5.355259E-1,5.44694E-3,-1.752782E-1,-1.125088E-2,7.6684916E-1,9.151877E-4,5.118678E-1,-8.765971E-1,-6.076865E-2,9.371877E-1,6.2105046E-3,6.026347E-1,-1.396992E-3,8.8314706E-1,-5.0661874E-1,-2.1109797E-2,-1.321688E-1,2.150868E-1,-4.3332118E-1,2.2608673E-2,1.12662554E-1,-1.6621673E-2,8.354254E-2,-1.2191533E-2,1.4241707E-3,1.14621416E-1,8.445086E-3,2.7152032E-2,-1.107254E-1,-9.870648E-2,6.5526895E-2,-8.280315E-2,4.031883E-2,-1.3700338E-1,-2.0708388E-2],"categories":[],"categories_nodes":[],"categories_segments":[],"categories_sizes":[],"default_left":[0,0,0,0,0,0,0,0,0,0,0,0,0,0,0,0,0,0,0,0,0,0,0,0,0,0,0,0,0,0,0,0,0,0,0,0,0],"id":31,"left_children":[1,3,5,7,9,-1,11,13,15,17,19,21,-1,23,25,27,29,31,-1,33,35,-1,-1,-1,-1,-1,-1,-1,-1,-1,-1,-1,-1,-1,-1,-1,-1],"loss_changes":[2.1851168E0,2.2327337E0,1.2236695E0,3.6352472E0,5.684124E0,0E0,6.2838197E-1,2.186769E0,5.7599096E0,3.7619705E0,6.515281E0,3.5620904E-1,0E0,1.2157154E0,2.9535222E0,2.1430302E0,2.3518043E0,3.5362163E0,0E0,7.509826E0,5.4205003E0,0E0,0E0,0E0,0E0,0E0,0E0,0E0,0E0,0E0,0E0,0E0,0E0,0E0,0E0,0E0,0E0],"parents":[2147483647,0,0,1,1,2,2,3,3,4,4,6,6,7,7,8,8,9,9,10,10,11,11,13,13,14,14,15,15,16,16,17,17,19,19,20,20],"right_children":[2,4,6,8,10,-1,12,14,16,18,20,22,-1,24,26,28,30,32,-1,34,36,-1,-1,-1,-1,-1,-1,-1,-1,-1,-1,-1,-1,-1,-1,-1,-1],"split_conditions":[2.508414E0,1.632391E0,2.734935E-1,1.5589843E0,-1.1739655E-1,-1.125088E-2,1.7454532E0,-2.1694434E0,6.03871E-1,2.4817829E-1,1.1946967E0,-3.0205005E-1,6.2105046E-3,-7.880127E-1,-1.5495787E0,9.405468E-1,2.6738744E-2,1.0285749E-1,-1.321688E-1,1.7063018E0,-4.5984498E-1,2.2608673E-2,1.12662554E-1,-1.6621673E-2,8.354254E-2,-1.2191533E-2,1.4241707E-3,1.14621416E-1,8.445086E-3,2.7152032E-2,-1.107254E-1,-9.870648E-2,6.5526895E-2,-8.280315E-2,4.031883E-2,-1.3700338E-1,-2.0708388E-2],"split_indices":[21,21,14,21,14,0,29,12,1,24,24,22,0,14,17,29,16,0,0,21,20,0,0,0,0,0,0,0,0,0,0,0,0,0,0,0,0],"split_type":[0,0,0,0,0,0,0,0,0,0,0,0,0,0,0,0,0,0,0,0,0,0,0,0,0,0,0,0,0,0,0,0,0,0,0,0,0],"sum_hessian":[1.6602374E3,1.65365E3,6.5873947E0,1.5832074E3,7.044262E1,1.86799E0,4.7194047E0,1.5701586E3,1.3048897E1,8.953188E0,6.148943E1,3.535128E0,1.1842767E0,5.016568E0,1.565142E3,9.660236E0,3.388661E0,3.4224644E0,5.5307236E0,3.5572525E1,2.5916906E1,1.2050693E0,2.3300588E0,1.2323606E0,3.7842076E0,1.7898824E2,1.3861538E3,6.939472E0,2.7207644E0,1.7149029E0,1.673758E0,1.220334E0,2.20213E0,4.9148946E0,3.065763E1,4.058279E0,2.1858627E1],"tree_param":{"num_deleted":"0","num_feature":"31","num_nodes":"37","size_leaf_vector":"1"}},{"base_weights":[2.9122901E-7,-6.5554217E-3,1.9808802E-1,-3.870193E-2,4.061865E-2,4.7003E-1,-8.2458936E-2,-1.6436975E-2,-2.9560053E-1,1.0921941E-1,-3.321136E-2,5.9630316E-1,-3.7512657E-1,-5.0497544E-1,2.655526E-1,7.9172575E-1,-2.236849E-2,1.8585134E-1,-4.9326286E-1,2.505308E-1,-5.517823E-2,-3.1650272E-1,7.322796E-2,1.5504622E-1,9.8207486E-1,-8.468205E-2,2.9696736E-2,-9.5087004E-1,-3.6674768E-2,5.361228E-1,-4.382529E-1,1.2804288E-1,-9.750974E-3,-8.8822277E-4,-3.467965E-2,8.3154485E-2,-2.2784127E-2,2.3434082E-2,-5.6688834E-2,1.2938528E-2,8.420675E-2,-6.575227E-2,4.459202E-4,1.5204317E-2,-5.1821925E-2,2.811033E-2,-3.1223698E-3,-7.0241585E-2,5.1722433E-2,1.14716284E-1,1.0004266E-2,2.8024558E-3,-1.1710008E-1,-7.7552594E-2,3.919305E-2,8.7418936E-2,-4.3772172E-2,4.5776654E-2,-1.0361072E-1],"categories":[],"categories_nodes":[],"categories_segments":[],"categories_sizes":[],"default_left":[0,0,0,0,0,0,0,0,0,0,0,0,0,0,0,0,0,0,0,0,0,0,0,0,0,0,0,0,0,0,0,0,0,0,0,0,0,0,0,0,0,0,0,0,0,0,0,0,0,0,0,0,0,0,0,0,0,0,0],"id":32,"left_children":[1,3,5,7,9,11,13,15,17,19,21,23,25,27,29,31,33,35,37,39,41,43,45,47,49,-1,-1,51,53,55,57,-1,-1,-1,-1,-1,-1,-1,-1,-1,-1,-1,-1,-1,-1,-1,-1,-1,-1,-1,-1,-1,-1,-1,-1,-1,-1,-1,-1],"loss_changes":[2.157841E0,2.4407237E0,4.0998783E0,5.4695234E0,3.3075995E0,3.1242747E0,4.1117935E0,4.2447934E0,7.350331E0,7.874788E0,9.520334E0,3.9386435E0,1.5661032E0,2.588362E0,3.1845205E0,2.928883E0,3.8312786E0,6.313614E0,3.0442657E0,1.2944036E1,5.651069E0,8.226526E0,4.997428E0,4.2134104E0,1.7250423E0,0E0,0E0,1.4108729E0,2.5737164E0,4.2140813E0,3.07309E0,0E0,0E0,0E0,0E0,0E0,0E0,0E0,0E0,0E0,0E0,0E0,0E0,0E0,0E0,0E0,0E0,0E0,0E0,0E0,0E0,0E0,0E0,0E0,0E0,0E0,0E0,0E0,0E0],"parents":[2147483647,0,0,1,1,2,2,3,3,4,4,5,5,6,6,7,7,8,8,9,9,10,10,11,11,12,12,13,13,14,14,15,15,16,16,17,17,18,18,19,19,20,20,21,21,22,22,23,23,24,24,27,27,28,28,29,29,30,30],"right_children":[2,4,6,8,10,12,14,16,18,20,22,24,26,28,30,32,34,36,38,40,42,44,46,48,50,-1,-1,52,54,56,58,-1,-1,-1,-1,-1,-1,-1,-1,-1,-1,-1,-1,-1,-1,-1,-1,-1,-1,-1,-1,-1,-1,-1,-1,-1,-1,-1,-1],"split_conditions":[1.710486E0,6.9201785E-1,1.4421727E-1,1.4017762E0,2.8014833E-1,1.1708183E0,-2.7432957E-1,-2.241705E0,-5.061037E-1,-2.2477637E-1,-4.8979664E-1,-4.7550687E-1,-1.0486199E-1,3.7507546E-1,1.4041568E0,-2.0121085E-2,1.8818425E0,5.129364E-2,-1.3062798E0,-2.2810772E-1,-6.049803E-1,-7.0182616E-1,9.724602E-2,-5.7786393E-1,9.385181E-1,-8.468205E-2,2.9696736E-2,-5.84035E-1,-4.9162158E-1,1.0368863E0,7.207891E-1,1.2804288E-1,-9.750974E-3,-8.8822277E-4,-3.467965E-2,8.3154485E-2,-2.2784127E-2,2.3434082E-2,-5.6688834E-2,1.2938528E-2,8.420675E-2,-6.575227E-2,4.459202E-4,1.5204317E-2,-5.1821925E-2,2.811033E-2,-3.1223698E-3,-7.0241585E-2,5.1722433E-2,1.14716284E-1,1.0004266E-2,2.8024558E-3,-1.1710008E-1,-7.7552594E-2,3.919305E-2,8.7418936E-2,-4.3772172E-2,4.5776654E-2,-1.0361072E-1],"split_indices":[7,8,22,7,3,23,30,21,20,6,22,20,22,20,8,8,30,12,21,29,30,29,22,15,20,0,0,29,29,16,0,0,0,0,0,0,0,0,0,0,0,0,0,0,0,0,0,0,0,0,0,0,0,0,0,0,0,0,0],"split_type":[0,0,0,0,0,0,0,0,0,0,0,0,0,0,0,0,0,0,0,0,0,0,0,0,0,0,0,0,0,0,0,0,0,0,0,0,0,0,0,0,0,0,0,0,0,0,0,0,0,0,0,0,0,0,0,0,0,0,0],"sum_hessian":[1.659659E3,1.6074281E3,5.2230923E1,9.5608734E2,6.5134076E2,2.6179245E1,2.605168E1,8.8081287E2,