{"learner":{"attributes":{"scikit_learn":"{\"_estimator_type\": \"classifier\"}"},"feature_names":["open","high","low","close","tick_volume","spread","realvolume","hour","dayofweek","sma_10","ema_20","sma_50","ema_100","rsi","macd","macd_h","macd_s","bbl","bbm","bbu","bbb","bbp","atr","stoch_k","stoch_d","ichimoku_ts","ichimoku_ks","close_lag1","close_lag2","volume_lag1","volume_lag2"],"feature_types":["float","float","float","float","float","float","float","float","float","float","float","float","float","float","float","float","float","float","float","float","float","float","float","float","float","float","float","float","float","float","float"],"gradient_booster":{"model":{"gbtree_model_param":{"num_parallel_tree":"1","num_trees":"150"},"iteration_indptr":[0,1,2,3,4,5,6,7,8,9,10,11,12,13,14,15,16,17,18,19,20,21,22,23,24,25,26,27,28,29,30,31,32,33,34,35,36,37,38,39,40,41,42,43,44,45,46,47,48,49,50,51,52,53,54,55,56,57,58,59,60,61,62,63,64,65,66,67,68,69,70,71,72,73,74,75,76,77,78,79,80,81,82,83,84,85,86,87,88,89,90,91,92,93,94,95,96,97,98,99,100,101,102,103,104,105,106,107,108,109,110,111,112,113,114,115,116,117,118,119,120,121,122,123,124,125,126,127,128,129,130,131,132,133,134,135,136,137,138,139,140,141,142,143,144,145,146,147,148,149,150],"tree_info":[0,0,0,0,0,0,0,0,0,0,0,0,0,0,0,0,0,0,0,0,0,0,0,0,0,0,0,0,0,0,0,0,0,0,0,0,0,0,0,0,0,0,0,0,0,0,0,0,0,0,0,0,0,0,0,0,0,0,0,0,0,0,0,0,0,0,0,0,0,0,0,0,0,0,0,0,0,0,0,0,0,0,0,0,0,0,0,0,0,0,0,0,0,0,0,0,0,0,0,0,0,0,0,0,0,0,0,0,0,0,0,0,0,0,0,0,0,0,0,0,0,0,0,0,0,0,0,0,0,0,0,0,0,0,0,0,0,0,0,0,0,0,0,0,0,0,0,0,0,0],"trees":[{"base_weights":[1.0672266E-2,1.04266144E-1,-2.1357585E-1,1.1773284E-1,-1.4888759E-1,-1.0849293E-1,-8.755089E-1,-3.9459493E-2,2.2584352E-1,-1.679491E-1,6.888254E-1,-1.2051173E0,-3.6038658E-1,4.7618892E-2,-8.474514E-1,5.107516E-1,1.6999118E-1,-2.6891196E-1,3.6674598E-1,1.1911716E0,-1.7016841E-1,-1.4438927E0,-5.432509E-1,7.516001E-2,-6.2931895E-1,1.08971596E-1,-8.06864E-1,-3.4385562E-1,-1.3236303E0,8.864951E-1,9.959432E-2,2.2209752E-1,-2.2323836E-1,-4.1395023E-1,7.4331306E-2,-4.161258E-1,5.2055895E-1,1.7687168E-2,1.3894212E-1,4.052901E-2,-8.500125E-2,-1.5739979E-1,-4.4960935E-2,1.7687168E-2,-8.1246835E-1,-6.1523262E-2,-9.0286905E-1,-1.3037554E-2,2.8317107E-2,6.2173087E-2,-1.0744273E-1,-7.387451E-2,8.578711E-2,-2.679875E-2,-1.4793123E-1,4.2690974E-2,1.21610284E-1,1.440367E-1,-2.2664791E-2,-1.693842E-2,2.749523E-2,-5.317363E-2,7.009025E-2,6.730539E-2,-4.7408126E-2,-4.8716925E-3,9.974528E-2,6.2173087E-2,-1.05579965E-1,-6.712397E-3,7.043895E-2,-2.3420414E-2,-1.1577058E-1,6.2173087E-2,-5.9822924E-2,-4.920621E-3,-1.176368E-1],"categories":[],"categories_nodes":[],"categories_segments":[],"categories_sizes":[],"default_left":[0,0,0,0,0,0,0,0,0,0,0,0,0,0,0,0,0,0,0,0,0,0,0,0,0,0,0,0,0,0,0,0,0,0,0,0,0,0,0,0,0,0,0,0,0,0,0,0,0,0,0,0,0,0,0,0,0,0,0,0,0,0,0,0,0,0,0,0,0,0,0,0,0,0,0,0,0],"id":0,"left_children":[1,3,5,7,-1,9,11,13,15,17,19,21,23,25,27,29,31,33,35,37,39,41,43,-1,45,47,49,51,53,55,57,59,61,63,65,67,69,-1,-1,-1,-1,-1,-1,-1,71,73,75,-1,-1,-1,-1,-1,-1,-1,-1,-1,-1,-1,-1,-1,-1,-1,-1,-1,-1,-1,-1,-1,-1,-1,-1,-1,-1,-1,-1,-1,-1],"loss_changes":[1.2148871E1,8.935432E0,1.1762203E1,6.905478E0,0E0,7.14367E0,3.506939E0,1.1735527E1,3.7417507E0,7.589945E0,4.7267003E0,1.3852367E0,3.6082451E0,8.003963E0,3.435503E0,5.926957E0,4.202054E0,5.8705893E0,2.9216304E0,1.1096306E0,2.2003446E0,5.1940346E-1,1.1601355E0,0E0,1.3402526E0,5.9476223E0,4.580027E0,5.016759E0,9.1638947E-1,2.5434685E0,8.951672E0,3.759695E0,7.2751393E0,5.718875E0,4.102757E0,3.4743338E0,2.1236296E0,0E0,0E0,0E0,0E0,0E0,0E0,0E0,5.2640915E-1,1.8369179E0,1.3410125E0,0E0,0E0,0E0,0E0,0E0,0E0,0E0,0E0,0E0,0E0,0E0,0E0,0E0,0E0,0E0,0E0,0E0,0E0,0E0,0E0,0E0,0E0,0E0,0E0,0E0,0E0,0E0,0E0,0E0,0E0],"parents":[2147483647,0,0,1,1,2,2,3,3,5,5,6,6,7,7,8,8,9,9,10,10,11,11,12,12,13,13,14,14,15,15,16,16,17,17,18,18,19,19,20,20,21,21,22,22,24,24,25,25,26,26,27,27,28,28,29,29,30,30,31,31,32,32,33,33,34,34,35,35,36,36,44,44,45,45,46,46],"right_children":[2,4,6,8,-1,10,12,14,16,18,20,22,24,26,28,30,32,34,36,38,40,42,44,-1,46,48,50,52,54,56,58,60,62,64,66,68,70,-1,-1,-1,-1,-1,-1,-1,72,74,76,-1,-1,-1,-1,-1,-1,-1,-1,-1,-1,-1,-1,-1,-1,-1,-1,-1,-1,-1,-1,-1,-1,-1,-1,-1,-1,-1,-1,-1,-1],"split_conditions":[1.0583784E-1,2.0772934E0,1.403281E0,-4.6607426E-1,-1.4888759E-1,1.2076342E0,-7.047675E-2,-5.080365E-1,-3.5955474E-1,1.337657E0,-3.937425E-1,1.3549563E0,4.0445235E-1,1.1610531E0,-3.090463E-1,-5.897533E-1,1.2978022E0,1.4458333E0,-5.4999876E-1,-1.4177402E0,4.8123512E-1,1.9210601E0,-1.0914797E0,7.516001E-2,8.6842823E-1,-5.8809847E-1,-9.8759204E-1,-4.2443064E-1,-8.3951724E-1,4.7322534E-2,-1.0153273E0,-1.3681183E0,1.9328666E0,-1.9750742E0,2.1365334E-1,-2.3544422E-1,-9.1181797E-1,1.7687168E-2,1.3894212E-1,4.052901E-2,-8.500125E-2,-1.5739979E-1,-4.4960935E-2,1.7687168E-2,-1.49098E-1,-4.9512506E-1,2.013951E-1,-1.3037554E-2,2.8317107E-2,6.2173087E-2,-1.0744273E-1,-7.387451E-2,8.578711E-2,-2.679875E-2,-1.4793123E-1,4.2690974E-2,1.21610284E-1,1.440367E-1,-2.2664791E-2,-1.693842E-2,2.749523E-2,-5.317363E-2,7.009025E-2,6.730539E-2,-4.7408126E-2,-4.8716925E-3,9.974528E-2,6.2173087E-2,-1.05579965E-1,-6.712397E-3,7.043895E-2,-2.3420414E-2,-1.1577058E-1,6.2173087E-2,-5.9822924E-2,-4.920621E-3,-1.176368E-1],"split_indices":[20,3,13,4,0,13,12,4,4,8,12,14,1,21,0,22,3,22,4,0,20,13,3,0,21,20,12,12,20,21,21,7,9,1,13,2,21,0,0,0,0,0,0,0,4,4,20,0,0,0,0,0,0,0,0,0,0,0,0,0,0,0,0,0,0,0,0,0,0,0,0,0,0,0,0,0,0],"split_type":[0,0,0,0,0,0,0,0,0,0,0,0,0,0,0,0,0,0,0,0,0,0,0,0,0,0,0,0,0,0,0,0,0,0,0,0,0,0,0,0,0,0,0,0,0,0,0,0,0,0,0,0,0,0,0,0,0,0,0,0,0,0,0,0,0,0,0,0,0,0,0,0,0,0,0,0,0],"sum_hessian":[5.767805E2,4.0731537E2,1.6946515E2,4.0481955E2,2.4958048E0,1.4725249E2,2.2212664E1,1.6522229E2,2.3959727E2,1.3776843E2,9.484058E0,1.2728605E1,9.484058E0,1.4999788E2,1.522441E1,3.7936234E1,2.0166104E2,1.16304504E2,2.1463923E1,5.740351E0,3.7437074E0,8.485737E0,4.2428684E0,1.4974829E0,7.9865756E0,1.407634E2,9.234478E0,8.236156E0,6.9882536E0,1.9217697E1,1.8718536E1,1.7845004E2,2.3210985E1,8.1612816E1,3.469169E1,3.2445464E0,1.8219376E1,1.2479024E0,4.492449E0,2.2462244E0,1.4974829E0,6.9882536E0,1.4974829E0,1.2479024E0,2.9949658E0,2.9949658E0,4.9916096E0,5.9400158E1,8.1363235E1,1.2479024E0,7.9865756E0,6.489093E0,1.7470634E0,1.2479024E0,5.740351E0,8.984898E0,1.02328E1,2.9949658E0,1.5723571E1,2.0964762E1,1.5748529E2,1.7720215E1,5.490771E0,3.7437074E0,7.786911E1,3.1447142E1,3.2445464E0,1.2479024E0,1.9966439E0,4.492449E0,1.3726927E1,1.7470634E0,1.2479024E0,1.2479024E0,1.7470634E0,1.4974829E0,3.4941268E0],"tree_param":{"num_deleted":"0","num_feature":"31","num_nodes":"77","size_leaf_vector":"1"}},{"base_weights":[-1.0635857E-2,9.569613E-2,-1.704845E-1,1.3358812E-1,-3.2021174E-1,3.771165E-1,-2.3819186E-1,2.0625103E-2,3.1535512E-1,-2.9687202E-2,-1.0877961E0,5.481495E-1,-6.1734295E-1,3.4494206E-2,-3.6665937E-1,9.314094E-2,-6.2753415E-1,3.722593E-1,-3.4152633E-1,-8.744772E-1,4.371254E-1,1.1243955E-2,-1.4415632E-1,-2.0428415E-2,1.07036E0,1.37410825E-2,-1.1990825E-1,-5.3722218E-2,1.1349754E0,-1.4602606E-1,-3.1104547E-1,1.496799E-1,-6.2288284E-1,5.3516865E-1,-8.8532025E-1,4.1882655E-1,-6.111215E-1,1.7501087E-1,-1.2830102E-1,-1.1572692E0,1.1243955E-2,1.0840417E0,-3.5420823E-1,-4.4047645E-1,1.0950494E-1,1.2524501E0,3.4800166E-1,2.560584E-1,-2.9466993E-1,1.407746E-1,1.7554896E-2,-5.2257305E-1,-3.3175384E-4,2.2100795E-3,4.8278015E-2,-8.335098E-2,4.8469976E-2,-2.6067674E-2,9.539049E-2,-1.1512208E-1,3.4372177E-2,-7.48505E-2,4.563525E-2,-1.1277751E-1,9.408147E-3,-2.5504896E-2,1.1364229E-1,-2.3677794E-2,-1.446276E-1,1.394834E-1,3.177307E-2,-8.642623E-2,8.4109865E-2,3.947219E-2,-7.647132E-2,4.358564E-2,1.5880182E-1,-4.35826E-2,1.0642216E-1,-2.6818449E-2,5.9838083E-2,4.212834E-3,-9.6455485E-2,-4.681507E-2,-1.2442273E-1,3.1084968E-2,-4.3711662E-2],"categories":[],"categories_nodes":[],"categories_segments":[],"categories_sizes":[],"default_left":[0,0,0,0,0,0,0,0,0,0,0,0,0,0,0,0,0,0,0,0,0,0,0,0,0,0,0,0,0,0,0,0,0,0,0,0,0,0,0,0,0,0,0,0,0,0,0,0,0,0,0,0,0,0,0,0,0,0,0,0,0,0,0,0,0,0,0,0,0,0,0,0,0,0,0,0,0,0,0,0,0,0,0,0,0,0,0],"id":1,"left_children":[1,3,5,7,9,11,13,15,17,19,21,23,25,27,29,31,33,35,37,39,41,-1,-1,43,45,-1,-1,47,49,-1,51,53,55,57,59,61,63,65,-1,67,-1,69,71,73,-1,75,77,79,81,-1,-1,83,85,-1,-1,-1,-1,-1,-1,-1,-1,-1,-1,-1,-1,-1,-1,-1,-1,-1,-1,-1,-1,-1,-1,-1,-1,-1,-1,-1,-1,-1,-1,-1,-1,-1,-1],"loss_changes":[9.787285E0,5.493409E0,8.617527E0,6.5165668E0,6.4734774E0,4.708928E0,7.2047834E0,9.317603E0,4.675909E0,9.133652E0,3.5513306E0,6.6891284E0,2.02693E0,6.5325794E0,8.038841E0,7.3010445E0,6.453791E0,5.4062967E0,5.196122E0,2.4274545E0,8.042411E0,0E0,0E0,5.979182E0,1.106183E0,0E0,0E0,4.753191E0,1.0593944E0,0E0,8.8172035E0,7.03615E0,3.4889112E0,1.662959E0,5.8557253E0,5.07156E0,2.1069953E0,3.3830805E0,0E0,1.3831911E0,0E0,1.575819E0,5.288887E0,2.8028255E0,0E0,1.7681513E0,2.5662441E0,5.1770296E0,8.098805E0,0E0,0E0,2.5522728E0,7.657538E0,0E0,0E0,0E0,0E0,0E0,0E0,0E0,0E0,0E0,0E0,0E0,0E0,0E0,0E0,0E0,0E0,0E0,0E0,0E0,0E0,0E0,0E0,0E0,0E0,0E0,0E0,0E0,0E0,0E0,0E0,0E0,0E0,0E0,0E0],"parents":[2147483647,0,0,1,1,2,2,3,3,4,4,5,5,6,6,7,7,8,8,9,9,10,10,11,11,12,12,13,13,14,14,15,15,16,16,17,17,18,18,19,19,20,20,23,23,24,24,27,27,28,28,30,30,31,31,32,32,33,33,34,34,35,35,36,36,37,37,39,39,41,41,42,42,43,43,45,45,46,46,47,47,48,48,51,51,52,52],"right_children":[2,4,6,8,10,12,14,16,18,20,22,24,26,28,30,32,34,36,38,40,42,-1,-1,44,46,-1,-1,48,50,-1,52,54,56,58,60,62,64,66,-1,68,-1,70,72,74,-1,76,78,80,82,-1,-1,84,86,-1,-1,-1,-1,-1,-1,-1,-1,-1,-1,-1,-1,-1,-1,-1,-1,-1,-1,-1,-1,-1,-1,-1,-1,-1,-1,-1,-1,-1,-1,-1,-1,-1,-1],"split_conditions":[-8.291782E-2,1.1749719E0,-1.2417743E0,-2.77567E-1,5.955699E-1,1.264964E0,-7.3834425E-1,7.765087E-1,8.5686123E-1,4.6228003E-2,-2.637325E-1,-6.32368E-2,9.177461E-1,-2.4616642E-1,-1.3681183E0,1.4532481E0,-6.962858E-1,1.2341026E0,5.7265246E-1,5.725803E-2,3.1488624E-1,1.1243955E-2,-1.4415632E-1,6.202205E-1,3.8101935E-1,1.37410825E-2,-1.1990825E-1,7.557164E-1,1.8961993E0,-1.4602606E-1,8.133739E-1,3.4806502E-1,6.2341624E-1,-3.963919E-1,1.3106979E0,-1.9158533E0,-3.4071743E-1,1.6274056E-1,-1.2830102E-1,-5.737343E-1,1.1243955E-2,-8.570373E-1,-4.0988237E-1,-1.2798015E0,1.0950494E-1,-1.541416E0,1.0577838E0,-1.4499354E0,-1.4572928E0,1.407746E-1,1.7554896E-2,1.4525048E0,8.6842823E-1,2.2100795E-3,4.8278015E-2,-8.335098E-2,4.8469976E-2,-2.6067674E-2,9.539049E-2,-1.1512208E-1,3.4372177E-2,-7.48505E-2,4.563525E-2,-1.1277751E-1,9.408147E-3,-2.5504896E-2,1.1364229E-1,-2.3677794E-2,-1.446276E-1,1.394834E-1,3.177307E-2,-8.642623E-2,8.4109865E-2,3.947219E-2,-7.647132E-2,4.358564E-2,1.5880182E-1,-4.35826E-2,1.0642216E-1,-2.6818449E-2,5.9838083E-2,4.212834E-3,-9.6455485E-2,-4.681507E-2,-1.2442273E-1,3.1084968E-2,-4.3711662E-2],"split_indices":[20,4,10,4,24,23,13,14,22,16,2,4,20,23,7,10,20,15,4,24,14,0,0,21,13,0,0,20,15,0,16,13,16,9,24,18,20,14,0,15,0,21,20,13,0,13,13,24,13,0,0,24,21,0,0,0,0,0,0,0,0,0,0,0,0,0,0,0,0,0,0,0,0,0,0,0,0,0,0,0,0,0,0,0,0,0,0],"split_type":[0,0,0,0,0,0,0,0,0,0,0,0,0,0,0,0,0,0,0,0,0,0,0,0,0,0,0,0,0,0,0,0,0,0,0,0,0,0,0,0,0,0,0,0,0,0,0,0,0,0,0,0,0,0,0,0,0,0,0,0,0,0,0,0,0,0,0,0,0,0,0,0,0,0,0,0,0,0,0,0,0,0,0,0,0,0,0],"sum_hessian":[5.7386365E2,3.448616E2,2.2900206E2,3.16688E2,2.817359E1,2.4696102E1,2.0430595E2,1.9599571E2,1.2069229E2,2.1191465E1,6.9821243E0,2.145495E1,3.2411523E0,6.566226E1,1.3864369E2,1.7704434E2,1.8951363E1,1.1146925E2,9.22304E0,7.2314425E0,1.3960023E1,1.7447677E0,5.2373567E0,1.0731486E1,1.0723464E1,1.7432449E0,1.4979073E0,6.166988E1,3.9923785E0,5.48711E0,1.3315659E2,1.6482066E2,1.2223679E1,3.2439644E0,1.5707397E1,1.0697751E2,4.4917445E0,6.4812613E0,2.741778E0,5.486675E0,1.7447677E0,7.4773703E0,6.4826527E0,8.235443E0,2.4960427E0,7.978443E0,2.7450206E0,2.695359E1,3.471629E1,2.744751E0,1.2476275E0,7.881744E1,5.433915E1,1.19946785E2,4.4873886E1,1.047846E1,1.7452186E0,1.2485161E0,1.9954482E0,1.2965631E1,2.741767E0,2.741778E0,1.04235725E2,2.2465973E0,2.2451472E0,4.9857464E0,1.4955151E0,1.7457412E0,3.7409334E0,4.7362847E0,2.7410855E0,4.737885E0,1.7447677E0,2.2422545E0,5.993189E0,2.9932737E0,4.9851694E0,1.4975742E0,1.2474464E0,1.0733127E1,1.6220463E1,2.3725117E1,1.0991174E1,7.482347E1,3.993966E0,3.190044E1,2.243871E1],"tree_param":{"num_deleted":"0","num_feature":"31","num_nodes":"87","size_leaf_vector":"1"}},{"base_weights":[2.375399E-2,1.00880355E-1,-1.5891357E-1,1.6195348E-1,-9.465408E-2,-7.5563945E-2,-8.1946015E-1,9.136722E-2,5.895548E-1,-7.666973E-1,2.8218219E-2,-8.859175E-1,-4.203178E-2,-1.3834193E0,-4.5310077E-1,-7.867645E-4,3.2041404E-1,7.2395855E-1,-1.14895575E-1,4.2046394E-2,-9.541575E-1,3.9106643E-1,-1.5200953E-1,-1.16115324E-1,-3.6034968E-3,-4.2085734E-1,4.4509005E-2,-1.57464E-1,-4.075813E-2,9.959123E-2,-8.073581E-1,-2.3189136E-1,1.5308517E-1,1.1335897E0,2.2516033E-1,9.509688E-1,3.89121E-2,-1.3303229E0,-6.7553654E-2,8.118694E-1,-1.479137E-1,1.3299347E-1,-7.602307E-1,-5.532335E-1,7.368222E-2,4.9745718E-1,-2.3119504E-2,-1.2417392E0,2.6328853E-1,-5.4387547E-2,4.8252866E-3,2.098391E-2,-8.24553E-2,1.3814852E-1,2.8069664E-2,8.379547E-2,1.0496917E-2,1.3483411E-1,5.3882092E-2,-2.612396E-2,7.77876E-2,-1.5545754E-1,-2.3442166E-2,-5.3560145E-2,5.0941862E-2,1.3501523E-1,3.9691343E-3,1.970685E-2,-1.361836E-1,-9.90636E-2,2.4573745E-2,-1.03285946E-1,-4.2377375E-3,-1.4479709E-2,-9.262358E-2,7.049494E-2,-5.1752355E-2,9.697197E-2,-5.6050406E-3,-1.3878866E-1,-2.5188973E-2,-3.4743123E-2,7.685478E-2],"categories":[],"categories_nodes":[],"categories_segments":[],"categories_sizes":[],"default_left":[0,0,0,0,0,0,0,0,0,0,0,0,0,0,0,0,0,0,0,0,0,0,0,0,0,0,0,0,0,0,0,0,0,0,0,0,0,0,0,0,0,0,0,0,0,0,0,0,0,0,0,0,0,0,0,0,0,0,0,0,0,0,0,0,0,0,0,0,0,0,0,0,0,0,0,0,0,0,0,0,0,0,0],"id":2,"left_children":[1,3,5,7,9,11,13,15,17,19,21,23,25,27,29,31,33,35,-1,-1,37,39,41,-1,-1,43,45,-1,-1,-1,47,49,51,53,55,57,59,61,63,65,67,69,71,73,-1,75,77,79,81,-1,-1,-1,-1,-1,-1,-1,-1,-1,-1,-1,-1,-1,-1,-1,-1,-1,-1,-1,-1,-1,-1,-1,-1,-1,-1,-1,-1,-1,-1,-1,-1,-1,-1],"loss_changes":[8.06846E0,4.8218284E0,9.301537E0,9.2142315E0,7.9839497E0,4.0962152E0,3.2892752E0,5.588318E0,1.0954882E1,3.7260456E0,5.4535484E0,1.3604059E0,4.84196E0,6.6011906E-1,7.46541E0,6.7843146E0,5.6283307E0,6.3122673E0,0E0,0E0,4.315324E0,6.39205E0,9.779112E0,0E0,0E0,4.6150675E0,3.7078028E0,0E0,0E0,0E0,5.4333153E0,6.6907744E0,6.527768E0,1.2437649E0,5.0118437E0,4.288851E0,2.6884356E0,1.9015675E0,1.6199096E0,6.4652205E0,5.700062E0,5.167322E0,3.4717188E0,3.7063856E0,0E0,3.6755493E0,3.5182934E0,8.0566025E-1,1.4994725E0,0E0,0E0,0E0,0E0,0E0,0E0,0E0,0E0,0E0,0E0,0E0,0E0,0E0,0E0,0E0,0E0,0E0,0E0,0E0,0E0,0E0,0E0,0E0,0E0,0E0,0E0,0E0,0E0,0E0,0E0,0E0,0E0,0E0,0E0],"parents":[2147483647,0,0,1,1,2,2,3,3,4,4,5,5,6,6,7,7,8,8,9,9,10,10,11,11,12,12,13,13,14,14,15,15,16,16,17,17,20,20,21,21,22,22,25,25,26,26,30,30,31,31,32,32,33,33,34,34,35,35,36,36,37,37,38,38,39,39,40,40,41,41,42,42,43,43,45,45,46,46,47,47,48,48],"right_children":[2,4,6,8,10,12,14,16,18,20,22,24,26,28,30,32,34,36,-1,-1,38,40,42,-1,-1,44,46,-1,-1,-1,48,50,52,54,56,58,60,62,64,66,68,70,72,74,-1,76,78,80,82,-1,-1,-1,-1,-1,-1,-1,-1,-1,-1,-1,-1,-1,-1,-1,-1,-1,-1,-1,-1,-1,-1,-1,-1,-1,-1,-1,-1,-1,-1,-1,-1,-1,-1],"split_conditions":[1.2401115E-1,1.1277984E0,1.4706055E0,6.9772166E-1,1.181804E0,-2.7725685E0,-4.0525678E-1,4.9445236E-1,8.979864E-1,1.0947566E0,1.2721279E0,2.6488147E0,-5.2288467E-1,6.242983E-1,-5.157982E-1,-5.6306404E-1,6.9751054E-2,7.7355105E-1,-1.14895575E-1,4.2046394E-2,1.1835111E0,-5.083751E-2,-4.6756732E-1,-1.16115324E-1,-3.6034968E-3,1.1557719E0,-3.7698522E-1,-1.57464E-1,-4.075813E-2,9.959123E-2,1.2864358E0,-6.624328E-3,2.7656236E-1,3.8285404E-1,-6.378178E-1,1.081482E0,1.0771351E0,5.164876E-1,5.152527E-1,1.2150601E0,1.2405508E0,1.2711389E0,1.143043E0,-4.671594E-1,7.368222E-2,1.0334651E0,-1.9750742E0,1.9684494E0,8.308816E-1,-5.4387547E-2,4.8252866E-3,2.098391E-2,-8.24553E-2,1.3814852E-1,2.8069664E-2,8.379547E-2,1.0496917E-2,1.3483411E-1,5.3882092E-2,-2.612396E-2,7.77876E-2,-1.5545754E-1,-2.3442166E-2,-5.3560145E-2,5.0941862E-2,1.3501523E-1,3.9691343E-3,1.970685E-2,-1.361836E-1,-9.90636E-2,2.4573745E-2,-1.03285946E-1,-4.2377375E-3,-1.4479709E-2,-9.262358E-2,7.049494E-2,-5.1752355E-2,9.697197E-2,-5.6050406E-3,-1.3878866E-1,-2.5188973E-2,-3.4743123E-2,7.685478E-2],"split_indices":[20,9,13,17,25,13,28,14,16,0,3,4,4,4,17,20,13,13,0,0,28,15,20,0,0,17,4,0,0,0,15,14,1,4,20,12,12,4,7,19,18,25,7,12,0,14,1,14,4,0,0,0,0,0,0,0,0,0,0,0,0,0,0,0,0,0,0,0,0,0,0,0,0,0,0,0,0,0,0,0,0,0,0],"split_type":[0,0,0,0,0,0,0,0,0,0,0,0,0,0,0,0,0,0,0,0,0,0,0,0,0,0,0,0,0,0,0,0,0,0,0,0,0,0,0,0,0,0,0,0,0,0,0,0,0,0,0,0,0,0,0,0,0,0,0,0,0,0,0,0,0,0,0,0,0,0,0,0,0,0,0,0,0,0,0,0,0,0,0],"sum_hessian":[5.70561E2,4.014904E2,1.6907057E2,3.0606573E2,9.542467E1,1.5111664E2,1.7953926E1,2.637422E2,4.2323547E1,1.3940127E1,8.148454E1,4.9946136E0,1.4612202E2,5.977017E0,1.197691E1,1.8878398E2,7.49582E1,3.982803E1,2.4955192E0,1.731542E0,1.2208586E1,2.6653612E1,5.483093E1,3.4961338E0,1.4984797E0,2.6454851E1,1.19667175E2,4.4846063E0,1.4924108E0,1.9970676E0,9.979842E0,7.525274E1,1.1353124E2,6.716768E0,6.824143E1,2.9623299E1,1.020473E1,8.220393E0,3.9881923E0,1.4683399E1,1.1970214E1,3.7867943E1,1.6962988E1,2.420879E1,2.246062E0,1.4720375E1,1.049468E2,6.9857793E0,2.9940624E0,3.515773E1,4.0095005E1,1.080444E2,5.4868426E0,4.723971E0,1.9927968E0,1.0210643E1,5.8030792E1,1.3925517E1,1.56977825E1,7.7168045E0,2.487926E0,6.4765673E0,1.7438262E0,2.2415333E0,1.7466589E0,8.211022E0,6.472377E0,9.973518E0,1.9966952E0,2.7430956E0,3.5124847E1,1.1975919E1,4.9870696E0,1.2218147E1,1.1990643E1,1.2475472E1,2.2449024E0,2.455915E0,1.0249088E2,5.736665E0,1.2491148E0,1.4969867E0,1.4970757E0],"tree_param":{"num_deleted":"0","num_feature":"31","num_nodes":"83","size_leaf_vector":"1"}},{"base_weights":[6.819209E-3,7.06209E-2,-1.5086803E-1,3.0017322E-1,7.322209E-3,1.159836E-1,-1.870244E-1,8.7128615E-1,1.8422553E-1,6.884144E-2,-3.9974514E-1,-2.6782483E-1,1.4534612E-1,1.1973392E0,-3.216721E-1,-5.298674E-2,5.291925E-1,-2.7768523E-1,1.580848E-1,-4.782471E-1,7.144197E-2,-3.8622913E-1,6.2620685E-2,2.8878626E-1,-5.8531255E-1,2.5738502E-2,1.3600823E0,-8.885668E-2,3.7332512E-2,-1.1533606E-1,2.985812E-2,1.2462104E-1,8.407307E-1,-1.3354114E-1,-9.290822E-1,4.518056E-1,3.0013142E-2,-3.0763698E-1,-1.0714011E0,-4.396743E-1,6.4470154E-1,5.746254E-1,-1.1602233E-1,4.0598494E-1,-9.424089E-2,-9.476E-2,6.3660103E-3,1.5779524E-1,5.764359E-2,5.0341863E-2,-1.5313272E-2,3.3607855E-2,-1.19834E-1,-2.9308602E-2,9.463256E-2,7.868131E-3,-5.5306073E-2,-1.0901841E-1,1.4797633E-2,-9.217831E-2,5.0126176E-2,-1.8462906E-2,2.5785943E-2,-8.398885E-2,2.740618E-4,3.640834E-2,-1.4192373E-1,-1.6812125E-2,-7.135906E-2,1.2857376E-1,-1.4752022E-2,8.995729E-2,-5.5303972E-2,-6.363202E-2,2.4308892E-2,-6.509425E-2,5.1843762E-2],"categories":[],"categories_nodes":[],"categories_segments":[],"categories_sizes":[],"default_left":[0,0,0,0,0,0,0,0,0,0,0,0,0,0,0,0,0,0,0,0,0,0,0,0,0,0,0,0,0,0,0,0,0,0,0,0,0,0,0,0,0,0,0,0,0,0,0,0,0,0,0,0,0,0,0,0,0,0,0,0,0,0,0,0,0,0,0,0,0,0,0,0,0,0,0,0,0],"id":3,"left_children":[1,3,5,7,9,-1,11,13,15,17,19,21,23,25,27,29,31,33,35,37,-1,39,41,43,45,-1,47,-1,-1,-1,49,51,53,55,57,59,61,63,65,67,69,71,73,75,-1,-1,-1,-1,-1,-1,-1,-1,-1,-1,-1,-1,-1,-1,-1,-1,-1,-1,-1,-1,-1,-1,-1,-1,-1,-1,-1,-1,-1,-1,-1,-1,-1],"loss_changes":[5.8806953E0,6.043478E0,8.196959E0,5.79309E0,8.220528E0,0E0,4.462876E0,6.1825447E0,6.247388E0,8.859598E0,4.1113114E0,5.2227726E0,3.613283E0,1.4729023E0,1.9027495E0,4.2227125E0,3.809865E0,5.391567E0,8.537706E0,3.805503E0,0E0,5.680725E0,3.351234E0,4.443042E0,1.4059445E0,0E0,7.8491783E-1,0E0,0E0,0E0,3.8641834E0,4.511129E0,2.3573294E0,4.429818E0,1.9790249E0,5.1461506E0,7.841682E0,5.4764366E0,4.873166E0,6.8514595E0,2.847432E0,3.9626744E0,5.284259E0,3.4743958E0,0E0,0E0,0E0,0E0,0E0,0E0,0E0,0E0,0E0,0E0,0E0,0E0,0E0,0E0,0E0,0E0,0E0,0E0,0E0,0E0,0E0,0E0,0E0,0E0,0E0,0E0,0E0,0E0,0E0,0E0,0E0,0E0,0E0],"parents":[2147483647,0,0,1,1,2,2,3,3,4,4,6,6,7,7,8,8,9,9,10,10,11,11,12,12,13,13,14,14,15,15,16,16,17,17,18,18,19,19,21,21,22,22,23,23,24,24,26,26,30,30,31,31,32,32,33,33,34,34,35,35,36,36,37,37,38,38,39,39,40,40,41,41,42,42,43,43],"right_children":[2,4,6,8,10,-1,12,14,16,18,20,22,24,26,28,30,32,34,36,38,-1,40,42,44,46,-1,48,-1,-1,-1,50,52,54,56,58,60,62,64,66,68,70,72,74,76,-1,-1,-1,-1,-1,-1,-1,-1,-1,-1,-1,-1,-1,-1,-1,-1,-1,-1,-1,-1,-1,-1,-1,-1,-1,-1,-1,-1,-1,-1,-1,-1,-1],"split_conditions":[1.2401115E-1,-5.14706E-1,-1.9605252E0,-8.4780383E-1,1.1983259E0,1.159836E-1,1.337657E0,-3.7103444E-1,-7.2577125E-1,-9.0405303E-1,1.6631279E0,1.5508426E0,1.4314895E0,-5.3153634E-1,8.291479E-1,-6.866231E-1,-1.8569659E-1,-9.2454374E-1,-3.26812E-1,8.321612E-1,7.144197E-2,1.4425015E0,-3.5945672E-1,1.2411729E0,5.7772154E-1,2.5738502E-2,-8.865464E-2,-8.885668E-2,3.7332512E-2,-1.1533606E-1,-1.4549891E0,-2.1702752E-1,-1.1842062E0,4.3999764E-1,-8.7019277E-1,-7.945909E-1,3.7231565E-1,-5.689074E-1,1.6274056E-1,-4.7693664E-1,8.321612E-1,8.6842823E-1,-2.7990174E-1,-5.481378E-1,-9.424089E-2,-9.476E-2,6.3660103E-3,1.5779524E-1,5.764359E-2,5.0341863E-2,-1.5313272E-2,3.3607855E-2,-1.19834E-1,-2.9308602E-2,9.463256E-2,7.868131E-3,-5.5306073E-2,-1.0901841E-1,1.4797633E-2,-9.217831E-2,5.0126176E-2,-1.8462906E-2,2.5785943E-2,-8.398885E-2,2.740618E-4,3.640834E-2,-1.4192373E-1,-1.6812125E-2,-7.135906E-2,1.2857376E-1,-1.4752022E-2,8.995729E-2,-5.5303972E-2,-6.363202E-2,2.4308892E-2,-6.509425E-2,5.1843762E-2],"split_indices":[20,15,2,0,19,0,8,21,15,26,21,20,16,20,7,11,11,17,17,21,0,2,19,27,0,0,20,0,0,0,21,19,22,15,0,20,17,20,14,1,21,21,17,17,0,0,0,0,0,0,0,0,0,0,0,0,0,0,0,0,0,0,0,0,0,0,0,0,0,0,0,0,0,0,0,0,0],"split_type":[0,0,0,0,0,0,0,0,0,0,0,0,0,0,0,0,0,0,0,0,0,0,0,0,0,0,0,0,0,0,0,0,0,0,0,0,0,0,0,0,0,0,0,0,0,0,0,0,0,0,0,0,0,0,0,0,0,0,0,0,0,0,0,0,0,0,0,0,0,0,0,0,0,0,0,0,0],"sum_hessian":[5.824618E2,4.1507202E2,1.6738976E2,8.890746E1,3.2616455E2,3.6592703E0,1.6373048E2,1.3904561E1,7.50029E1,2.8406525E2,4.20993E1,1.318673E2,3.1863195E1,1.0917088E1,2.9874732E0,4.494407E1,3.0058832E1,5.7742596E1,2.2632265E2,3.9861492E1,2.2378082E0,9.695709E1,3.4910202E1,2.7139944E1,4.7232513E0,1.9922129E0,8.924875E0,1.4919788E0,1.4954944E0,2.2420788E0,4.270199E1,1.3685941E1,1.6372892E1,4.8266884E1,9.475709E0,6.795233E1,1.5837032E2,3.2136616E1,7.724876E0,9.2723656E1,4.233432E0,8.456528E0,2.6453674E1,2.539301E1,1.7469347E0,2.735828E0,1.9874237E0,6.1902523E0,2.7346225E0,1.1413647E1,3.1288343E1,1.2443051E1,1.2428895E0,1.2436568E0,1.5129234E1,3.2592007E1,1.5674877E1,8.232187E0,1.2435217E0,1.7485986E0,6.6203735E1,8.164575E1,7.672456E1,1.1208935E1,2.0927681E1,1.4976238E0,6.227252E0,4.7373077E1,4.5350582E1,1.9956641E0,2.2377677E0,6.7218356E0,1.7346921E0,1.0487273E1,1.59664E1,1.9814101E0,2.3411598E1],"tree_param":{"num_deleted":"0","num_feature":"31","num_nodes":"77","size_leaf_vector":"1"}},{"base_weights":[1.9043777E-2,3.175913E-2,-8.732058E-1,6.3065654E-1,1.1084263E-2,8.935185E-2,-1.5160158E-1,1.2718128E-1,1.1346756E0,4.1099392E-2,-3.3739263E-1,-8.125561E-2,8.802396E-2,1.1595106E-1,-2.018927E-1,-2.6005132E-2,1.3790661E0,2.633456E-1,-3.1785537E-2,-4.4993895E-1,4.5859843E-1,-5.593948E-1,8.152018E-2,1.5822773E-1,1.3398438E-2,1.3330172E-1,1.2127734E0,-3.406927E-1,7.870688E-3,8.7278046E-2,-7.480746E-1,1.1845901E-1,-1.1972945E-1,5.7910264E-2,-1.10252015E-1,7.601656E-2,3.3829303E-3,2.3272717E-2,1.3427968E-1,4.11663E-2,-7.699834E-2,-9.0352416E-2,2.3278305E-3,9.069773E-2,-3.209014E-2,-8.980217E-2,9.532402E-3,5.3017147E-2,-7.841938E-2],"categories":[],"categories_nodes":[],"categories_segments":[],"categories_sizes":[],"default_left":[0,0,0,0,0,0,0,0,0,0,0,0,0,0,0,0,0,0,0,0,0,0,0,0,0,0,0,0,0,0,0,0,0,0,0,0,0,0,0,0,0,0,0,0,0,0,0,0,0],"id":4,"left_children":[1,3,5,7,9,11,-1,13,15,17,19,-1,-1,-1,21,-1,23,25,27,29,31,33,-1,-1,-1,35,37,39,41,43,45,-1,47,-1,-1,-1,-1,-1,-1,-1,-1,-1,-1,-1,-1,-1,-1,-1,-1],"loss_changes":[6.618108E0,7.0965724E0,5.207291E0,4.709143E0,5.8248825E0,3.7300618E0,0E0,3.8671308E0,3.5734777E0,8.308473E0,4.163013E0,0E0,0E0,0E0,3.7143996E0,0E0,1.8586826E0,1.5475405E1,4.7404423E0,6.343677E0,2.6468863E0,5.1051445E0,0E0,0E0,0E0,6.9902663E0,1.6160011E0,1.4535704E1,4.8478274E0,5.271629E0,3.2869415E0,0E0,2.2420483E0,0E0,0E0,0E0,0E0,0E0,0E0,0E0,0E0,0E0,0E0,0E0,0E0,0E0,0E0,0E0,0E0],"parents":[2147483647,0,0,1,1,2,2,3,3,4,4,5,5,7,7,8,8,9,9,10,10,14,14,16,16,17,17,18,18,19,19,20,20,21,21,25,25,26,26,27,27,28,28,29,29,30,30,32,32],"right_children":[2,4,6,8,10,12,-1,14,16,18,20,-1,-1,-1,22,-1,24,26,28,30,32,34,-1,-1,-1,36,38,40,42,44,46,-1,48,-1,-1,-1,-1,-1,-1,-1,-1,-1,-1,-1,-1,-1,-1,-1,-1],"split_conditions":[2.0341089E0,-1.0386974E0,3.0625924E-1,-1.1129383E0,1.2906003E0,-9.9550617E-1,-1.5160158E-1,-7.092321E-1,-7.007206E-1,-6.964812E-1,1.2348423E0,-8.125561E-2,8.802396E-2,1.1595106E-1,-4.1646832E-1,-2.6005132E-2,1.2050257E0,-7.3868483E-1,-6.7201203E-1,-1.9667116E-1,1.3239248E0,-3.817414E-1,8.152018E-2,1.5822773E-1,1.3398438E-2,-4.1024855E-1,-7.878422E-1,-6.694251E-2,-2.7725685E0,-5.090408E-1,6.451437E-1,1.1845901E-1,4.414606E-1,5.7910264E-2,-1.10252015E-1,7.601656E-2,3.3829303E-3,2.3272717E-2,1.3427968E-1,4.11663E-2,-7.699834E-2,-9.0352416E-2,2.3278305E-3,9.069773E-2,-3.209014E-2,-8.980217E-2,9.532402E-3,5.3017147E-2,-7.841938E-2],"split_indices":[28,4,13,4,23,22,0,16,21,22,16,0,0,0,20,0,24,22,4,20,16,21,0,0,0,16,20,15,13,12,22,0,0,0,0,0,0,0,0,0,0,0,0,0,0,0,0,0,0],"split_type":[0,0,0,0,0,0,0,0,0,0,0,0,0,0,0,0,0,0,0,0,0,0,0,0,0,0,0,0,0,0,0,0,0,0,0,0,0,0,0,0,0,0,0,0,0,0,0,0,0],"sum_hessian":[5.7989197E2,5.7269495E2,7.19701E0,1.812607E1,5.5456885E2,3.226531E0,3.9704792E0,9.694431E0,8.431639E0,5.1140262E2,4.3166245E1,1.4946609E0,1.73187E0,1.7333205E0,7.9611106E0,1.2475934E0,7.1840453E0,1.2564951E2,3.857531E2,3.8199852E1,4.9663897E0,6.2235723E0,1.7375382E0,5.943223E0,1.2408223E0,1.1151555E2,1.4133967E1,4.3023666E1,3.4272943E2,1.3885866E1,2.4313988E1,1.7372577E0,3.229132E0,1.9886756E0,4.2348967E0,1.4362533E1,9.7153015E1,1.9823048E0,1.2151662E1,1.5645363E1,2.7378305E1,4.739443E0,3.3799E2,4.209803E0,9.676064E0,2.0588764E1,3.725222E0,1.7346289E0,1.4945029E0],"tree_param":{"num_deleted":"0","num_feature":"31","num_nodes":"49","size_leaf_vector":"1"}},{"base_weights":[-3.782026E-2,-2.3564307E-2,-1.0388638E0,9.587277E-3,-2.754329E-1,-4.081114E-1,-1.467751E-1,5.4787587E-2,-3.099701E-1,-3.2998544E-1,6.6710484E-1,3.2598328E-2,-1.07039765E-1,-6.713815E-2,1.7422393E-1,-1.0281633E-1,-1.1490791E0,7.965245E-2,-3.78004E-1,1.1507411E-1,-8.470807E-3,1.2331445E-1,-3.494505E-1,8.9698754E-2,4.2555642E-1,2.6302496E-2,-5.89521E-1,1.3999509E-3,-1.3093983E0,-7.014779E-1,-1.3817336E-1,-5.733744E-2,1.897891E-2,7.9445615E-2,-3.943945E-2,1.9776922E-2,-1.7056277E-2,1.0679275E-1,2.7913103E-2,-5.9384484E-2,1.6090445E-2,7.720834E-2,-8.880969E-2,-1.5801476E-1,-4.3793652E-2,-1.8803017E-2,-9.9271014E-2,1.291958E-1,-2.6788441E-2],"categories":[],"categories_nodes":[],"categories_segments":[],"categories_sizes":[],"default_left":[0,0,0,0,0,0,0,0,0,0,0,0,0,0,0,0,0,0,0,0,0,0,0,0,0,0,0,0,0,0,0,0,0,0,0,0,0,0,0,0,0,0,0,0,0,0,0,0,0],"id":5,"left_children":[1,3,5,7,9,11,-1,13,15,17,19,-1,-1,21,23,25,27,-1,29,-1,-1,31,33,35,37,39,41,-1,43,45,47,-1,-1,-1,-1,-1,-1,-1,-1,-1,-1,-1,-1,-1,-1,-1,-1,-1,-1],"loss_changes":[8.272638E0,4.7976513E0,1.603137E0,7.360873E0,3.6562848E0,2.6242278E0,0E0,6.5105987E0,1.0859729E1,3.754456E0,1.5472479E0,0E0,0E0,1.1955774E1,4.757006E0,3.2675462E0,2.331604E0,0E0,4.705905E0,0E0,0E0,6.270396E0,4.915513E0,4.820319E0,5.020008E0,3.5894036E0,5.1140776E0,0E0,1.8830605E0,3.7180624E0,7.1719103E0,0E0,0E0,0E0,0E0,0E0,0E0,0E0,0E0,0E0,0E0,0E0,0E0,0E0,0E0,0E0,0E0,0E0,0E0],"parents":[2147483647,0,0,1,1,2,2,3,3,4,4,5,5,7,7,8,8,9,9,10,10,13,13,14,14,15,15,16,16,18,18,21,21,22,22,23,23,24,24,25,25,26,26,28,28,29,29,30,30],"right_children":[2,4,6,8,10,12,-1,14,16,18,20,-1,-1,22,24,26,28,-1,30,-1,-1,32,34,36,38,40,42,-1,44,46,48,-1,-1,-1,-1,-1,-1,-1,-1,-1,-1,-1,-1,-1,-1,-1,-1,-1,-1],"split_conditions":[2.0367672E0,1.1749719E0,1.9893305E0,1.220062E0,4.8043823E0,2.0772934E0,-1.467751E-1,2.2630323E-2,1.1567235E0,-1.8684304E0,-1.3487633E0,3.2598328E-2,-1.07039765E-1,-4.2826763E-1,1.0447675E0,1.4306402E0,-4.3872144E-2,7.965245E-2,-3.6252382E-1,1.1507411E-1,-8.470807E-3,-1.599454E0,-1.9525821E0,8.1266356E-1,1.1165787E0,-6.962029E-1,1.2552776E0,1.3999509E-3,1.355132E0,-7.3834425E-1,-3.4892386E-1,-5.733744E-2,1.897891E-2,7.9445615E-2,-3.943945E-2,1.9776922E-2,-1.7056277E-2,1.0679275E-1,2.7913103E-2,-5.9384484E-2,1.6090445E-2,7.720834E-2,-8.880969E-2,-1.5801476E-1,-4.3793652E-2,-1.8803017E-2,-9.9271014E-2,1.291958E-1,-2.6788441E-2],"split_indices":[0,4,26,24,4,3,0,14,2,3,23,0,0,16,12,15,16,0,17,0,0,9,27,14,12,28,23,0,17,13,26,0,0,0,0,0,0,0,0,0,0,0,0,0,0,0,0,0,0],"split_type":[0,0,0,0,0,0,0,0,0,0,0,0,0,0,0,0,0,0,0,0,0,0,0,0,0,0,0,0,0,0,0,0,0,0,0,0,0,0,0,0,0,0,0,0,0,0,0,0,0],"sum_hessian":[5.8040393E2,5.7326355E2,7.140362E0,5.0743555E2,6.582802E1,3.6799383E0,3.4604232E0,4.4528067E2,6.2154892E1,6.2840794E1,2.9872239E0,1.9861882E0,1.6937501E0,2.205607E2,2.2471996E2,5.0748867E1,1.1406022E1,1.9318563E0,6.0908936E1,1.4949261E0,1.4922979E0,1.320445E2,8.851621E1,1.6918018E2,5.5539783E1,4.085605E1,9.892822E0,1.492313E0,9.91371E0,2.511285E1,3.5796085E1,1.0837405E1,1.21207085E2,2.7158673E0,8.580035E1,1.1971152E2,4.9468655E1,9.141691E0,4.639809E1,6.677795E0,3.4178253E1,1.4939647E0,8.398857E0,6.943317E0,2.9703927E0,9.684514E0,1.5428337E1,2.2315724E0,3.3564514E1],"tree_param":{"num_deleted":"0","num_feature":"31","num_nodes":"49","size_leaf_vector":"1"}},{"base_weights":[2.0155692E-2,1.2823054E-1,-1.0129677E-1,1.643198E-2,2.9636112E-1,-6.4822935E-2,-6.1267185E-1,-1.7517759E-1,2.8231674E-1,4.8095068E-1,-8.314453E-2,8.341584E-1,-8.597357E-2,-1.2702053E0,-8.806867E-2,-3.8889372E-1,1.3056777E-1,5.9297454E-1,7.956155E-2,1.0666991E0,3.444976E-1,-1.1509719E0,5.5391416E-2,1.1628342E0,-2.2946168E-2,-1.0009246E-1,1.0231918E-1,-2.01447E-2,-1.4395581E-1,-8.2280064E-1,2.4772187E-1,-1.9050157E-1,-1.1541028E0,7.237178E-1,-6.090626E-2,6.931089E-1,-8.1110954E-2,-1.5130311E-1,4.2681333E-1,1.2126707E0,-3.1192496E-2,4.2672664E-1,-5.0647455E-1,-2.3512801E-2,-1.4111976E-1,-2.2035523E-1,4.955581E-1,2.9186761E-2,1.3896456E-1,-8.4603556E-2,-1.16312146E-1,-1.1356381E-2,-1.1288848E-1,1.3808547E-1,-3.1388605E-1,-3.217366E-2,9.230305E-2,4.9979057E-2,-1.4550965E-1,1.3284727E-2,1.0983081E-1,4.0491417E-2,-2.857332E-2,1.15176834E-1,4.089604E-2,2.7801215E-3,-1.16551474E-1,-2.1899175E-2,7.0690446E-2,4.3613058E-2,1.3862349E-1,7.921519E-3,6.710277E-2,4.1190714E-2,-1.08940616E-1,7.2948635E-2,-3.178818E-2,1.3032584E-1,2.2405464E-2,-1.130947E-2,6.872207E-2,-1.1803228E-1,2.5512895E-2],"categories":[],"categories_nodes":[],"categories_segments":[],"categories_sizes":[],"default_left":[0,0,0,0,0,0,0,0,0,0,0,0,0,0,0,0,0,0,0,0,0,0,0,0,0,0,0,0,0,0,0,0,0,0,0,0,0,0,0,0,0,0,0,0,0,0,0,0,0,0,0,0,0,0,0,0,0,0,0,0,0,0,0,0,0,0,0,0,0,0,0,0,0,0,0,0,0,0,0,0,0,0,0],"id":6,"left_children":[1,3,5,7,9,11,13,15,17,19,21,23,25,27,29,31,33,35,37,39,41,43,45,47,-1,49,-1,-1,-1,51,53,55,57,59,61,63,-1,65,67,69,-1,71,73,-1,-1,75,77,-1,-1,79,-1,-1,-1,-1,81,-1,-1,-1,-1,-1,-1,-1,-1,-1,-1,-1,-1,-1,-1,-1,-1,-1,-1,-1,-1,-1,-1,-1,-1,-1,-1,-1,-1],"loss_changes":[7.6001043E0,5.7525363E0,5.047118E0,9.475842E0,8.605412E0,4.9333572E0,6.1105146E0,7.117608E0,4.8580704E0,6.2191257E0,6.108793E0,2.3541327E0,4.0286818E0,1.1454363E0,2.9443789E0,9.48189E0,5.1825294E0,4.8644238E0,3.9348397E0,3.415594E0,4.996401E0,7.9751587E-1,4.6152163E0,5.280242E-1,0E0,3.9927928E0,0E0,0E0,0E0,6.7842317E-1,5.7741814E0,7.8881836E0,7.17877E0,2.3150134E0,3.7943134E0,3.3217583E0,0E0,5.4339824E0,3.6893818E0,1.2624702E0,0E0,5.2815943E0,3.9161122E0,0E0,0E0,2.4104576E0,2.9112418E0,0E0,0E0,5.486991E0,0E0,0E0,0E0,0E0,3.46931E0,0E0,0E0,0E0,0E0,0E0,0E0,0E0,0E0,0E0,0E0,0E0,0E0,0E0,0E0,0E0,0E0,0E0,0E0,0E0,0E0,0E0,0E0,0E0,0E0,0E0,0E0,0E0,0E0],"parents":[2147483647,0,0,1,1,2,2,3,3,4,4,5,5,6,6,7,7,8,8,9,9,10,10,11,11,12,12,13,13,14,14,15,15,16,16,17,17,18,18,19,19,20,20,21,21,22,22,23,23,25,25,29,29,30,30,31,31,32,32,33,33,34,34,35,35,37,37,38,38,39,39,41,41,42,42,45,45,46,46,49,49,54,54],"right_children":[2,4,6,8,10,12,14,16,18,20,22,24,26,28,30,32,34,36,38,40,42,44,46,48,-1,50,-1,-1,-1,52,54,56,58,60,62,64,-1,66,68,70,-1,72,74,-1,-1,76,78,-1,-1,80,-1,-1,-1,-1,82,-1,-1,-1,-1,-1,-1,-1,-1,-1,-1,-1,-1,-1,-1,-1,-1,-1,-1,-1,-1,-1,-1,-1,-1,-1,-1,-1,-1],"split_conditions":[-2.1429113E-1,4.1752562E-1,1.2612815E0,-5.3153634E-1,1.1098329E0,-1.7682755E0,3.69258E-1,1.4149292E-1,-3.836764E-2,-7.472716E-1,1.079419E0,1.6701263E0,1.2802382E0,-1.9036267E0,1.3107201E0,2.3402126E-1,-7.288224E-1,1.2764226E0,8.235501E-2,1.0894458E0,1.2133143E0,6.5579045E-1,-2.226933E-1,-3.3067734E0,-2.2946168E-2,1.2299745E0,1.0231918E-1,-2.01447E-2,-1.4395581E-1,1.2722566E0,1.3654118E0,1.150672E-1,-1.120391E0,-9.2581475E-1,-5.14706E-1,-4.425846E-1,-8.1110954E-2,3.6697906E-1,-8.80304E-1,-1.066937E0,-3.1192496E-2,-5.092113E-1,-3.836764E-2,-2.3512801E-2,-1.4111976E-1,-8.2962894E-1,1.2083584E0,2.9186761E-2,1.3896456E-1,1.1348333E0,-1.16312146E-1,-1.1356381E-2,-1.1288848E-1,1.3808547E-1,1.4263532E0,-3.217366E-2,9.230305E-2,4.9979057E-2,-1.4550965E-1,1.3284727E-2,1.0983081E-1,4.0491417E-2,-2.857332E-2,1.15176834E-1,4.089604E-2,2.7801215E-3,-1.16551474E-1,-2.1899175E-2,7.0690446E-2,4.3613058E-2,1.3862349E-1,7.921519E-3,6.710277E-2,4.1190714E-2,-1.08940616E-1,7.2948635E-2,-3.178818E-2,1.3032584E-1,2.2405464E-2,-1.130947E-2,6.872207E-2,-1.1803228E-1,2.5512895E-2],"split_indices":[20,24,3,20,28,23,16,2,8,20,11,4,27,14,11,15,4,2,11,13,15,13,4,16,0,28,0,0,0,9,17,15,10,20,15,20,0,23,24,28,0,20,8,0,0,20,0,0,0,0,0,0,0,0,17,0,0,0,0,0,0,0,0,0,0,0,0,0,0,0,0,0,0,0,0,0,0,0,0,0,0,0,0],"split_type":[0,0,0,0,0,0,0,0,0,0,0,0,0,0,0,0,0,0,0,0,0,0,0,0,0,0,0,0,0,0,0,0,0,0,0,0,0,0,0,0,0,0,0,0,0,0,0,0,0,0,0,0,0,0,0,0,0,0,0,0,0,0,0,0,0,0,0,0,0,0,0,0,0,0,0,0,0,0,0,0,0,0,0],"sum_hessian":[5.770238E2,3.052978E2,2.7172598E2,1.8402678E2,1.2127101E2,2.5468718E2,1.7038805E1,1.0715023E2,7.687655E1,8.140752E1,3.9863495E1,4.9707947E0,2.4971638E2,6.930679E0,1.0108126E1,6.2906563E1,4.4243668E1,2.9599758E1,4.7276787E1,1.4093102E1,6.7314415E1,3.7385848E0,3.6124912E1,3.7260923E0,1.2447021E0,2.4747595E2,2.240437E0,1.2474891E0,5.68319E0,2.7156858E0,7.3924403E0,5.0946785E1,1.1959781E1,1.0118566E1,3.4125103E1,2.8101986E1,1.497773E0,2.8736248E1,1.8540539E1,1.2852618E1,1.2404844E0,6.183762E1,5.476798E0,1.2484206E0,2.490164E0,2.2517801E1,1.360711E1,1.2423272E0,2.4837651E0,2.4498596E2,2.4899917E0,1.2320008E0,1.4836851E0,1.9663221E0,5.426118E0,4.6211597E1,4.7351875E0,1.7397535E0,1.0220027E1,4.451505E0,5.6670604E0,1.0848018E1,2.3277084E1,9.581907E0,1.8520079E1,2.524985E1,3.4863994E0,5.6746526E0,1.2865887E1,2.9896185E0,9.863E0,2.607331E1,3.576431E1,2.240454E0,3.236344E0,1.4933859E0,2.1024416E1,2.4672105E0,1.1139899E1,2.3708757E2,7.898386E0,1.7250562E0,3.701062E0],"tree_param":{"num_deleted":"0","num_feature":"31","num_nodes":"83","size_leaf_vector":"1"}},{"base_weights":[-2.6142057E-2,1.8206568E-4,-3.6961776E-1,3.6455475E-2,-2.7840498E-1,-7.862084E-1,1.6707664E-2,5.861856E-1,1.6513942E-2,-3.5971886E-1,8.5525584E-1,-1.6730858E-1,-1.0719622E0,6.55105E-1,-4.1389972E-1,8.125606E-2,1.0859786E0,-1.3598841E-1,9.7348504E-2,-2.0075524E-1,-8.427793E-1,1.2369274E-1,5.620576E-3,3.5227877E-1,-1.18922494E-1,-1.2723911E0,1.8395327E-2,9.240085E-1,-6.199373E-2,-1.1122574E0,4.9932095E-1,-5.5889016E-1,9.3249965E-1,-3.30369E-2,1.3784641E-1,-3.9978868E-1,1.228317E-2,-2.8986298E-2,3.2466412E-1,4.553605E-1,-3.7839052E-1,-9.66851E-1,2.5220266E-2,-9.115353E-2,1.1378548E-1,-3.9557435E-2,-1.4109902E0,-2.2231676E-2,1.1638947E0,1.7367674E-2,-1.4863588E-1,-1.2731865E-1,1.11712806E-1,3.6373775E-2,-1.20881915E-1,1.1882935E-1,1.4188751E-2,-2.5461584E-2,-1.2425679E-1,3.0926738E-2,-1.8988384E-2,1.5078544E-2,-1.7338281E-2,5.579112E-2,2.3474628E-3,8.318501E-2,-4.147859E-2,-1.6139692E-2,-1.03157856E-1,2.1663075E-2,-1.1112278E-1,-2.7504027E-2,-1.5448003E-1,1.4029259E-2,1.3603127E-1,-5.260516E-2,3.6296286E-2],"categories":[],"categories_nodes":[],"categories_segments":[],"categories_sizes":[],"default_left":[0,0,0,0,0,0,0,0,0,0,0,0,0,0,0,0,0,0,0,0,0,0,0,0,0,0,0,0,0,0,0,0,0,0,0,0,0,0,0,0,0,0,0,0,0,0,0,0,0,0,0,0,0,0,0,0,0,0,0,0,0,0,0,0,0,0,0,0,0,0,0,0,0,0,0,0,0],"id":7,"left_children":[1,3,5,7,9,11,13,15,17,19,21,23,25,27,29,31,33,35,37,39,41,-1,-1,43,-1,45,-1,47,-1,49,51,53,55,-1,-1,57,59,61,63,65,67,69,-1,-1,-1,-1,71,-1,73,-1,-1,75,-1,-1,-1,-1,-1,-1,-1,-1,-1,-1,-1,-1,-1,-1,-1,-1,-1,-1,-1,-1,-1,-1,-1,-1,-1],"loss_changes":[5.2253337E0,5.4444675E0,6.6339836E0,5.2161217E0,6.0293474E0,3.3249645E0,6.407957E0,4.1155825E0,5.6967115E0,4.3321166E0,1.2876601E0,4.3714485E0,3.5998192E0,3.7887158E0,9.448474E0,5.6256022E0,3.889927E0,6.2684507E0,8.679522E0,5.465727E0,2.173174E0,0E0,0E0,6.7025094E0,0E0,8.584881E-1,0E0,2.499197E0,0E0,4.208496E0,2.7487822E0,4.020671E0,7.2030544E-1,0E0,0E0,6.736974E0,6.2720404E0,5.0873656E0,7.569314E0,3.6637611E0,4.976813E0,2.4556437E0,0E0,0E0,0E0,0E0,1.0459442E0,0E0,1.1960068E0,0E0,0E0,1.0198591E0,0E0,0E0,0E0,0E0,0E0,0E0,0E0,0E0,0E0,0E0,0E0,0E0,0E0,0E0,0E0,0E0,0E0,0E0,0E0,0E0,0E0,0E0,0E0,0E0,0E0],"parents":[2147483647,0,0,1,1,2,2,3,3,4,4,5,5,6,6,7,7,8,8,9,9,10,10,11,11,12,12,13,13,14,14,15,15,16,16,17,17,18,18,19,19,20,20,23,23,25,25,27,27,29,29,30,30,31,31,32,32,35,35,36,36,37,37,38,38,39,39,40,40,41,41,46,46,48,48,51,51],"right_children":[2,4,6,8,10,12,14,16,18,20,22,24,26,28,30,32,34,36,38,40,42,-1,-1,44,-1,46,-1,48,-1,50,52,54,56,-1,-1,58,60,62,64,66,68,70,-1,-1,-1,-1,72,-1,74,-1,-1,76,-1,-1,-1,-1,-1,-1,-1,-1,-1,-1,-1,-1,-1,-1,-1,-1,-1,-1,-1,-1,-1,-1,-1,-1,-1],"split_conditions":[1.6701263E0,1.2414359E0,9.2542756E-1,-1.0386974E0,7.792358E-1,1.3150714E-1,6.8677914E-1,-1.1129383E0,-4.6607426E-1,1.0090493E0,1.213722E0,1.2373879E-1,1.2050257E0,1.3916389E0,2.2635088E0,-1.7206593E-1,-1.0368599E0,-2.041531E-1,4.1752562E-1,-8.809123E-1,1.1559428E0,1.2369274E-1,5.620576E-3,-1.1534595E0,-1.18922494E-1,-1.6793433E0,1.8395327E-2,-5.145334E-1,-6.199373E-2,2.0135754E-1,1.1375854E0,-3.817414E-1,8.941027E-1,-3.30369E-2,1.3784641E-1,-3.049899E-1,-7.055818E-1,-5.14706E-1,5.878906E-1,1.337657E0,1.428881E0,1.9996086E-1,2.5220266E-2,-9.115353E-2,1.1378548E-1,-3.9557435E-2,1.7107974E0,-2.2231676E-2,-3.7923378E-1,1.7367674E-2,-1.4863588E-1,-1.5882725E0,1.11712806E-1,3.6373775E-2,-1.20881915E-1,1.1882935E-1,1.4188751E-2,-2.5461584E-2,-1.2425679E-1,3.0926738E-2,-1.8988384E-2,1.5078544E-2,-1.7338281E-2,5.579112E-2,2.3474628E-3,8.318501E-2,-4.147859E-2,-1.6139692E-2,-1.03157856E-1,2.1663075E-2,-1.1112278E-1,-2.7504027E-2,-1.5448003E-1,1.4029259E-2,1.3603127E-1,-5.260516E-2,3.6296286E-2],"split_indices":[4,24,22,4,4,22,20,4,4,19,21,15,24,21,20,10,24,14,24,22,14,0,0,21,0,15,0,20,0,7,19,21,0,0,0,14,4,15,16,8,24,14,0,0,0,0,4,0,14,0,0,24,0,0,0,0,0,0,0,0,0,0,0,0,0,0,0,0,0,0,0,0,0,0,0,0,0],"split_type":[0,0,0,0,0,0,0,0,0,0,0,0,0,0,0,0,0,0,0,0,0,0,0,0,0,0,0,0,0,0,0,0,0,0,0,0,0,0,0,0,0,0,0,0,0,0,0,0,0,0,0,0,0,0,0,0,0,0,0,0,0,0,0,0,0,0,0,0,0,0,0,0,0,0,0,0,0],"sum_hessian":[5.769077E2,5.36769E2,4.013873E1,4.7569968E2,6.106931E1,1.881483E1,2.1323898E1,1.5658032E1,4.6004166E2,5.7619164E1,3.450147E0,6.4438734E0,1.2370957E1,8.379505E0,1.2944393E1,8.36731E0,7.290724E0,1.5913516E2,3.0090646E2,4.441789E1,1.3201274E1,1.9640217E0,1.4861252E0,4.706273E0,1.7376004E0,1.0657097E1,1.7138608E0,7.1474385E0,1.2320668E0,7.211596E0,5.7327976E0,4.9718537E0,3.3954556E0,1.2257181E0,6.065006E0,5.6649605E1,1.02485565E2,1.9397424E2,1.0693224E2,9.130375E0,3.5287518E1,1.1962793E1,1.2384801E0,1.7425555E0,2.9637177E0,1.9807036E0,8.6763935E0,1.2495503E0,5.897888E0,1.7459223E0,5.465674E0,3.240196E0,2.4926016E0,2.2368302E0,2.7350233E0,2.185392E0,1.2100638E0,4.9436108E1,7.2134967E0,4.12943E1,6.1191265E1,8.638359E1,1.07590645E2,5.9782852E1,4.7149387E1,6.403681E0,2.726694E0,2.7424122E1,7.863394E0,1.2462893E0,1.0716504E1,1.2363272E0,7.440066E0,1.2255225E0,4.672365E0,1.7466961E0,1.4934998E0],"tree_param":{"num_deleted":"0","num_feature":"31","num_nodes":"77","size_leaf_vector":"1"}},{"base_weights":[5.008849E-3,7.448006E-2,-1.835147E-1,-1.3511282E-3,4.9609002E-1,-9.125592E-2,-5.186741E-1,-6.686958E-2,1.6477369E-1,1.5631859E-1,7.2134477E-1,4.568299E-2,-4.8578236E-1,-6.8123615E-1,5.560768E-1,8.246995E-1,-8.854941E-2,4.855686E-1,-7.230753E-2,1.1982822E-1,1.5815563E-2,4.2372772E-1,1.3899792E0,-1.0251149E-3,1.0876886E-1,-1.2124401E0,-1.754423E-1,3.3043537E-2,-7.551736E-1,8.936982E-2,-4.663409E-3,3.6800504E-2,1.3439797E-1,-3.0911827E-1,-1.0308411E-3,3.3582526E-1,1.1924717E0,2.7482975E-1,-4.8717648E-1,1.0089534E-1,-1.2814185E-1,7.340782E-1,-7.002746E-2,1.4253755E-2,1.5286568E-1,4.126453E-2,-9.773877E-1,-5.973087E-1,-1.3725017E-1,-6.472517E-1,1.301576E-1,-1.0160353E0,-2.9754E-1,-5.9512075E-2,6.5137245E-2,-1.2775014E-1,-2.1384964E-2,3.3342298E-2,-9.563454E-3,-8.469664E-3,6.271054E-2,2.6067931E-2,1.3451113E-1,-8.280703E-3,7.329052E-2,-7.0901416E-2,7.183706E-2,9.514011E-2,-2.4611851E-2,8.888685E-2,-7.1338706E-2,9.432009E-2,-3.7547838E-2,2.0488529E-4,9.33996E-2,-1.2461976E-1,-2.4321647E-2,2.179166E-3,-1.0163283E-1,5.1265992E-2,-1.1379816E-1,-4.5598764E-2,4.3428525E-2,-2.9753542E-2,-1.2257286E-1,6.2709436E-2,-7.274664E-2],"categories":[],"categories_nodes":[],"categories_segments":[],"categories_sizes":[],"default_left":[0,0,0,0,0,0,0,0,0,0,0,0,0,0,0,0,0,0,0,0,0,0,0,0,0,0,0,0,0,0,0,0,0,0,0,0,0,0,0,0,0,0,0,0,0,0,0,0,0,0,0,0,0,0,0,0,0,0,0,0,0,0,0,0,0,0,0,0,0,0,0,0,0,0,0,0,0,0,0,0,0,0,0,0,0,0,0],"id":8,"left_children":[1,3,5,7,9,11,13,15,17,19,21,23,25,27,29,31,33,35,37,-1,39,41,43,45,-1,47,49,-1,51,-1,-1,53,-1,55,57,59,61,63,65,-1,67,69,71,-1,-1,73,75,77,-1,79,81,83,85,-1,-1,-1,-1,-1,-1,-1,-1,-1,-1,-1,-1,-1,-1,-1,-1,-1,-1,-1,-1,-1,-1,-1,-1,-1,-1,-1,-1,-1,-1,-1,-1,-1,-1],"loss_changes":[7.534386E0,1.343877E1,4.742849E0,3.8993256E0,4.7914E0,6.650631E0,6.183694E0,5.0388613E0,7.7418375E0,3.9077406E0,7.023733E0,4.478335E0,6.93566E0,2.441883E0,1.0419812E0,2.4854975E0,4.8587437E0,4.1716547E0,8.650888E0,0E0,3.6532302E0,4.3283777E0,1.7446308E0,3.7169456E0,0E0,9.7551346E-2,3.4554868E0,0E0,2.9946394E0,0E0,0E0,1.7428133E0,0E0,6.3232703E0,5.765572E0,4.58946E0,6.674471E-1,5.4402275E0,7.810833E0,0E0,3.0889535E0,4.4935427E0,3.9706497E0,0E0,0E0,3.0195947E0,4.3444633E-1,9.8051405E-1,0E0,5.9103737E0,2.8760242E0,2.223175E0,5.0043116E0,0E0,0E0,0E0,0E0,0E0,0E0,0E0,0E0,0E0,0E0,0E0,0E0,0E0,0E0,0E0,0E0,0E0,0E0,0E0,0E0,0E0,0E0,0E0,0E0,0E0,0E0,0E0,0E0,0E0,0E0,0E0,0E0,0E0,0E0],"parents":[2147483647,0,0,1,1,2,2,3,3,4,4,5,5,6,6,7,7,8,8,9,9,10,10,11,11,12,12,13,13,14,14,15,15,16,16,17,17,18,18,20,20,21,21,22,22,23,23,25,25,26,26,28,28,31,31,33,33,34,34,35,35,36,36,37,37,38,38,40,40,41,41,42,42,45,45,46,46,47,47,49,49,50,50,51,51,52,52],"right_children":[2,4,6,8,10,12,14,16,18,20,22,24,26,28,30,32,34,36,38,-1,40,42,44,46,-1,48,50,-1,52,-1,-1,54,-1,56,58,60,62,64,66,-1,68,70,72,-1,-1,74,76,78,-1,80,82,84,86,-1,-1,-1,-1,-1,-1,-1,-1,-1,-1,-1,-1,-1,-1,-1,-1,-1,-1,-1,-1,-1,-1,-1,-1,-1,-1,-1,-1,-1,-1,-1,-1,-1,-1],"split_conditions":[7.669204E-1,4.409285E-1,1.1229898E0,5.7772154E-1,3.69258E-1,2.013951E-1,1.6631279E0,-1.7682755E0,1.1731753E0,-1.0216954E0,-2.181743E-1,1.1026819E0,8.586535E-1,-1.1421428E0,-6.1102235E-1,-2.856892E0,-5.092113E-1,1.1541348E0,-3.8639897E-1,1.1982822E-1,-5.212502E-2,1.0006479E0,-8.2366985E-1,9.300283E-1,1.0876886E-1,1.2276511E0,9.06914E-1,3.3043537E-2,5.152527E-1,8.936982E-2,-4.663409E-3,-1.8388809E0,1.3439797E-1,-7.830098E-1,-2.6224312E-1,-4.901071E-1,9.1617525E-1,-1.1246954E-1,4.482197E-1,1.0089534E-1,-1.0774318E0,1.4957763E0,7.319866E-1,1.4253755E-2,1.5286568E-1,9.481572E-1,1.1485683E0,-2.6948524E-1,-1.3725017E-1,-8.718095E-1,-4.3158206E-1,8.7743956E-1,1.2674985E0,-5.9512075E-2,6.5137245E-2,-1.2775014E-1,-2.1384964E-2,3.3342298E-2,-9.563454E-3,-8.469664E-3,6.271054E-2,2.6067931E-2,1.3451113E-1,-8.280703E-3,7.329052E-2,-7.0901416E-2,7.183706E-2,9.514011E-2,-2.4611851E-2,8.888685E-2,-7.1338706E-2,9.432009E-2,-3.7547838E-2,2.0488529E-4,9.33996E-2,-1.2461976E-1,-2.4321647E-2,2.179166E-3,-1.0163283E-1,5.1265992E-2,-1.1379816E-1,-4.5598764E-2,4.3428525E-2,-2.9753542E-2,-1.2257286E-1,6.2709436E-2,-7.274664E-2],"split_indices":[21,21,28,0,16,20,21,23,19,22,4,0,15,22,20,14,20,19,15,0,23,24,22,19,0,14,14,0,7,0,0,23,0,16,20,21,28,14,15,0,4,0,16,0,0,17,24,7,0,18,0,21,28,0,0,0,0,0,0,0,0,0,0,0,0,0,0,0,0,0,0,0,0,0,0,0,0,0,0,0,0,0,0,0,0,0,0],"split_type":[0,0,0,0,0,0,0,0,0,0,0,0,0,0,0,0,0,0,0,0,0,0,0,0,0,0,0,0,0,0,0,0,0,0,0,0,0,0,0,0,0,0,0,0,0,0,0,0,0,0,0,0,0,0,0,0,0,0,0,0,0,0,0,0,0,0,0,0,0,0,0,0,0,0,0,0,0,0,0,0,0,0,0,0,0,0,0],"sum_hessian":[5.7323395E2,4.1931915E2,1.539148E2,3.562419E2,6.3077225E1,1.2168974E2,3.222506E1,2.5591022E2,1.003317E2,2.5821842E1,3.7255383E1,9.099119E1,3.0698551E1,2.8309269E1,3.9157896E0,5.195812E0,2.507144E2,4.2192654E1,5.813905E1,2.1736498E0,2.3648191E1,2.6910795E1,1.0344588E1,8.804363E1,2.9475567E0,8.317173E0,2.2381378E1,1.6917868E0,2.6617483E1,2.2003944E0,1.7153952E0,2.4894543E0,2.706358E0,7.0501305E1,1.802131E2,3.6034523E1,6.1581306E0,3.1837175E1,2.6301874E1,2.2331784E0,2.1415014E1,1.6225506E1,1.068529E1,1.2378273E0,9.106761E0,8.530645E1,2.7371814E0,2.6943345E0,5.6228385E0,8.358654E0,1.4022725E1,1.617638E1,1.0441103E1,1.2430073E0,1.2464471E0,5.203142E0,6.5298164E1,3.9178913E1,1.4103418E2,1.5036095E1,2.0998428E1,1.2479285E0,4.910202E0,1.8338694E1,1.3498481E1,2.2562017E1,3.7398565E0,1.4137954E0,2.0001219E1,1.5006628E1,1.2188778E0,1.9914484E0,8.693842E0,8.267693E1,2.6295164E0,1.4930825E0,1.2440989E0,1.4701644E0,1.22417E0,2.4717124E0,5.8869414E0,4.61975E0,9.402975E0,4.2009645E0,1.1975415E1,3.1683614E0,7.2727413E0],"tree_param":{"num_deleted":"0","num_feature":"31","num_nodes":"87","size_leaf_vector":"1"}},{"base_weights":[-2.9718727E-3,4.0152776E-3,-1.184345E-1,5.8553115E-2,-1.3519582E-1,2.4657342E-1,7.249556E-3,-2.2045918E-1,1.4272667E-1,3.1160557E-1,-1.2981547E-1,9.191848E-1,-1.06015615E-2,-3.4477407E-1,1.4687568E-1,7.6490897E-1,-6.788315E-3,-3.3720937E-1,3.7564453E-1,-2.7912749E-2,1.2748694E-1,-2.1785001E-1,9.84301E-2,-8.9125976E-2,-6.307768E-1,1.0040103E0,-3.92211E-2,1.1308911E0,-6.0135093E-2,-3.9406753E-1,2.979408E-1,-8.691797E-2,3.0113066E-2,5.730048E-2,1.732181E-2,-7.934388E-2,-1.2570279E-2,5.981045E-2,3.1947203E-3,1.7173663E-2,-6.2066536E-2,-9.766093E-2,-7.3440396E-3,1.4360033E-1,-3.0389136E-2,-6.8096615E-2,1.6294207E-2,2.1557478E-2,1.3175608E-1,6.2129375E-2,-6.0587894E-2,-5.3781714E-2,5.46758E-2],"categories":[],"categories_nodes":[],"categories_segments":[],"categories_sizes":[],"default_left":[0,0,0,0,0,0,0,0,0,0,0,0,0,0,0,0,0,0,0,0,0,0,0,0,0,0,0,0,0,0,0,0,0,0,0,0,0,0,0,0,0,0,0,0,0,0,0,0,0,0,0,0,0],"id":9,"left_children":[1,3,-1,5,7,9,11,13,15,17,-1,19,21,23,25,27,29,31,33,-1,-1,35,37,39,41,43,45,47,-1,49,51,-1,-1,-1,-1,-1,-1,-1,-1,-1,-1,-1,-1,-1,-1,-1,-1,-1,-1,-1,-1,-1,-1],"loss_changes":[4.7113757E0,4.319091E0,0E0,3.9405403E0,3.8262646E0,9.202677E0,5.253471E0,5.664651E0,3.559006E0,3.6521244E0,0E0,2.996605E0,7.182748E0,6.68157E0,5.1096563E0,4.3854957E0,3.8693578E0,3.0290902E0,3.004942E0,0E0,0E0,5.71137E0,6.9024324E0,7.01494E0,8.279779E0,3.661346E0,3.624078E0,7.7393866E-1,0E0,3.47989E0,4.1123962E0,0E0,0E0,0E0,0E0,0E0,0E0,0E0,0E0,0E0,0E0,0E0,0E0,0E0,0E0,0E0,0E0,0E0,0E0,0E0,0E0,0E0,0E0],"parents":[2147483647,0,0,1,1,3,3,4,4,5,5,6,6,7,7,8,8,9,9,11,11,12,12,13,13,14,14,15,15,16,16,17,17,18,18,21,21,22,22,23,23,24,24,25,25,26,26,27,27,29,29,30,30],"right_children":[2,4,-1,6,8,10,12,14,16,18,-1,20,22,24,26,28,30,32,34,-1,-1,36,38,40,42,44,46,48,-1,50,52,-1,-1,-1,-1,-1,-1,-1,-1,-1,-1,-1,-1,-1,-1,-1,-1,-1,-1,-1,-1,-1,-1],"split_conditions":[2.0792756E0,1.5976728E-1,-1.184345E-1,-5.14706E-1,1.5508426E0,1.927781E0,-1.3830698E0,1.337657E0,8.079975E-1,-7.6884794E-1,-1.2981547E-1,-3.0990183E-1,4.2113863E-2,-4.7693664E-1,-5.633385E-1,1.5313901E0,3.9641106E-1,-2.0725554E-1,3.0069777E-1,-2.7912749E-2,1.2748694E-1,-1.0793542E0,-3.2023084E-1,7.75243E-1,6.980392E-1,1.1434696E0,3.5599807E-1,-1.4572928E0,-6.0135093E-2,-3.982891E-1,2.1574554E0,-8.691797E-2,3.0113066E-2,5.730048E-2,1.732181E-2,-7.934388E-2,-1.2570279E-2,5.981045E-2,3.1947203E-3,1.7173663E-2,-6.2066536E-2,-9.766093E-2,-7.3440396E-3,1.4360033E-1,-3.0389136E-2,-6.8096615E-2,1.6294207E-2,2.1557478E-2,1.3175608E-1,6.2129375E-2,-6.0587894E-2,-5.3781714E-2,5.46758E-2],"split_indices":[0,20,0,15,20,7,13,8,22,4,0,22,24,1,16,13,4,28,16,0,0,3,13,20,16,2,16,13,0,4,20,0,0,0,0,0,0,0,0,0,0,0,0,0,0,0,0,0,0,0,0,0,0],"split_type":[0,0,0,0,0,0,0,0,0,0,0,0,0,0,0,0,0,0,0,0,0,0,0,0,0,0,0,0,0,0,0,0,0,0,0,0,0,0,0,0,0,0,0,0,0,0,0,0,0,0,0,0,0],"sum_hessian":[5.691931E2,5.6683716E2,2.3559184E0,4.076961E2,1.5914108E2,8.658138E1,3.2111472E2,1.2193854E2,3.7202545E1,8.384964E1,2.731744E0,5.195734E0,3.1591898E2,9.1151955E1,3.0786585E1,6.410473E0,3.0792072E1,7.1493917E0,7.670025E1,1.2384837E0,3.9572506E0,1.0856311E2,2.0735587E2,4.8822666E1,4.2329285E1,4.707844E0,2.6078741E1,5.1919656E0,1.2185073E0,1.3430333E1,1.7361738E1,3.702354E0,3.4470377E0,3.7909164E1,3.879109E1,1.3931402E1,9.4631714E1,2.3410452E1,1.8394542E2,3.320407E1,1.5618593E1,2.5656754E1,1.6672533E1,3.465322E0,1.2425216E0,5.6799517E0,2.039879E1,1.2445054E0,3.94746E0,1.984412E0,1.1445922E1,3.7165701E0,1.3645168E1],"tree_param":{"num_deleted":"0","num_feature":"31","num_nodes":"53","size_leaf_vector":"1"}},{"base_weights":[-4.7947526E-2,-3.7551057E-2,-8.044606E-1,-9.680283E-3,-3.355811E-1,-2.6607962E-2,-1.290939E-1,-3.7511144E-2,2.9608914E-1,4.5705456E-1,-4.6257132E-1,-7.527199E-2,7.106971E-2,6.445347E-1,-5.0079737E-2,1.0970867E0,1.6313706E-1,1.0212027E0,-3.3346048E-1,-6.7003685E-1,2.8308743E-1,-1.1046564E-1,1.0103601E0,-2.1632005E-2,-3.2707E-1,3.0198393E-3,1.443895E-1,6.787797E-1,-4.001766E-2,1.2384061E-1,2.4508009E-2,-1.0258651E-1,4.2264476E-2,1.622277E-1,-7.9434705E-1,6.597436E-1,-8.2472004E-2,-6.706446E-2,5.599561E-2,1.1750169E-1,3.095815E-2,1.4867929E-3,-3.3170704E-2,-5.5236377E-2,1.7496897E-2,1.0734459E-1,-4.6958786E-2,-8.503988E-2,1.2649286E-2,1.0005044E-1,-4.389314E-2,-9.360393E-2,-3.999394E-4,-9.923308E-3,1.0246384E-1],"categories":[],"categories_nodes":[],"categories_segments":[],"categories_sizes":[],"default_left":[0,0,0,0,0,0,0,0,0,0,0,0,0,0,0,0,0,0,0,0,0,0,0,0,0,0,0,0,0,0,0,0,0,0,0,0,0,0,0,0,0,0,0,0,0,0,0,0,0,0,0,0,0,0,0],"id":10,"left_children":[1,3,5,7,9,11,-1,13,15,17,19,-1,-1,21,23,25,27,29,31,33,35,37,39,41,43,-1,-1,45,47,-1,-1,-1,-1,49,51,53,-1,-1,-1,-1,-1,-1,-1,-1,-1,-1,-1,-1,-1,-1,-1,-1,-1,-1,-1],"loss_changes":[4.4305496E0,4.652624E0,2.8565598E0,4.381886E0,5.0334563E0,2.6553068E0,0E0,4.0754685E0,4.396149E0,3.5150356E0,6.6541224E0,0E0,0E0,2.488676E0,3.6495051E0,2.1546202E0,4.0099745E0,4.3822956E-1,2.3801823E0,3.5418272E0,4.6327763E0,1.7690213E0,3.1655312E-1,4.779861E0,4.97712E0,0E0,0E0,5.399493E0,3.915328E0,0E0,0E0,0E0,0E0,3.0179965E0,3.2294292E0,2.280722E0,0E0,0E0,0E0,0E0,0E0,0E0,0E0,0E0,0E0,0E0,0E0,0E0,0E0,0E0,0E0,0E0,0E0,0E0,0E0],"parents":[2147483647,0,0,1,1,2,2,3,3,4,4,5,5,7,7,8,8,9,9,10,10,13,13,14,14,15,15,16,16,17,17,18,18,19,19,20,20,21,21,22,22,23,23,24,24,27,27,28,28,33,33,34,34,35,35],"right_children":[2,4,6,8,10,12,-1,14,16,18,20,-1,-1,22,24,26,28,30,32,34,36,38,40,42,44,-1,-1,46,48,-1,-1,-1,-1,50,52,54,-1,-1,-1,-1,-1,-1,-1,-1,-1,-1,-1,-1,-1,-1,-1,-1,-1,-1,-1],"split_conditions":[1.9775122E0,1.2906003E0,-1.1121634E0,1.0940765E0,8.3874345E-1,2.0010333E0,-1.290939E-1,-1.7682755E0,-9.6655494E-1,4.5660448E-1,1.5659508E0,-7.527199E-2,7.106971E-2,-1.8388809E0,8.1624556E-1,-4.901071E-1,1.2133143E0,7.669204E-1,1.4157083E0,-4.5853305E-1,1.4970468E0,-1.9606644E0,-1.2001171E0,1.0328176E0,1.6906828E-2,3.0198393E-3,1.443895E-1,3.4962824E-1,3.3906826E-1,1.2384061E-1,2.4508009E-2,-1.0258651E-1,4.2264476E-2,-2.3630653E-1,1.4767565E0,7.8933E-1,-8.2472004E-2,-6.706446E-2,5.599561E-2,1.1750169E-1,3.095815E-2,1.4867929E-3,-3.3170704E-2,-5.5236377E-2,1.7496897E-2,1.0734459E-1,-4.6958786E-2,-8.503988E-2,1.2649286E-2,1.0005044E-1,-4.389314E-2,-9.360393E-2,-3.999394E-4,-9.923308E-3,1.0246384E-1],"split_indices":[12,23,24,15,21,12,0,23,13,1,21,0,0,23,20,21,15,21,24,20,15,14,21,24,15,0,0,20,21,0,0,0,0,9,24,15,0,0,0,0,0,0,0,0,0,0,0,0,0,0,0,0,0,0,0],"split_type":[0,0,0,0,0,0,0,0,0,0,0,0,0,0,0,0,0,0,0,0,0,0,0,0,0,0,0,0,0,0,0,0,0,0,0,0,0,0,0,0,0,0,0,0,0,0,0,0,0,0,0,0,0,0,0],"sum_hessian":[5.661609E2,5.5952124E2,6.6396503E0,5.126156E2,4.6905617E1,2.960564E0,3.6790864E0,4.706544E2,4.196122E1,6.1182404E0,4.0787376E1,1.4810708E0,1.4794931E0,7.6063757E0,4.6304803E2,4.941056E0,3.7020164E1,3.4000134E0,2.7182267E0,3.1988575E1,8.798802E0,2.7104704E0,4.8959055E0,4.2089856E2,4.2149452E1,1.4788216E0,3.462234E0,9.801366E0,2.7218798E1,2.1911678E0,1.2088456E0,1.23265E0,1.4855767E0,4.117387E0,2.787119E1,6.868099E0,1.9307036E0,1.4764621E0,1.2340083E0,3.4164393E0,1.479466E0,3.7742294E2,4.3475624E1,2.9024326E1,1.3125128E1,7.3429966E0,2.4583693E0,3.9393601E0,2.3279436E1,1.4421341E0,2.6752527E0,2.3477789E1,4.393399E0,2.4662921E0,4.401807E0],"tree_param":{"num_deleted":"0","num_feature":"31","num_nodes":"55","size_leaf_vector":"1"}},{"base_weights":[2.1282225E-3,2.0073397E-2,-4.0519708E-1,5.214949E-2,-2.5870255E-1,7.6126164E-1,-5.72214E-1,6.7491376E-1,3.3613298E-2,-7.648234E-1,-9.97365E-2,1.060509E-1,1.0848678E-2,-7.218318E-1,2.244088E-1,1.1451904E0,2.4933995E-1,-2.4190824E-1,7.4518174E-2,7.396621E-2,-1.013347E0,1.6479625E-1,-6.408238E-1,-8.728572E-1,-1.19399816E-1,9.098183E-2,-6.398598E-2,4.8303348E-1,1.4348303E-1,-1.9038722E-1,5.801819E-1,-5.145509E-1,1.0072103E-1,3.691952E-1,2.5956878E-2,-1.3297997E0,-1.2515706E-1,-8.40583E-2,7.340218E-1,-1.0476809E0,-6.0541302E-2,-1.1577497E0,-3.822015E-1,-7.025673E-2,5.096094E-2,9.654223E-2,-2.0983769E-2,-6.739258E-2,2.0423919E-2,-4.5726965E-3,8.4499076E-2,-1.9079328E-2,-8.097025E-2,1.154381E-1,-1.7974576E-2,1.5507181E-2,8.0507E-2,-3.9709326E-2,7.247628E-3,-4.2483702E-2,-1.4593448E-1,-1.11948624E-1,8.2453184E-2,2.9646609E-2,-9.539443E-2,1.1649722E-1,1.6232949E-2,-1.3144174E-1,1.7445428E-2,-5.5481542E-2,7.088687E-2,-2.3754796E-2,-1.3068971E-1,3.131229E-2,-9.708065E-2],"categories":[],"categories_nodes":[],"categories_segments":[],"categories_sizes":[],"default_left":[0,0,0,0,0,0,0,0,0,0,0,0,0,0,0,0,0,0,0,0,0,0,0,0,0,0,0,0,0,0,0,0,0,0,0,0,0,0,0,0,0,0,0,0,0,0,0,0,0,0,0,0,0,0,0,0,0,0,0,0,0,0,0,0,0,0,0,0,0,0,0,0,0,0,0],"id":11,"left_children":[1,3,5,7,9,11,13,15,17,19,21,-1,-1,23,25,27,29,31,33,-1,35,37,39,41,43,-1,-1,45,-1,47,49,51,53,55,57,59,61,63,65,67,69,71,73,-1,-1,-1,-1,-1,-1,-1,-1,-1,-1,-1,-1,-1,-1,-1,-1,-1,-1,-1,-1,-1,-1,-1,-1,-1,-1,-1,-1,-1,-1,-1,-1],"loss_changes":[4.1639843E0,4.8915043E0,5.1187406E0,5.634365E0,4.4661145E0,5.5690634E-1,2.7362952E0,2.5388384E0,5.393269E0,5.7390094E0,6.419835E0,0E0,0E0,1.5717335E0,3.0570905E0,5.392914E-1,1.374177E0,5.833369E0,5.9440985E0,0E0,3.171134E0,4.371394E0,3.4046926E0,1.5941372E0,2.1373765E0,0E0,0E0,1.3599931E0,0E0,9.929731E-1,9.0119255E-1,3.154584E0,8.559281E0,5.3618536E0,7.0794654E0,3.942337E-1,4.911091E0,7.587099E0,2.1163158E0,3.0242949E0,3.0994267E0,8.870039E-1,3.1054232E0,0E0,0E0,0E0,0E0,0E0,0E0,0E0,0E0,0E0,0E0,0E0,0E0,0E0,0E0,0E0,0E0,0E0,0E0,0E0,0E0,0E0,0E0,0E0,0E0,0E0,0E0,0E0,0E0,0E0,0E0,0E0,0E0],"parents":[2147483647,0,0,1,1,2,2,3,3,4,4,5,5,6,6,7,7,8,8,9,9,10,10,13,13,14,14,15,15,16,16,17,17,18,18,20,20,21,21,22,22,23,23,24,24,27,27,29,29,30,30,31,31,32,32,33,33,34,34,35,35,36,36,37,37,38,38,39,39,40,40,41,41,42,42],"right_children":[2,4,6,8,10,12,14,16,18,20,22,-1,-1,24,26,28,30,32,34,-1,36,38,40,42,44,-1,-1,46,-1,48,50,52,54,56,58,60,62,64,66,68,70,72,74,-1,-1,-1,-1,-1,-1,-1,-1,-1,-1,-1,-1,-1,-1,-1,-1,-1,-1,-1,-1,-1,-1,-1,-1,-1,-1,-1,-1,-1,-1,-1,-1],"split_conditions":[1.3796432E0,1.2885927E0,-9.4444376E-1,-1.8208907E0,-1.5921811E0,8.843514E-1,5.712774E-1,1.0619402E0,-8.004154E-1,-9.249477E-1,5.955699E-1,1.060509E-1,1.0848678E-2,4.3519318E-1,7.557164E-1,-1.1570703E0,4.525759E-1,-2.7950072E-1,-4.2826763E-1,7.396621E-2,4.1013536E0,-8.447849E-2,1.0447596E0,1.4470669E0,-1.1863264E-1,9.098183E-2,-6.398598E-2,-1.8731562E0,1.4348303E-1,-2.0121348E0,-1.1253764E-1,-1.2798015E0,-8.8761044E-1,-2.3625033E-1,-2.7786884E-1,1.5003998E-2,1.0823281E-1,-6.140391E-1,3.0976936E-1,2.4544973E0,-3.5508174E-1,-9.8466206E-1,1.6631279E0,-7.025673E-2,5.096094E-2,9.654223E-2,-2.0983769E-2,-6.739258E-2,2.0423919E-2,-4.5726965E-3,8.4499076E-2,-1.9079328E-2,-8.097025E-2,1.154381E-1,-1.7974576E-2,1.5507181E-2,8.0507E-2,-3.9709326E-2,7.247628E-3,-4.2483702E-2,-1.4593448E-1,-1.11948624E-1,8.2453184E-2,2.9646609E-2,-9.539443E-2,1.1649722E-1,1.6232949E-2,-1.3144174E-1,1.7445428E-2,-5.5481542E-2,7.088687E-2,-2.3754796E-2,-1.3068971E-1,3.131229E-2,-9.708065E-2],"split_indices":[23,4,4,13,13,21,22,22,16,3,24,0,0,5,20,0,4,23,16,0,4,21,15,21,20,0,0,0,0,15,7,13,0,4,16,20,10,21,15,4,26,22,21,0,0,0,0,0,0,0,0,0,0,0,0,0,0,0,0,0,0,0,0,0,0,0,0,0,0,0,0,0,0,0,0],"split_type":[0,0,0,0,0,0,0,0,0,0,0,0,0,0,0,0,0,0,0,0,0,0,0,0,0,0,0,0,0,0,0,0,0,0,0,0,0,0,0,0,0,0,0,0,0,0,0,0,0,0,0,0,0,0,0,0,0,0,0,0,0,0,0,0,0,0,0,0,0,0,0,0,0,0,0],"sum_hessian":[5.6755286E2,5.4451434E2,2.3038475E1,4.8905624E2,5.545811E1,2.4399178E0,2.0598557E1,1.31122055E1,4.7594406E2,1.2344402E1,4.311371E1,1.2447008E0,1.195217E0,1.7420591E1,3.177965E0,5.425677E0,7.6865287E0,6.0890713E1,4.1505334E2,1.4698939E0,1.0874508E1,2.942401E1,1.36897E1,1.356984E1,3.850751E0,1.7429849E0,1.43498E0,2.4628847E0,2.962792E0,3.482466E0,4.2040625E0,3.3629063E1,2.726165E1,5.7787533E1,3.572658E2,7.651248E0,3.2232604E0,2.1066475E1,8.357533E0,7.573899E0,6.1158013E0,7.7248926E0,5.8449483E0,1.9375063E0,1.9132447E0,1.2200795E0,1.2428051E0,1.2468884E0,2.2355776E0,1.4958217E0,2.708241E0,1.6822525E1,1.6806538E1,5.076034E0,2.2185616E1,3.966023E1,1.8127302E1,3.464709E1,3.226187E2,1.4940089E0,6.157239E0,1.4872789E0,1.7359815E0,1.51141205E1,5.9523554E0,4.173628E0,4.1839056E0,6.1550274E0,1.4188714E0,3.8934996E0,2.222302E0,1.4390463E0,6.285846E0,2.8941216E0,2.9508266E0],"tree_param":{"num_deleted":"0","num_feature":"31","num_nodes":"75","size_leaf_vector":"1"}},{"base_weights":[-9.01134E-3,8.4682513E-4,-6.653736E-1,-5.3452197E-3,1.0019701E-1,-9.060947E-1,8.104716E-3,4.119232E-1,-1.9397296E-2,-1.1304188E-2,-1.0621002E0,-2.3251802E-1,1.0024201E0,2.636365E-2,-1.4853075E-1,-2.2744136E-2,-1.3086735E-1,4.3688726E-1,-6.298111E-1,7.098138E-3,1.1923795E0,1.6688548E-2,1.0626525E-1,5.108697E-1,-2.085596E-1,-2.1823198E-2,9.9485494E-2,-1.1293735E-1,-3.0097354E-3,1.3733146E-1,1.08493E-2,-3.7143864E-2,3.605047E-3,-4.1536923E-2,7.901102E-2,-1.3266975E-2,-7.058563E-2],"categories":[],"categories_nodes":[],"categories_segments":[],"categories_sizes":[],"default_left":[0,0,0,0,0,0,0,0,0,0,0,0,0,0,0,0,0,0,0,0,0,0,0,0,0,0,0,0,0,0,0,0,0,0,0,0,0],"id":12,"left_children":[1,3,5,7,-1,9,-1,11,13,-1,15,17,19,21,23,-1,-1,25,27,-1,29,31,-1,33,35,-1,-1,-1,-1,-1,-1,-1,-1,-1,-1,-1,-1],"loss_changes":[3.6873195E0,3.491328E0,1.5885532E0,3.2908525E0,0E0,6.78946E-1,0E0,7.191448E0,3.2102664E0,0E0,7.884803E-1,2.8163333E0,1.6370173E0,4.0075464E0,5.7321143E0,0E0,0E0,1.7338009E0,1.8851674E0,0E0,1.4235992E0,3.010166E0,0E0,3.4702852E0,4.8492155E0,0E0,0E0,0E0,0E0,0E0,0E0,0E0,0E0,0E0,0E0,0E0,0E0],"parents":[2147483647,0,0,1,1,2,2,3,3,5,5,7,7,8,8,10,10,11,11,12,12,13,13,14,14,17,17,18,18,20,20,21,21,23,23,24,24],"right_children":[2,4,6,8,-1,10,-1,12,14,-1,16,18,20,22,24,-1,-1,26,28,-1,30,32,-1,34,36,-1,-1,-1,-1,-1,-1,-1,-1,-1,-1,-1,-1],"split_conditions":[1.4807004E0,2.0582473E0,1.337657E0,-1.0386974E0,1.0019701E-1,9.583168E-1,8.104716E-3,-1.1129383E0,7.5795406E-1,-1.1304188E-2,-1.0016334E0,-3.7212643E-1,-4.698919E-1,7.5124246E-1,-1.0287758E0,-2.2744136E-2,-1.3086735E-1,-6.3263077E-1,-1.7008214E-1,7.098138E-3,1.1381449E0,-1.101028E0,1.0626525E-1,-3.8538122E-1,1.241257E0,-2.1823198E-2,9.9485494E-2,-1.1293735E-1,-3.0097354E-3,1.3733146E-1,1.08493E-2,-3.7143864E-2,3.605047E-3,-4.1536923E-2,7.901102E-2,-1.3266975E-2,-7.058563E-2],"split_indices":[23,21,8,4,0,21,0,4,21,0,22,14,21,21,22,0,0,27,25,0,24,22,0,0,28,0,0,0,0,0,0,0,0,0,0,0,0],"split_type":[0,0,0,0,0,0,0,0,0,0,0,0,0,0,0,0,0,0,0,0,0,0,0,0,0,0,0,0,0,0,0,0,0,0,0,0,0],"sum_hessian":[5.687767E2,5.6134436E2,7.4323435E0,5.5888226E2,2.4620805E0,5.4581637E0,1.9741796E0,1.7285486E1,5.4159674E2,1.1806974E0,4.2774663E0,8.555088E0,8.730398E0,4.0047614E2,1.4112064E2,1.4138724E0,2.863594E0,3.1492343E0,5.4058537E0,1.7115797E0,7.018819E0,3.9777844E2,2.6976743E0,1.1148374E1,1.2997226E2,1.7285708E0,1.4206636E0,2.4673553E0,2.9384985E0,5.785935E0,1.232884E0,1.8036503E1,3.7974194E2,2.4695148E0,8.678859E0,1.1386301E2,1.6109257E1],"tree_param":{"num_deleted":"0","num_feature":"31","num_nodes":"37","size_leaf_vector":"1"}},{"base_weights":[3.7903672E-3,1.772463E-2,-7.470558E-1,8.1725085E-1,7.865944E-3,-3.9490446E-1,-1.2896317E-1,-1.1094003E-2,1.040135E0,-9.100358E-3,4.8183382E-1,5.327369E-2,-6.4891654E-1,1.2076268E-1,2.3356106E-2,1.0379726E-3,-8.2235473E-1,7.775262E-1,-3.846157E-1,-1.2033458E-1,-1.0524172E-1,-1.085097E-2,7.4404895E-1,3.5597317E-2,-1.2251004E0,9.6160495E-1,-1.3560595E-1,-1.1475134E-1,2.420673E-1,3.943501E-2,-4.947209E-2,2.131969E-2,-4.7787717E-3,1.237209E-1,-3.1318903E-2,-1.4718561E-1,-4.5286935E-2,1.0550516E-1,2.9986281E-2,2.9445065E-2,-5.0313484E-2,7.50153E-2,-4.9398504E-2],"categories":[],"categories_nodes":[],"categories_segments":[],"categories_sizes":[],"default_left":[0,0,0,0,0,0,0,0,0,0,0,0,0,0,0,0,0,0,0,0,0,0,0,0,0,0,0,0,0,0,0,0,0,0,0,0,0,0,0,0,0,0,0],"id":13,"left_children":[1,3,5,7,9,11,-1,-1,13,15,17,-1,19,-1,-1,21,23,25,27,-1,29,31,33,-1,35,37,39,-1,41,-1,-1,-1,-1,-1,-1,-1,-1,-1,-1,-1,-1,-1,-1],"loss_changes":[6.011849E0,4.4381895E0,1.4911103E0,1.5342803E0,4.4916625E0,2.1813266E0,0E0,0E0,4.7810745E-1,4.450811E0,5.2445626E0,0E0,1.8526769E0,0E0,0E0,4.72581E0,3.5903935E0,2.6051044E0,2.9457788E0,0E0,1.0534308E0,4.3684583E0,4.7803793E0,0E0,3.202591E-1,4.48946E-1,6.770781E-1,0E0,1.825172E0,0E0,0E0,0E0,0E0,0E0,0E0,0E0,0E0,0E0,0E0,0E0,0E0,0E0,0E0],"parents":[2147483647,0,0,1,1,2,2,3,3,4,4,5,5,8,8,9,9,10,10,12,12,15,15,16,16,17,17,18,18,20,20,21,21,22,22,24,24,25,25,26,26,28,28],"right_children":[2,4,6,8,10,12,-1,-1,14,16,18,-1,20,-1,-1,22,24,26,28,-1,30,32,34,-1,36,38,40,-1,42,-1,-1,-1,-1,-1,-1,-1,-1,-1,-1,-1,-1,-1,-1],"split_conditions":[1.9432476E0,-1.2432522E0,-8.2366985E-1,-2.2271644E-1,1.5173675E0,-5.679548E-1,-1.2896317E-1,-1.1094003E-2,4.0865728E-1,1.4659995E0,2.0033476E0,5.327369E-2,-1.0016334E0,1.2076268E-1,2.3356106E-2,1.4439249E0,1.26396E0,7.075095E-1,2.0222757E0,-1.2033458E-1,2.0383952E0,-1.2889227E0,1.4532481E0,3.5597317E-2,9.492854E-2,1.2638122E0,1.4488109E0,-1.1475134E-1,2.0525317E0,3.943501E-2,-4.947209E-2,2.131969E-2,-4.7787717E-3,1.237209E-1,-3.1318903E-2,-1.4718561E-1,-4.5286935E-2,1.0550516E-1,2.9986281E-2,2.9445065E-2,-5.0313484E-2,7.50153E-2,-4.9398504E-2],"split_indices":[12,22,22,14,2,15,0,0,16,18,9,0,22,0,0,17,2,15,9,0,11,23,10,0,4,14,12,0,1,0,0,0,0,0,0,0,0,0,0,0,0,0,0],"split_type":[0,0,0,0,0,0,0,0,0,0,0,0,0,0,0,0,0,0,0,0,0,0,0,0,0,0,0,0,0,0,0,0,0,0,0,0,0,0,0,0,0,0,0],"sum_hessian":[5.7234424E2,5.6287476E2,9.4694805E0,5.8585396E0,5.5701624E2,6.790217E0,2.6792636E0,1.2316482E0,4.626891E0,5.387131E2,1.8303143E1,1.2237701E0,5.566447E0,3.419561E0,1.2073305E0,5.330664E2,5.6466794E0,1.3722655E1,4.5804873E0,2.155229E0,3.4112177E0,5.25641E2,7.4254026E0,1.467957E0,4.1787224E0,1.1376231E1,2.3464243E0,1.6909297E0,2.8895578E0,1.4888883E0,1.9223294E0,7.371779E1,4.5192322E2,4.947405E0,2.4779978E0,2.4802227E0,1.6984999E0,9.447733E0,1.9284977E0,1.1728611E0,1.1735631E0,1.6981758E0,1.1913819E0],"tree_param":{"num_deleted":"0","num_feature":"31","num_nodes":"43","size_leaf_vector":"1"}},{"base_weights":[1.9455446E-2,4.708315E-2,-2.831861E-1,1.1720749E-1,3.970685E-2,-4.627974E-1,3.02664E-1,1.8150741E-2,4.1976324E-1,4.6482986E-1,-6.426175E-1,6.349325E-1,-6.469896E-1,3.7221476E-2,-5.978523E-1,-2.608954E-1,6.777709E-1,1.1451067E-1,-6.597231E-2,-6.4866364E-2,-7.945127E-1,9.3688226E-1,-4.463172E-2,-9.586874E-2,-1.2604882E-4,9.263203E-2,-1.1013876E-1,-9.7859395E-1,-7.109727E-2,5.5911696E-1,-6.922119E-1,1.874605E-1,1.0837104E0,-6.8464205E-2,4.3156363E-2,8.093038E-2,-4.428215E-1,-1.1951188E0,-3.8736537E-1,8.315111E-3,1.0850344E0,1.0675782E-2,-1.161564E-1,1.02861956E-1,-1.4160126E-2,-2.708416E-2,-1.5059163E-1,-7.9624206E-2,4.4581957E-2,1.03890575E-1,-1.752715E-2,-1.04220115E-1,6.442839E-4,5.6833286E-2,-5.3794235E-2,1.232083E-1,-9.001736E-3,-1.162224E-1,1.1654474E-2,-5.188526E-3,-1.4086907E-1,-5.4809537E-2,6.869348E-2,1.2384772E-1,2.4750136E-2],"categories":[],"categories_nodes":[],"categories_segments":[],"categories_sizes":[],"default_left":[0,0,0,0,0,0,0,0,0,0,0,0,0,0,0,0,0,0,0,0,0,0,0,0,0,0,0,0,0,0,0,0,0,0,0,0,0,0,0,0,0,0,0,0,0,0,0,0,0,0,0,0,0,0,0,0,0,0,0,0,0,0,0,0,0],"id":14,"left_children":[1,3,5,-1,7,9,11,13,15,17,19,21,23,25,27,29,31,-1,33,35,37,39,-1,-1,-1,41,43,45,47,49,51,53,55,-1,-1,-1,57,59,61,-1,63,-1,-1,-1,-1,-1,-1,-1,-1,-1,-1,-1,-1,-1,-1,-1,-1,-1,-1,-1,-1,-1,-1,-1,-1],"loss_changes":[4.78423E0,4.299431E0,5.177614E0,0E0,4.2635026E0,6.4765253E0,4.1461377E0,5.8303475E0,5.0830426E0,2.4565609E0,2.7077389E0,3.4460483E0,7.16053E-1,3.9336386E0,2.9197745E0,3.3583624E0,3.884304E0,0E0,1.7266026E0,2.8807564E0,3.583314E0,8.675523E-1,0E0,0E0,0E0,6.320153E0,4.866437E0,2.7918282E0,3.1032457E0,1.397323E0,1.462146E0,3.2096775E0,2.031003E0,0E0,0E0,0E0,2.5403643E0,2.862894E0,2.7564335E0,0E0,5.120621E-1,0E0,0E0,0E0,0E0,0E0,0E0,0E0,0E0,0E0,0E0,0E0,0E0,0E0,0E0,0E0,0E0,0E0,0E0,0E0,0E0,0E0,0E0,0E0,0E0],"parents":[2147483647,0,0,1,1,2,2,4,4,5,5,6,6,7,7,8,8,9,9,10,10,11,11,12,12,13,13,14,14,15,15,16,16,18,18,19,19,20,20,21,21,25,25,26,26,27,27,28,28,29,29,30,30,31,31,32,32,36,36,37,37,38,38,40,40],"right_children":[2,4,6,-1,8,10,12,14,16,18,20,22,24,26,28,30,32,-1,34,36,38,40,-1,-1,-1,42,44,46,48,50,52,54,56,-1,-1,-1,58,60,62,-1,64,-1,-1,-1,-1,-1,-1,-1,-1,-1,-1,-1,-1,-1,-1,-1,-1,-1,-1,-1,-1,-1,-1,-1,-1],"split_conditions":[1.2906003E0,-2.109654E0,1.5297432E0,1.1720749E-1,1.2002279E0,8.3874345E-1,1.4970468E0,1.3466581E0,-5.5793005E-1,-3.1620327E-1,8.4167755E-1,9.9051386E-1,4.7904438E-1,1.6658713E-1,-1.3554096E-1,-1.3339868E0,-3.836764E-2,1.1451067E-1,6.8407285E-1,8.586535E-1,1.3842757E0,4.0842873E-1,-4.463172E-2,-9.586874E-2,-1.2604882E-4,3.4757605E0,-1.7682755E0,-4.6220082E-1,2.9507297E-1,1.3012943E0,-7.008407E-1,1.2309272E0,1.4135513E0,-6.8464205E-2,4.3156363E-2,8.093038E-2,9.8027974E-1,-4.6244225E-1,8.308816E-1,8.315111E-3,5.0680405E-1,1.0675782E-2,-1.161564E-1,1.02861956E-1,-1.4160126E-2,-2.708416E-2,-1.5059163E-1,-7.9624206E-2,4.4581957E-2,1.03890575E-1,-1.752715E-2,-1.04220115E-1,6.442839E-4,5.6833286E-2,-5.3794235E-2,1.232083E-1,-9.001736E-3,-1.162224E-1,1.1654474E-2,-5.188526E-3,-1.4086907E-1,-5.4809537E-2,6.869348E-2,1.2384772E-1,2.4750136E-2],"split_indices":[23,0,21,0,23,21,15,13,28,10,13,14,4,4,4,12,8,0,21,15,13,15,0,0,0,20,23,4,15,13,12,24,0,0,0,0,21,20,4,0,4,0,0,0,0,0,0,0,0,0,0,0,0,0,0,0,0,0,0,0,0,0,0,0,0],"split_type":[0,0,0,0,0,0,0,0,0,0,0,0,0,0,0,0,0,0,0,0,0,0,0,0,0,0,0,0,0,0,0,0,0,0,0,0,0,0,0,0,0,0,0,0,0,0,0,0,0,0,0,0,0,0,0,0,0,0,0,0,0,0,0,0,0],"sum_hessian":[5.6959326E2,5.227194E2,4.6873867E1,2.3764691E0,5.203429E2,3.603593E1,1.0837938E1,4.934056E2,2.6937313E1,5.593923E0,3.0442005E1,8.2743E0,2.5636382E0,4.7950043E2,1.3905199E1,7.401081E0,1.9536232E1,1.9445157E0,3.6494076E0,6.634386E0,2.380762E1,6.5724087E0,1.7018911E0,1.4021515E0,1.1614866E0,3.487387E2,1.307617E2,7.5733547E0,6.3318443E0,2.4489229E0,4.9521585E0,9.51066E0,1.0025573E1,1.459055E0,2.1903527E0,1.658102E0,4.976284E0,1.1024698E1,1.2782921E1,1.2027546E0,5.369654E0,3.4575937E2,2.9793465E0,2.6635437E0,1.2809816E2,3.8797355E0,3.6936193E0,2.4102764E0,3.9215682E0,1.2304163E0,1.2185066E0,2.971745E0,1.9804132E0,6.378277E0,3.132383E0,8.856315E0,1.1692576E0,1.7053182E0,3.2709658E0,1.9310238E0,9.093675E0,1.1545385E1,1.2375352E0,4.1336207E0,1.2360334E0],"tree_param":{"num_deleted":"0","num_feature":"31","num_nodes":"65","size_leaf_vector":"1"}},{"base_weights":[-8.925807E-3,3.5786198E-3,-6.373687E-1,9.129305E-2,-9.47334E-2,3.8903683E-2,-8.651806E-1,3.7022722E-1,3.9638195E-2,-4.002571E-1,-3.6801767E-2,4.96453E-3,-1.0001993E0,-8.841381E-2,4.3826512E-1,1.7880626E-3,5.2977854E-1,-6.38958E-1,4.1124675E-2,-5.1693946E-1,2.090947E-3,-1.25395255E-2,-1.1245334E0,6.1002433E-1,-2.0213723E-1,-2.3999994E-1,7.338376E-2,1.3958882E-1,7.32687E-2,-8.3981305E-1,4.6737343E-2,7.4121416E-1,-2.9755062E-1,2.2277378E-1,-8.638622E-1,-1.2310637E-1,1.5520121E-1,-1.8827347E-2,-1.2848982E0,4.796697E-2,1.4193502E-1,2.4317505E-2,-8.930596E-2,-3.3377416E-3,-7.6550685E-2,4.0945534E-2,-2.335646E-3,5.1637303E-2,-8.287682E-2,1.4250979E-3,-1.1160965E-1,1.2458723E-1,-5.6391504E-2,6.4767897E-3,1.1945871E-1,-8.898494E-2,7.224973E-3,-1.2893899E-2,7.92061E-2,-1.0233102E-1,-1.9395323E-2,-5.908709E-3,-1.1512431E-1,9.8755755E-2,9.326606E-3,-1.4149983E-1,-3.9273433E-2],"categories":[],"categories_nodes":[],"categories_segments":[],"categories_sizes":[],"default_left":[0,0,0,0,0,0,0,0,0,0,0,0,0,0,0,0,0,0,0,0,0,0,0,0,0,0,0,0,0,0,0,0,0,0,0,0,0,0,0,0,0,0,0,0,0,0,0,0,0,0,0,0,0,0,0,0,0,0,0,0,0,0,0,0,0,0,0],"id":15,"left_children":[1,3,5,7,9,-1,11,13,15,17,19,-1,21,-1,23,25,27,29,31,33,35,-1,37,39,41,43,45,-1,47,49,51,53,55,57,59,61,63,-1,65,-1,-1,-1,-1,-1,-1,-1,-1,-1,-1,-1,-1,-1,-1,-1,-1,-1,-1,-1,-1,-1,-1,-1,-1,-1,-1,-1,-1],"loss_changes":[4.4841056E0,4.839438E0,2.9396229E0,4.258312E0,4.6691265E0,0E0,1.2132545E0,4.331981E0,4.6619864E0,4.4596295E0,4.1756873E0,0E0,7.569971E-1,0E0,5.0190945E0,4.074108E0,7.020581E0,3.808813E0,3.9451296E0,4.4923368E0,4.002382E0,0E0,8.245945E-1,3.0480633E0,3.3444185E0,5.812818E0,5.9124207E0,0E0,5.5649834E0,5.023513E0,5.9368725E0,1.5811856E0,2.5394974E0,1.3324034E0,1.0417833E0,7.4932556E0,4.7497044E0,0E0,1.2826824E-1,0E0,0E0,0E0,0E0,0E0,0E0,0E0,0E0,0E0,0E0,0E0,0E0,0E0,0E0,0E0,0E0,0E0,0E0,0E0,0E0,0E0,0E0,0E0,0E0,0E0,0E0,0E0,0E0],"parents":[2147483647,0,0,1,1,2,2,3,3,4,4,6,6,7,7,8,8,9,9,10,10,12,12,14,14,15,15,16,16,17,17,18,18,19,19,20,20,22,22,23,23,24,24,25,25,26,26,28,28,29,29,30,30,31,31,32,32,33,33,34,34,35,35,36,36,38,38],"right_children":[2,4,6,8,10,-1,12,14,16,18,20,-1,22,-1,24,26,28,30,32,34,36,-1,38,40,42,44,46,-1,48,50,52,54,56,58,60,62,64,-1,66,-1,-1,-1,-1,-1,-1,-1,-1,-1,-1,-1,-1,-1,-1,-1,-1,-1,-1,-1,-1,-1,-1,-1,-1,-1,-1,-1,-1],"split_conditions":[1.9760106E0,-1.3207388E-1,-1.115785E0,-4.5627815E-1,6.688119E-2,3.8903683E-2,-1.2111708E0,-1.9082448E0,4.7904438E-1,-1.49098E-1,-1.2111708E0,4.96453E-3,1.7604222E0,-8.841381E-2,-2.0779994E-1,1.1230233E-2,-5.7759114E-2,1.1237837E0,1.2914391E-1,-7.942706E-1,-5.314086E-2,-1.25395255E-2,-8.278386E-1,-2.2952074E-1,-5.025235E-1,-1.23774245E-1,-5.314086E-2,1.3958882E-1,1.0924249E0,-9.4583094E-2,-8.068458E-1,-5.162137E-2,5.958931E-1,-1.53267E0,9.754899E-1,-1.8823737E-1,-1.5132722E-1,-1.8827347E-2,2.0816631E0,4.796697E-2,1.4193502E-1,2.4317505E-2,-8.930596E-2,-3.3377416E-3,-7.6550685E-2,4.0945534E-2,-2.335646E-3,5.1637303E-2,-8.287682E-2,1.4250979E-3,-1.1160965E-1,1.2458723E-1,-5.6391504E-2,6.4767897E-3,1.1945871E-1,-8.898494E-2,7.224973E-3,-1.2893899E-2,7.92061E-2,-1.0233102E-1,-1.9395323E-2,-5.908709E-3,-1.1512431E-1,9.8755755E-2,9.326606E-3,-1.4149983E-1,-3.9273433E-2],"split_indices":[25,22,23,16,22,0,7,21,4,4,7,0,12,0,13,14,17,19,4,1,24,0,24,22,22,16,24,0,21,22,21,16,4,11,4,24,23,0,25,0,0,0,0,0,0,0,0,0,0,0,0,0,0,0,0,0,0,0,0,0,0,0,0,0,0,0,0],"split_type":[0,0,0,0,0,0,0,0,0,0,0,0,0,0,0,0,0,0,0,0,0,0,0,0,0,0,0,0,0,0,0,0,0,0,0,0,0,0,0,0,0,0,0,0,0,0,0,0,0,0,0,0,0,0,0,0,0,0,0,0,0,0,0,0,0,0,0],"sum_hessian":[5.693288E2,5.5919653E2,1.0132293E1,2.955642E2,2.6363232E2,1.7118502E0,8.420443E0,4.5218544E1,2.5034566E2,4.1078846E1,2.2255348E2,1.1642585E0,7.2561846E0,1.7093693E0,4.3509174E1,2.3333078E2,1.7014868E1,2.6370144E1,1.4708703E1,1.5755651E1,2.0679784E2,1.152914E0,6.1032705E0,3.4345085E1,9.164091E0,5.2769424E1,1.8056136E2,5.16254E0,1.1852328E1,2.022194E1,6.148206E0,4.4080577E0,1.0300645E1,5.1444483E0,1.0611203E1,1.1387715E2,9.2920685E1,1.2104301E0,4.8928404E0,3.0952394E1,3.3926902E0,5.966569E0,3.197522E0,3.8640137E1,1.4129286E1,3.9635777E1,1.4092558E2,8.23475E0,3.6175787E0,5.1745315E0,1.5047407E1,1.7235159E0,4.4246907E0,2.227467E0,2.1805909E0,3.418705E0,6.88194E0,3.6579988E0,1.4864494E0,8.145033E0,2.4661705E0,1.0819746E2,5.679692E0,5.400291E0,8.752039E1,3.758697E0,1.1341432E0],"tree_param":{"num_deleted":"0","num_feature":"31","num_nodes":"67","size_leaf_vector":"1"}},{"base_weights":[-1.5653733E-2,7.489337E-1,-2.6602462E-2,-1.9138088E-2,9.5146924E-1,1.02037154E-1,-8.442602E-2,1.2456739E-1,-8.758389E-3,7.622453E-2,9.727039E-2,-9.38594E-1,-6.685543E-2,9.983611E-2,-1.0015254E0,-1.8684072E-2,-1.1264279E0,1.0176529E0,-8.278945E-2,4.491665E-2,5.094924E-1,-1.2506102E-1,-2.6946498E-2,-1.3174681E-1,-3.2751713E-2,1.9906497E-2,1.3290606E-1,-3.092355E-1,-2.8327607E-2,9.149211E-3,-6.5539576E-2,1.0709751E-1,-9.77753E-3,3.600792E-2,-4.6378385E-2,-2.448705E-2,5.519391E-3],"categories":[],"categories_nodes":[],"categories_segments":[],"categories_sizes":[],"default_left":[0,0,0,0,0,0,0,0,0,0,0,0,0,0,0,0,0,0,0,0,0,0,0,0,0,0,0,0,0,0,0,0,0,0,0,0,0],"id":16,"left_children":[1,3,5,-1,7,9,11,-1,-1,13,-1,15,17,19,21,-1,23,25,27,29,31,-1,-1,-1,-1,-1,-1,33,35,-1,-1,-1,-1,-1,-1,-1,-1],"loss_changes":[4.7287197E0,1.7009854E0,4.140796E0,0E0,2.1662607E0,3.8076797E0,5.6973615E0,0E0,0E0,4.396405E0,0E0,8.7102985E-1,6.6014056E0,3.7146144E0,3.3954668E-1,0E0,4.7342348E-1,1.1466517E0,4.5864115E0,4.873746E0,6.7678404E0,0E0,0E0,0E0,0E0,0E0,0E0,7.629096E0,5.4657745E0,0E0,0E0,0E0,0E0,0E0,0E0,0E0,0E0],"parents":[2147483647,0,0,1,1,2,2,4,4,5,5,6,6,9,9,11,11,12,12,13,13,14,14,16,16,17,17,18,18,19,19,20,20,27,27,28,28],"right_children":[2,4,6,-1,8,10,12,-1,-1,14,-1,16,18,20,22,-1,24,26,28,30,32,-1,-1,-1,-1,-1,-1,34,36,-1,-1,-1,-1,-1,-1,-1,-1],"split_conditions":[-1.2432522E0,-1.3839208E0,-5.381604E-1,-1.9138088E-2,4.63973E-1,-2.8377134E-1,-9.4250333E-1,1.2456739E-1,-8.758389E-3,-3.5737222E-1,9.727039E-2,-1.0873007E0,-8.7661713E-1,-4.6651292E-1,-4.5580027E-1,-1.8684072E-2,3.616526E-1,-9.7382915E-1,-8.5273767E-1,-5.484675E-1,-3.7973306E-1,-1.2506102E-1,-2.6946498E-2,-1.3174681E-1,-3.2751713E-2,1.9906497E-2,1.3290606E-1,-5.679548E-1,-7.2637993E-1,9.149211E-3,-6.5539576E-2,1.0709751E-1,-9.77753E-3,3.600792E-2,-4.6378385E-2,-2.448705E-2,5.519391E-3],"split_indices":[22,24,12,0,16,17,26,0,0,18,0,16,25,27,11,0,20,9,22,2,27,0,0,0,0,0,0,15,8,0,0,0,0,0,0,0,0],"split_type":[0,0,0,0,0,0,0,0,0,0,0,0,0,0,0,0,0,0,0,0,0,0,0,0,0,0,0,0,0,0,0,0,0,0,0,0,0],"sum_hessian":[5.6149554E2,6.9754033E0,5.5452014E2,1.2459396E0,5.729464E0,1.7172353E2,3.827966E2,4.3101916E0,1.4192721E0,1.6783527E2,3.8882594E0,6.6590385E0,3.7613754E2,1.6512505E2,2.7102306E0,1.7299806E0,4.929058E0,4.536053E0,3.716015E2,1.4658339E2,1.854166E1,1.4936655E0,1.2165651E0,3.4540298E0,1.475028E0,1.7018074E0,2.8342457E0,7.113837E1,3.0046313E2,1.3825768E2,8.325706E0,9.237254E0,9.304406E0,1.3095362E1,5.8043003E1,8.309479E1,2.1736835E2],"tree_param":{"num_deleted":"0","num_feature":"31","num_nodes":"37","size_leaf_vector":"1"}},{"base_weights":[-2.9699069E-2,3.2403707E-3,-2.966731E-1,1.628936E-1,-4.226391E-2,-6.504449E-1,-6.455803E-2,6.133185E-2,6.4285344E-1,-7.221577E-1,-1.82101E-2,-3.893628E-2,-1.0737312E0,-2.3349458E-1,5.724868E-1,9.597423E-1,-1.4556268E-3,-3.6015164E-2,7.770115E-1,-1.1854389E0,-2.2623204E-1,7.637287E-2,-1.4408895E-1,5.821045E-1,-4.2924684E-1,-1.2231624E0,2.825815E-2,3.1183898E-2,-8.063791E-1,-4.4115722E-1,1.1340646E0,1.1808514E-1,3.0447973E-3,5.8188748E-2,-7.760253E-1,-2.14499E-2,8.802783E-1,-5.176511E-1,-1.4512569E-1,-6.3052887E-1,1.0348274E-1,1.1344119E-1,-6.686646E-1,-6.7113006E-1,-9.862038E-2,-4.9444236E-2,1.1008117E-1,4.124594E-1,-1.0079602E0,-4.4690424E-1,-1.3589227E0,-4.5069447E-1,3.5019916E-1,2.3708282E-2,-1.0543444E0,4.9361426E-2,-1.0937109E-1,1.3282256E-1,4.3991625E-2,1.0186761E-2,-1.1491319E-1,-1.2570117E-1,3.512428E-2,1.2723001E-2,9.746748E-2,-1.6366633E-2,-6.398114E-2,-1.0909183E-1,4.0954683E-2,3.2178607E-2,1.6641329E-4,-9.017953E-2,-2.670343E-2,2.3917079E-2,-9.139833E-2,-1.4750813E-2,3.2813903E-2,7.061224E-2,-9.851906E-3,-1.4457625E-2,-1.2611222E-1,-9.4057135E-2,2.3992525E-2,-1.504014E-1,-3.4508698E-2,-8.694572E-2,2.6304523E-2,5.193748E-2,-5.322155E-2,-1.19577244E-1,-1.4425325E-2],"categories":[],"categories_nodes":[],"categories_segments":[],"categories_sizes":[],"default_left":[0,0,0,0,0,0,0,0,0,0,0,0,0,0,0,0,0,0,0,0,0,0,0,0,0,0,0,0,0,0,0,0,0,0,0,0,0,0,0,0,0,0,0,0,0,0,0,0,0,0,0,0,0,0,0,0,0,0,0,0,0,0,0,0,0,0,0,0,0,0,0,0,0,0,0,0,0,0,0,0,0,0,0,0,0,0,0,0,0,0,0],"id":17,"left_children":[1,3,5,7,9,11,13,15,17,19,21,23,25,27,29,31,33,-1,35,37,39,41,43,45,47,49,-1,51,53,55,57,-1,-1,59,61,-1,63,65,-1,67,-1,69,71,73,75,-1,-1,77,79,81,83,85,87,-1,89,-1,-1,-1,-1,-1,-1,-1,-1,-1,-1,-1,-1,-1,-1,-1,-1,-1,-1,-1,-1,-1,-1,-1,-1,-1,-1,-1,-1,-1,-1,-1,-1,-1,-1,-1,-1],"loss_changes":[4.938211E0,3.644876E0,5.0223484E0,5.384782E0,6.372879E0,6.254119E0,4.26089E0,5.244452E0,2.8807344E0,2.791439E0,4.5134883E0,2.9131413E0,3.2512302E0,4.729001E0,5.240912E0,1.2119031E0,4.1048336E0,0E0,1.9668312E0,4.290657E-1,4.561832E0,6.057206E0,3.8300748E0,3.1491163E0,3.9825623E0,7.7334976E-1,0E0,3.5677063E0,2.796114E0,2.7900698E0,1.7570353E-1,0E0,0E0,4.4687896E0,3.8858783E0,0E0,1.0078802E0,4.437083E-2,0E0,3.5245938E0,0E0,4.8240767E0,7.3390007E-1,3.0351458E0,3.19561E0,0E0,0E0,6.237166E-1,8.2956696E-1,1.3921199E0,1.0491886E0,3.0001884E0,2.3527622E0,0E0,8.7452793E-1,0E0,0E0,0E0,0E0,0E0,0E0,0E0,0E0,0E0,0E0,0E0,0E0,0E0,0E0,0E0,0E0,0E0,0E0,0E0,0E0,0E0,0E0,0E0,0E0,0E0,0E0,0E0,0E0,0E0,0E0,0E0,0E0,0E0,0E0,0E0,0E0],"parents":[2147483647,0,0,1,1,2,2,3,3,4,4,5,5,6,6,7,7,8,8,9,9,10,10,11,11,12,12,13,13,14,14,15,15,16,16,18,18,19,19,20,20,21,21,22,22,23,23,24,24,25,25,27,27,28,28,29,29,30,30,33,33,34,34,36,36,37,37,39,39,41,41,42,42,43,43,44,44,47,47,48,48,49,49,50,50,51,51,52,52,54,54],"right_children":[2,4,6,8,10,12,14,16,18,20,22,24,26,28,30,32,34,-1,36,38,40,42,44,46,48,50,-1,52,54,56,58,-1,-1,60,62,-1,64,66,-1,68,-1,70,72,74,76,-1,-1,78,80,82,84,86,88,-1,90,-1,-1,-1,-1,-1,-1,-1,-1,-1,-1,-1,-1,-1,-1,-1,-1,-1,-1,-1,-1,-1,-1,-1,-1,-1,-1,-1,-1,-1,-1,-1,-1,-1,-1,-1,-1],"split_conditions":[1.1749719E0,-5.14706E-1,-3.836764E-2,-6.090116E-1,-1.3678417E0,-6.6526747E-1,4.0865728E-1,-7.694145E-1,-8.1628966E-1,-3.290682E-2,-2.1429113E-1,-1.0341271E0,1.1949998E0,3.921093E-1,-8.8558234E-2,3.6827052E-1,1.2909385E0,-3.6015164E-2,-1.1531409E0,-8.5273767E-1,1.6906828E-2,1.7206237E0,-1.5842527E-1,-2.7725685E0,5.066689E-1,-1.8596015E0,2.825815E-2,-1.5161844E0,-6.050708E-1,-1.8890773E-1,6.841925E-1,1.1808514E-1,3.0447973E-3,-6.314785E-1,1.4455452E0,-2.14499E-2,-5.9835804E-1,-4.5486495E-1,-1.4512569E-1,6.496447E-1,1.0348274E-1,-5.7467956E-2,2.0202417E0,-3.7751108E-1,5.0680405E-1,-4.9444236E-2,1.1008117E-1,1.7714813E0,-7.2637993E-1,-3.5546327E-1,1.4524539E0,1.5559468E0,3.2003865E-1,2.3708282E-2,7.1043736E-1,4.9361426E-2,-1.0937109E-1,1.3282256E-1,4.3991625E-2,1.0186761E-2,-1.1491319E-1,-1.2570117E-1,3.512428E-2,1.2723001E-2,9.746748E-2,-1.6366633E-2,-6.398114E-2,-1.0909183E-1,4.0954683E-2,3.2178607E-2,1.6641329E-4,-9.017953E-2,-2.670343E-2,2.3917079E-2,-9.139833E-2,-1.4750813E-2,3.2813903E-2,7.061224E-2,-9.851906E-3,-1.4457625E-2,-1.2611222E-1,-9.4057135E-2,2.3992525E-2,-1.504014E-1,-3.4508698E-2,-8.694572E-2,2.6304523E-2,5.193748E-2,-5.322155E-2,-1.19577244E-1,-1.4425325E-2],"split_indices":[4,15,8,15,24,3,16,20,20,20,20,16,15,15,12,13,17,0,22,22,15,12,20,13,20,15,0,13,20,13,16,0,0,15,27,0,15,15,0,8,0,13,11,13,4,0,0,4,8,0,14,22,16,0,20,0,0,0,0,0,0,0,0,0,0,0,0,0,0,0,0,0,0,0,0,0,0,0,0,0,0,0,0,0,0,0,0,0,0,0,0],"split_type":[0,0,0,0,0,0,0,0,0,0,0,0,0,0,0,0,0,0,0,0,0,0,0,0,0,0,0,0,0,0,0,0,0,0,0,0,0,0,0,0,0,0,0,0,0,0,0,0,0,0,0,0,0,0,0,0,0,0,0,0,0,0,0,0,0,0,0,0,0,0,0,0,0,0,0,0,0,0,0,0,0,0,0,0,0,0,0,0,0,0,0],"sum_hessian":[5.6043555E2,4.997624E2,6.067317E1,1.10275955E2,3.8948645E2,2.3323318E1,3.7349854E1,9.1947266E1,1.8328688E1,1.231701E1,3.7716943E2,9.987162E0,1.3336157E1,3.0021885E1,7.3279667E0,5.0730257E0,8.6874245E1,1.9636127E0,1.6365074E1,5.6492596E0,6.66775E0,2.1558E2,1.6158943E2,3.6647017E0,6.32246E0,1.2101094E1,1.2350624E0,2.118142E1,8.840466E0,2.688919E0,4.6390476E0,3.8793151E0,1.1937104E0,8.152168E1,5.352558E0,1.4420613E0,1.4923013E1,2.4476545E0,3.201605E0,5.427643E0,1.2401069E0,2.0617004E2,9.409971E0,1.1740552E1,1.4984888E2,1.2068124E0,2.4578893E0,2.692969E0,3.629491E0,2.4402049E0,9.66089E0,8.2726555E0,1.2908764E1,1.7058737E0,7.1345916E0,1.2055523E0,1.4833667E0,2.9112725E0,1.7277751E0,7.9559E1,1.9626869E0,3.6710753E0,1.6814826E0,1.9237912E0,1.2999222E1,1.2282658E0,1.2193887E0,3.7283883E0,1.6992546E0,7.133242E1,1.3483762E2,5.1659822E0,4.2439895E0,2.4757435E0,9.264809E0,1.3503427E2,1.4814604E1,1.4676169E0,1.2253523E0,1.1791611E0,2.45033E0,1.2048006E0,1.2354043E0,8.02844E0,1.6324493E0,5.0761967E0,3.1964586E0,1.1177283E1,1.731481E0,5.9033136E0,1.231278E0],"tree_param":{"num_deleted":"0","num_feature":"31","num_nodes":"91","size_leaf_vector":"1"}},{"base_weights":[3.5417803E-2,6.35216E-2,-1.8828236E-1,5.9221977E-1,5.11421E-2,-6.046277E-1,5.4084644E-2,1.19559895E-2,1.1504638E0,-4.4857934E-1,7.2504364E-2,4.975992E-2,-9.5616335E-1,2.1106885E-1,-5.424254E-1,5.875623E-1,-6.0467744E-1,1.3613442E-1,3.174864E-2,-9.477426E-1,3.867836E-2,1.0379518E-1,-1.4874813E-1,6.845142E-1,-4.4356397E-1,-1.0911081E0,3.5662938E-2,5.735673E-1,-2.5095338E-1,-1.2548459E-1,1.5859691E-2,1.2649207E-2,8.102489E-2,-1.0885965E-1,2.0252155E-2,3.2146174E-1,-1.4541574E-1,-6.5825427E-1,5.8369976E-1,2.0470541E-2,2.4071726E-1,-5.2614477E-2,-6.214413E-1,-8.058849E-3,1.1884161E-1,2.7654303E-2,-8.67768E-1,-2.6867077E-1,-1.2563303E-1,1.30491E-1,9.439318E-1,-8.7561464E-1,3.1621444E-1,1.13291994E-1,-5.924018E-1,-2.4883483E-2,7.074466E-2,-9.787544E-2,1.2543343E-2,1.1287482E-1,-8.334549E-2,7.336743E-3,-4.6191853E-2,-3.0009986E-3,4.0214144E-2,-1.04590105E-2,1.0349693E-1,-1.2281718E-1,-1.7947286E-2,-2.3608407E-2,-1.0616026E-1,-1.0119271E-1,6.797974E-2,-8.279154E-2,5.1642347E-2,1.1633344E-1,1.761869E-2,1.293149E-2,-1.0904294E-1,1.0261055E-1,6.65464E-3,-1.0545305E-1,-4.357036E-3],"categories":[],"categories_nodes":[],"categories_segments":[],"categories_sizes":[],"default_left":[0,0,0,0,0,0,0,0,0,0,0,0,0,0,0,0,0,0,0,0,0,0,0,0,0,0,0,0,0,0,0,0,0,0,0,0,0,0,0,0,0,0,0,0,0,0,0,0,0,0,0,0,0,0,0,0,0,0,0,0,0,0,0,0,0,0,0,0,0,0,0,0,0,0,0,0,0,0,0,0,0,0,0],"id":18,"left_children":[1,3,5,7,9,11,13,15,17,19,21,23,25,27,29,31,33,-1,-1,35,37,39,41,43,45,47,-1,49,51,-1,53,-1,-1,-1,-1,55,-1,57,59,61,63,65,67,-1,-1,-1,69,71,-1,73,75,77,79,-1,81,-1,-1,-1,-1,-1,-1,-1,-1,-1,-1,-1,-1,-1,-1,-1,-1,-1,-1,-1,-1,-1,-1,-1,-1,-1,-1,-1,-1],"loss_changes":[3.595358E0,3.2888045E0,6.477542E0,3.7140136E0,5.3339157E0,5.472354E0,3.980659E0,2.7167625E0,5.9623337E-1,5.022216E0,3.318561E0,3.1818695E0,3.115573E0,5.738622E0,3.5524921E0,3.0289364E-1,1.6676887E0,0E0,0E0,7.0006485E0,4.689181E0,4.7706976E0,2.6722846E0,1.7970695E0,2.005229E0,1.5923042E0,0E0,2.9984503E0,5.726499E0,0E0,4.725574E0,0E0,0E0,0E0,0E0,9.9445003E-1,0E0,1.4900496E0,6.2626486E0,6.701884E0,6.928673E0,2.9662232E0,2.452462E0,0E0,0E0,0E0,2.2422862E-1,3.2594688E0,0E0,4.0603623E0,1.5133686E0,1.7784662E0,1.490807E0,0E0,1.1004752E0,0E0,0E0,0E0,0E0,0E0,0E0,0E0,0E0,0E0,0E0,0E0,0E0,0E0,0E0,0E0,0E0,0E0,0E0,0E0,0E0,0E0,0E0,0E0,0E0,0E0,0E0,0E0,0E0],"parents":[2147483647,0,0,1,1,2,2,3,3,4,4,5,5,6,6,7,7,8,8,9,9,10,10,11,11,12,12,13,13,14,14,15,15,16,16,19,19,20,20,21,21,22,22,23,23,24,24,25,25,27,27,28,28,30,30,35,35,37,37,38,38,39,39,40,40,41,41,42,42,46,46,47,47,49,49,50,50,51,51,52,52,54,54],"right_children":[2,4,6,8,10,12,14,16,18,20,22,24,26,28,30,32,34,-1,-1,36,38,40,42,44,46,48,-1,50,52,-1,54,-1,-1,-1,-1,56,-1,58,60,62,64,66,68,-1,-1,-1,70,72,-1,74,76,78,80,-1,82,-1,-1,-1,-1,-1,-1,-1,-1,-1,-1,-1,-1,-1,-1,-1,-1,-1,-1,-1,-1,-1,-1,-1,-1,-1,-1,-1,-1],"split_conditions":[1.1749719E0,-1.8513756E0,-3.836764E-2,2.4857488E-1,-1.3135484E0,-7.215348E-1,1.0750313E0,-1.4070554E-1,2.3156815E0,-3.8524687E-1,1.2414359E0,5.152527E-1,1.3842757E0,9.877376E-2,1.2168651E0,-7.2637993E-1,-7.990559E-1,1.3613442E-1,3.174864E-2,-8.3510876E-1,-5.833804E-1,4.2966604E-1,1.1977437E0,-9.550315E-1,-1.5944494E0,-1.5169857E0,3.5662938E-2,-1.0085882E0,6.6988724E-1,-1.2548459E-1,1.4737383E0,1.2649207E-2,8.102489E-2,-1.0885965E-1,2.0252155E-2,-1.7613114E0,-1.4541574E-1,-2.0628996E-2,2.9376498E-1,3.491486E-1,-4.8285916E-1,1.2552458E0,1.2847683E0,-8.058849E-3,1.1884161E-1,2.7654303E-2,1.5061508E0,-1.9606644E0,-1.2563303E-1,-6.9888145E-1,7.521226E-1,1.5198576E-1,7.897873E-1,1.13291994E-1,4.4445673E-1,-2.4883483E-2,7.074466E-2,-9.787544E-2,1.2543343E-2,1.1287482E-1,-8.334549E-2,7.336743E-3,-4.6191853E-2,-3.0009986E-3,4.0214144E-2,-1.04590105E-2,1.0349693E-1,-1.2281718E-1,-1.7947286E-2,-2.3608407E-2,-1.0616026E-1,-1.0119271E-1,6.797974E-2,-8.279154E-2,5.1642347E-2,1.1633344E-1,1.761869E-2,1.293149E-2,-1.0904294E-1,1.0261055E-1,6.65464E-3,-1.0545305E-1,-4.357036E-3],"split_indices":[4,13,8,4,15,3,1,4,22,27,24,7,13,15,27,8,15,0,0,2,7,24,10,19,14,23,0,13,23,0,25,0,0,0,0,15,0,4,4,23,4,27,19,0,0,0,4,14,0,19,16,15,23,0,22,0,0,0,0,0,0,0,0,0,0,0,0,0,0,0,0,0,0,0,0,0,0,0,0,0,0,0,0],"split_type":[0,0,0,0,0,0,0,0,0,0,0,0,0,0,0,0,0,0,0,0,0,0,0,0,0,0,0,0,0,0,0,0,0,0,0,0,0,0,0,0,0,0,0,0,0,0,0,0,0,0,0,0,0,0,0,0,0,0,0,0,0,0,0,0,0,0,0,0,0,0,0,0,0,0,0,0,0,0,0,0,0,0,0],"sum_hessian":[5.6898535E2,5.0611713E2,6.2868244E1,1.0507987E1,4.9560913E2,2.2581825E1,4.028642E1,5.6532073E0,4.8547797E0,1.9498049E1,4.7611108E2,8.19157E0,1.4390254E1,3.2404617E1,7.881799E0,2.9482558E0,2.7049518E0,3.367849E0,1.4869308E0,9.1645355E0,1.0333513E1,4.1758472E2,5.8526382E1,3.4128015E0,4.778769E0,1.3202052E1,1.1882017E0,1.8022726E1,1.4381894E1,2.9147038E0,4.9670954E0,1.4708674E0,1.4773884E0,1.4731703E0,1.2317815E0,2.7179308E0,6.4466047E0,4.443605E0,5.8899083E0,2.60317E2,1.5726773E2,4.955872E1,8.967663E0,1.6887492E0,1.7240524E0,1.9005619E0,2.878207E0,2.6478403E0,1.0554213E1,8.821581E0,9.201144E0,6.5852566E0,7.796637E0,1.4470545E0,3.520041E0,1.2404615E0,1.4774692E0,2.9771492E0,1.4664558E0,4.4008274E0,1.4890808E0,2.3535661E2,2.4960375E1,5.904927E1,9.821845E1,4.8160942E1,1.3977786E0,3.0296788E0,5.937984E0,1.1965992E0,1.6816077E0,1.4470046E0,1.2008358E0,2.2037237E0,6.617857E0,6.755367E0,2.445778E0,1.2298565E0,5.3554006E0,1.2194493E0,6.577188E0,1.410748E0,2.1092927E0],"tree_param":{"num_deleted":"0","num_feature":"31","num_nodes":"83","size_leaf_vector":"1"}},{"base_weights":[9.79346E-3,1.0295402E-1,4.5702676E-3,-1.761412E-1,3.284618E-2,2.1139582E-1,-4.1019908E-1,2.889124E-1,6.526084E-4,6.847994E-2,1.11229435E-1,5.600771E-1,-4.9187276E-1,-1.4337787E-1,5.788072E-1,-8.690688E-2,8.4912635E-2,9.846615E-2,-4.6437442E-2,-3.449946E-2,1.026425E-1,-9.293386E-1,-2.1227261E-1,9.2210725E-2,-6.151177E-1,2.8163958E-1,9.8461676E-1,-1.4113194E-2,-6.20336E-1,2.0009413E-1,-1.3118365E-1,-4.8466958E-2,1.639427E-2,2.8842563E-2,-1.04326405E-1,-3.6863234E-2,8.538476E-2,-2.8546277E-2,5.8108296E-2,1.1949707E-2,-1.24773465E-1,1.6825097E-3,1.094886E-1,-3.423558E-2,1.146327E-1,-1.20442964E-1,8.37455E-4,3.5624783E-2,-7.905046E-2,2.8008844E-3,5.5408783E-2,4.4306453E-2,-2.6952116E-2],"categories":[],"categories_nodes":[],"categories_segments":[],"categories_sizes":[],"default_left":[0,0,0,0,0,0,0,0,0,0,0,0,0,0,0,0,0,0,0,0,0,0,0,0,0,0,0,0,0,0,0,0,0,0,0,0,0,0,0,0,0,0,0,0,0,0,0,0,0,0,0,0,0],"id":19,"left_children":[1,-1,3,5,7,9,11,13,15,17,-1,19,21,23,25,27,29,-1,31,-1,-1,33,35,37,39,41,43,45,47,49,51,-1,-1,-1,-1,-1,-1,-1,-1,-1,-1,-1,-1,-1,-1,-1,-1,-1,-1,-1,-1,-1,-1],"loss_changes":[2.9713428E0,0E0,2.85142E0,6.9355183E0,3.9765162E0,3.6693807E0,4.0328903E0,6.8342443E0,3.1762865E0,2.8014164E0,0E0,2.1052504E0,5.2170906E0,2.5491455E0,3.6354685E0,8.18951E0,5.4869432E0,0E0,2.3116426E0,0E0,0E0,2.6544065E0,5.032557E0,3.0880277E0,3.6810393E0,4.3169417E0,3.249689E0,5.0103154E0,4.4908485E0,8.726507E0,6.227051E0,0E0,0E0,0E0,0E0,0E0,0E0,0E0,0E0,0E0,0E0,0E0,0E0,0E0,0E0,0E0,0E0,0E0,0E0,0E0,0E0,0E0,0E0],"parents":[2147483647,0,0,2,2,3,3,4,4,5,5,6,6,7,7,8,8,9,9,11,11,12,12,13,13,14,14,15,15,16,16,18,18,21,21,22,22,23,23,24,24,25,25,26,26,27,27,28,28,29,29,30,30],"right_children":[2,-1,4,6,8,10,12,14,16,18,-1,20,22,24,26,28,30,-1,32,-1,-1,34,36,38,40,42,44,46,48,50,52,-1,-1,-1,-1,-1,-1,-1,-1,-1,-1,-1,-1,-1,-1,-1,-1,-1,-1,-1,-1,-1,-1],"split_conditions":[-2.1101768E0,1.0295402E-1,-8.719974E-1,-1.4265974E0,-4.9150136E-1,1.9176574E-1,-1.0386974E0,-1.1867045E0,-1.6686589E-1,-3.5484023E0,1.11229435E-1,1.7708334E0,-4.6607426E-1,-1.3569785E0,-9.263733E-1,-2.561627E-1,7.669204E-1,9.846615E-2,3.4244694E-2,-3.449946E-2,1.026425E-1,-1.2994347E0,8.979923E-1,-4.501666E-1,-4.9446258E-1,-4.7378725E-1,-1.3681183E0,-1.9082448E0,-1.426316E0,3.5269776E-1,2.8249624E-1,-4.8466958E-2,1.639427E-2,2.8842563E-2,-1.04326405E-1,-3.6863234E-2,8.538476E-2,-2.8546277E-2,5.8108296E-2,1.1949707E-2,-1.24773465E-1,1.6825097E-3,1.094886E-1,-3.423558E-2,1.146327E-1,-1.20442964E-1,8.37455E-4,3.5624783E-2,-7.905046E-2,2.8008844E-3,5.5408783E-2,4.4306453E-2,-2.6952116E-2],"split_indices":[27,0,16,13,14,15,4,21,28,16,0,7,4,23,24,25,21,0,4,0,0,13,24,16,16,16,7,21,23,21,14,0,0,0,0,0,0,0,0,0,0,0,0,0,0,0,0,0,0,0,0,0,0],"split_type":[0,0,0,0,0,0,0,0,0,0,0,0,0,0,0,0,0,0,0,0,0,0,0,0,0,0,0,0,0,0,0,0,0,0,0,0,0,0,0,0,0,0,0,0,0,0,0,0,0,0,0,0,0],"sum_hessian":[5.577423E2,1.8428627E0,5.558994E2,7.450545E1,4.8139398E2,2.8091042E1,4.6414402E1,5.28727E1,4.2852127E2,2.517359E1,2.917451E0,3.1488502E0,4.3265553E1,2.1426693E1,3.1446007E1,2.1013077E2,2.183905E2,1.9621191E0,2.3211472E1,1.1592463E0,1.9896039E0,1.5964106E1,2.7301449E1,1.4826711E1,6.5999823E0,1.9130833E1,1.2315174E1,1.8580202E2,2.4328764E1,1.4250693E2,7.5883575E1,7.1058526E0,1.6105618E1,1.2346851E0,1.4729421E1,2.4380043E1,2.9214044E0,8.599403E0,6.227307E0,3.4291043E0,3.1708777E0,1.52015085E1,3.9293234E0,1.2164074E0,1.1098766E1,2.4705768E0,1.8333144E2,3.4479213E0,2.0880842E1,9.661773E1,4.58892E1,1.4303988E1,6.1579586E1],"tree_param":{"num_deleted":"0","num_feature":"31","num_nodes":"53","size_leaf_vector":"1"}},{"base_weights":[-2.229325E-2,6.314977E-1,-3.1526305E-2,-5.672087E-2,9.388293E-1,1.34871155E-2,-1.560027E-1,1.2792131E-1,2.8739154E-1,-5.112556E-2,3.6675325E-1,-8.083664E-1,-1.1034794E-1,9.90292E-2,-4.905562E-2,-3.8013634E-1,-4.144708E-3,-2.2925423E-1,4.5291135E-1,-1.3588183E0,1.5368213E-1,7.284068E-1,-1.3971311E-1,-4.5561177E-1,8.353572E-2,8.223113E-2,-1.984682E-1,6.0413504E-1,-1.0749487E0,8.6683357E-1,2.907272E-1,-1.6077092E-1,-3.4773167E-2,-6.372663E-2,6.563585E-2,-1.641927E-2,1.2443769E-1,6.3729537E-1,-1.7173451E-1,1.9009924E-2,-6.4719E-2,6.167245E-2,9.754777E-4,-5.2226156E-2,2.755143E-3,1.1046487E-1,-6.1255526E-3,-1.427074E-1,-1.6331833E-2,3.9854627E-2,1.3580327E-1,1.1468746E-1,8.700743E-3,-1.820111E-2,1.1047472E-1,-1.0729704E-1,-1.2993515E-2],"categories":[],"categories_nodes":[],"categories_segments":[],"categories_sizes":[],"default_left":[0,0,0,0,0,0,0,0,0,0,0,0,0,0,0,0,0,0,0,0,0,0,0,0,0,0,0,0,0,0,0,0,0,0,0,0,0,0,0,0,0,0,0,0,0,0,0,0,0,0,0,0,0,0,0,0,0],"id":20,"left_children":[1,3,5,-1,7,9,11,-1,13,15,17,19,21,-1,-1,23,25,27,29,31,33,35,37,39,-1,41,43,45,47,49,51,-1,-1,-1,-1,-1,-1,53,55,-1,-1,-1,-1,-1,-1,-1,-1,-1,-1,-1,-1,-1,-1,-1,-1,-1,-1],"loss_changes":[3.4250998E0,3.443995E0,3.124146E0,0E0,1.1106796E0,9.380319E0,4.3205833E0,0E0,2.4421976E0,5.371333E0,3.366562E0,5.2534537E0,3.5385466E0,0E0,0E0,4.364139E0,5.138669E0,6.773239E0,3.4972286E0,9.9131393E-1,2.1538613E0,2.4522302E0,3.484649E0,5.2605314E0,0E0,8.205534E0,6.9083567E0,1.7383307E0,1.2668033E0,2.9592123E0,7.161294E0,0E0,0E0,0E0,0E0,0E0,0E0,2.338704E0,4.7982445E0,0E0,0E0,0E0,0E0,0E0,0E0,0E0,0E0,0E0,0E0,0E0,0E0,0E0,0E0,0E0,0E0,0E0,0E0],"parents":[2147483647,0,0,1,1,2,2,4,4,5,5,6,6,8,8,9,9,10,10,11,11,12,12,15,15,16,16,17,17,18,18,19,19,20,20,21,21,22,22,23,23,25,25,26,26,27,27,28,28,29,29,30,30,37,37,38,38],"right_children":[2,4,6,-1,8,10,12,-1,14,16,18,20,22,-1,-1,24,26,28,30,32,34,36,38,40,-1,42,44,46,48,50,52,-1,-1,-1,-1,-1,-1,54,56,-1,-1,-1,-1,-1,-1,-1,-1,-1,-1,-1,-1,-1,-1,-1,-1,-1,-1],"split_conditions":[-1.2432522E0,-3.127169E-1,7.669204E-1,-5.672087E-2,-1.0542232E0,4.4419977E-1,8.0989414E-1,1.2792131E-1,-5.863818E-1,-8.934567E-1,5.725803E-2,-3.677109E-1,8.321612E-1,9.90292E-2,-4.905562E-2,2.03394E0,-1.8322945E-1,-6.964812E-1,6.293356E-1,-9.381766E-2,-4.8737818E-1,8.041462E-1,-2.672899E-1,-4.7123915E-1,8.353572E-2,-6.324895E-1,4.4409953E-2,6.2341624E-1,-4.3388018E-1,-3.369597E-1,-3.2489938E-1,-1.6077092E-1,-3.4773167E-2,-6.372663E-2,6.563585E-2,-1.641927E-2,1.2443769E-1,-8.593323E-2,6.9005996E-2,1.9009924E-2,-6.4719E-2,6.167245E-2,9.754777E-4,-5.2226156E-2,2.755143E-3,1.1046487E-1,-6.1255526E-3,-1.427074E-1,-1.6331833E-2,3.9854627E-2,1.3580327E-1,1.1468746E-1,8.700743E-3,-1.820111E-2,1.1047472E-1,-1.0729704E-1,-1.2993515E-2],"split_indices":[22,16,21,0,7,13,21,0,21,22,24,22,21,0,0,27,21,22,24,20,4,13,24,28,0,22,7,16,20,4,20,0,0,0,0,0,0,23,24,0,0,0,0,0,0,0,0,0,0,0,0,0,0,0,0,0,0],"split_type":[0,0,0,0,0,0,0,0,0,0,0,0,0,0,0,0,0,0,0,0,0,0,0,0,0,0,0,0,0,0,0,0,0,0,0,0,0,0,0,0,0,0,0,0,0,0,0,0,0,0,0,0,0,0,0,0,0],"sum_hessian":[5.6310126E2,6.90304E0,5.5619824E2,1.2361209E0,5.666919E0,4.0913693E2,1.4706133E2,3.0891337E0,2.5777853E0,3.4659897E2,6.2537964E1,8.526047E0,1.3853528E2,1.2108183E0,1.366967E0,4.242211E1,3.0417685E2,7.688831E0,5.4849133E1,5.1607924E0,3.365254E0,3.8808818E0,1.3465439E2,4.0530552E1,1.89156E0,2.1097592E2,9.320093E1,4.0164533E0,3.6723778E0,1.4217879E1,4.0631256E1,3.667832E0,1.4929606E0,1.2036288E0,2.1616251E0,1.6713383E0,2.2095432E0,4.581473E0,1.3007292E2,9.275468E0,3.1255085E1,2.429531E1,1.8668062E2,3.777466E1,5.542627E1,1.9154676E0,2.1009855E0,2.2412622E0,1.4311156E0,8.206009E0,6.0118704E0,6.919957E0,3.3711296E1,1.8861805E0,2.6952925E0,4.6719313E0,1.25400986E2],"tree_param":{"num_deleted":"0","num_feature":"31","num_nodes":"57","size_leaf_vector":"1"}},{"base_weights":[1.9324452E-2,-1.422865E-1,5.662285E-2,-5.6434054E-2,-7.09145E-1,5.831271E-1,2.3798326E-2,-1.7386572E-2,-1.07015274E-1,-1.173317E0,-2.5194474E-3,1.0721289E0,2.8118953E-1,-6.181259E-1,4.475551E-2,4.550522E-1,-8.5754044E-2,-1.4155641E-1,-3.3428725E-2,7.463834E-1,-9.857248E-2,1.8138258E-2,1.1760364E-1,1.3331152E-1,-3.531487E-2,2.333927E-1,-1.0208803E0,7.352448E-2,-2.5668702E-1,-1.769552E-1,1.0392336E0,2.86907E-1,-2.1482964E-1,1.1631123E-1,-8.662959E-4,-3.1879565E-1,6.474314E-1,7.169705E-2,-3.7027605E-2,-1.227624E0,2.2196515E-2,6.4230084E-2,1.0201188E-1,-9.7886527E-1,-5.1547773E-3,4.9308732E-2,-5.789729E-2,9.461779E-3,1.2575078E-1,-2.639767E-2,5.475218E-2,-8.408856E-2,-2.1561498E-5,1.3870224E-2,-1.1771063E-1,1.04210116E-1,-2.4278566E-2,-5.8652516E-2,-1.4234196E-1,1.8376458E-2,-5.718167E-4,-8.110276E-3,-1.3089973E-1,4.8262425E-2,-4.5251783E-2],"categories":[],"categories_nodes":[],"categories_segments":[],"categories_sizes":[],"default_left":[0,0,0,0,0,0,0,0,0,0,0,0,0,0,0,0,0,0,0,0,0,0,0,0,0,0,0,0,0,0,0,0,0,0,0,0,0,0,0,0,0,0,0,0,0,0,0,0,0,0,0,0,0,0,0,0,0,0,0,0,0,0,0,0,0],"id":21,"left_children":[1,3,5,7,9,11,13,15,-1,17,19,21,23,25,27,29,31,-1,-1,33,-1,-1,-1,-1,35,37,39,41,43,45,47,49,51,-1,-1,53,55,-1,-1,57,-1,59,-1,61,63,-1,-1,-1,-1,-1,-1,-1,-1,-1,-1,-1,-1,-1,-1,-1,-1,-1,-1,-1,-1],"loss_changes":[3.3754098E0,5.071718E0,7.842594E0,3.6352172E0,4.500179E0,3.6312475E0,5.798457E0,2.942753E0,0E0,1.2105436E0,5.481507E0,6.948929E-1,5.9811187E0,4.9124637E0,3.6293888E0,4.438476E0,3.8797731E0,0E0,0E0,1.3402958E0,0E0,0E0,0E0,0E0,3.0466895E0,1.7806513E0,2.6978226E0,3.2850978E0,6.6242657E0,2.006671E0,1.1457281E0,3.1377127E0,7.998065E0,0E0,0E0,4.498252E0,1.8816333E0,0E0,0E0,2.0018005E-1,0E0,3.1632855E0,0E0,2.6863766E0,6.3442383E0,0E0,0E0,0E0,0E0,0E0,0E0,0E0,0E0,0E0,0E0,0E0,0E0,0E0,0E0,0E0,0E0,0E0,0E0,0E0,0E0],"parents":[2147483647,0,0,1,1,2,2,3,3,4,4,5,5,6,6,7,7,9,9,10,10,11,11,12,12,13,13,14,14,15,15,16,16,19,19,24,24,25,25,26,26,27,27,28,28,29,29,30,30,31,31,32,32,35,35,36,36,39,39,41,41,43,43,44,44],"right_children":[2,4,6,8,10,12,14,16,-1,18,20,22,24,26,28,30,32,-1,-1,34,-1,-1,-1,-1,36,38,40,42,44,46,48,50,52,-1,-1,54,56,-1,-1,58,-1,60,-1,62,64,-1,-1,-1,-1,-1,-1,-1,-1,-1,-1,-1,-1,-1,-1,-1,-1,-1,-1,-1,-1],"split_conditions":[-9.0405303E-1,-9.077295E-1,-7.790574E-1,1.6846739E0,-9.232418E-1,4.6228003E-2,-6.866231E-1,-7.472716E-1,-1.07015274E-1,-8.988721E-1,-8.8504153E-1,-1.0225581E0,-4.746932E-1,-7.2077566E-1,1.5061508E0,-8.8920426E-1,-1.0431367E0,-1.4155641E-1,-3.3428725E-2,-8.4735465E-1,-9.857248E-2,1.8138258E-2,1.1760364E-1,1.3331152E-1,-6.962029E-1,6.722003E-1,1.1627228E0,1.949927E0,-3.6252382E-1,-1.07251E0,-1.0588427E0,-1.590053E0,-4.1292217E-1,1.1631123E-1,-8.662959E-4,9.0828747E-1,1.213722E0,7.169705E-2,-3.7027605E-2,-7.057229E-1,2.2196515E-2,-3.9638993E-1,1.0201188E-1,-1.5944494E0,7.1121246E-1,4.9308732E-2,-5.789729E-2,9.461779E-3,1.2575078E-1,-2.639767E-2,5.475218E-2,-8.408856E-2,-2.1561498E-5,1.3870224E-2,-1.1771063E-1,1.04210116E-1,-2.4278566E-2,-5.8652516E-2,-1.4234196E-1,1.8376458E-2,-5.718167E-4,-8.110276E-3,-1.3089973E-1,4.8262425E-2,-4.5251783E-2],"split_indices":[26,11,11,21,19,16,11,20,0,28,9,4,20,9,4,20,23,0,0,19,0,0,0,0,28,7,16,21,17,20,22,16,23,0,0,23,21,0,0,18,0,23,0,14,18,0,0,0,0,0,0,0,0,0,0,0,0,0,0,0,0,0,0,0,0],"split_type":[0,0,0,0,0,0,0,0,0,0,0,0,0,0,0,0,0,0,0,0,0,0,0,0,0,0,0,0,0,0,0,0,0,0,0,0,0,0,0,0,0,0,0,0,0,0,0,0,0,0,0,0,0,0,0,0,0,0,0,0,0,0,0,0,0],"sum_hessian":[5.5763446E2,1.0403677E2,4.5359772E2,9.1307526E1,1.2729245E1,2.5635775E1,4.2796194E2,8.890032E1,2.4072044E0,7.284025E0,5.44522E0,8.812574E0,1.68232E1,1.26292715E1,4.1533267E2,1.0523558E1,7.837676E1,5.1189294E0,2.165096E0,3.2276223E0,2.2175977E0,1.2074375E0,7.6051373E0,3.1481376E0,1.3675062E1,4.190361E0,8.4389105E0,3.7983792E2,3.549475E1,5.3897004E0,5.1338573E0,1.9848454E1,5.8528313E1,1.7315083E0,1.4961139E0,1.0039616E1,3.6354463E0,2.222392E0,1.9679688E0,7.2458344E0,1.193076E0,3.7720212E2,2.6358078E0,8.422155E0,2.7072596E1,1.9361647E0,3.4535358E0,1.2326882E0,3.9011693E0,6.3702374E0,1.3478216E1,1.4196683E1,4.4331627E1,7.0958023E0,2.9438136E0,2.4005632E0,1.2348831E0,2.6299882E0,4.615846E0,1.3864488E2,2.3855724E2,2.5992928E0,5.822862E0,1.2913565E1,1.415903E1],"tree_param":{"num_deleted":"0","num_feature":"31","num_nodes":"65","size_leaf_vector":"1"}},{"base_weights":[2.3015695E-2,3.3360686E-2,-5.476525E-1,6.319003E-1,2.2041567E-2,1.7468175E-1,-7.968606E-1,9.68416E-2,8.8941854E-1,-3.5511616E-1,4.012624E-2,4.5012385E-2,-1.7789295E-2,-9.68424E-1,-1.1277566E-2,6.688099E-2,-3.394484E-2,9.080502E-4,1.0769169E0,4.8887643E-1,-5.3822726E-1,4.4288883E-1,2.4069885E-2,-1.2706469E-1,-3.4194508E-1,2.4829268E-2,1.3090532E-1,1.2421971E-1,-7.476101E-2,-1.15922906E-1,-1.149548E0,9.8601574E-1,-3.940023E-2,-5.035561E-2,1.1824465E-1,2.7790586E-2,-8.121645E-2,-5.113235E-2,8.775859E-2,-1.2460651E-1,-3.271527E-2,2.1647735E-2,1.0760903E-1,-4.6377473E-2,4.2618196E-2,3.6818774E-3,-3.5511266E-2,3.809974E-2,1.3164678E-3],"categories":[],"categories_nodes":[],"categories_segments":[],"categories_sizes":[],"default_left":[0,0,0,0,0,0,0,0,0,0,0,0,0,0,0,0,0,0,0,0,0,0,0,0,0,0,0,0,0,0,0,0,0,0,0,0,0,0,0,0,0,0,0,0,0,0,0,0,0],"id":22,"left_children":[1,3,5,7,9,11,13,15,17,19,21,-1,-1,23,-1,-1,-1,-1,25,27,29,31,33,-1,35,-1,-1,-1,-1,37,39,41,43,45,47,-1,-1,-1,-1,-1,-1,-1,-1,-1,-1,-1,-1,-1,-1],"loss_changes":[3.2890337E0,3.6791644E0,1.9252748E0,1.3029351E0,3.6703858E0,4.0688896E-1,7.776742E-1,1.3244482E0,1.0934176E0,4.0692515E0,3.3029883E0,0E0,0E0,6.844411E-1,0E0,0E0,0E0,0E0,7.33202E-1,5.506566E0,5.2141705E0,5.1694393E0,3.467104E0,0E0,1.1850308E0,0E0,0E0,0E0,0E0,5.6980634E0,2.551794E-1,4.0826893E-1,2.4374132E0,7.3596663E0,6.02182E0,0E0,0E0,0E0,0E0,0E0,0E0,0E0,0E0,0E0,0E0,0E0,0E0,0E0,0E0],"parents":[2147483647,0,0,1,1,2,2,3,3,4,4,5,5,6,6,7,7,8,8,9,9,10,10,13,13,18,18,19,19,20,20,21,21,22,22,24,24,29,29,30,30,31,31,32,32,33,33,34,34],"right_children":[2,4,6,8,10,12,14,16,18,20,22,-1,-1,24,-1,-1,-1,-1,26,28,30,32,34,-1,36,-1,-1,-1,-1,38,40,42,44,46,48,-1,-1,-1,-1,-1,-1,-1,-1,-1,-1,-1,-1,-1,-1],"split_conditions":[1.9432476E0,-1.7179757E0,-6.6555625E-1,-2.7725685E0,-1.5282347E0,2.0539079E0,2.0539079E0,-3.203952E0,-5.151378E-1,-1.026104E0,-1.4162921E0,4.5012385E-2,-1.7789295E-2,-6.2281156E-1,-1.1277566E-2,6.688099E-2,-3.394484E-2,9.080502E-4,-1.8244548E0,-4.967241E-1,-1.3122287E0,-1.0130537E0,3.9815006E-1,-1.2706469E-1,2.0807106E0,2.4829268E-2,1.3090532E-1,1.2421971E-1,-7.476101E-2,-1.6542518E-1,-6.010856E-1,-1.5169857E0,-4.5627815E-1,6.9751054E-2,2.2260852E-1,2.7790586E-2,-8.121645E-2,-5.113235E-2,8.775859E-2,-1.2460651E-1,-3.271527E-2,2.1647735E-2,1.0760903E-1,-4.6377473E-2,4.2618196E-2,3.6818774E-3,-3.5511266E-2,3.809974E-2,1.3164678E-3],"split_indices":[12,23,4,13,23,11,11,15,4,1,23,0,0,20,0,0,0,0,21,15,21,15,21,0,4,0,0,0,0,14,13,23,16,13,15,0,0,0,0,0,0,0,0,0,0,0,0,0,0],"split_type":[0,0,0,0,0,0,0,0,0,0,0,0,0,0,0,0,0,0,0,0,0,0,0,0,0,0,0,0,0,0,0,0,0,0,0,0,0,0,0,0,0,0,0,0,0,0,0,0,0],"sum_hessian":[5.5303265E2,5.4411066E2,8.922019E0,9.081239E0,5.350294E2,2.3652756E0,6.556743E0,3.3977075E0,