{"learner":{"attributes":{"scikit_learn":"{\"_estimator_type\": \"classifier\"}"},"feature_names":["open","high","low","close","tick_volume","spread","realvolume","hour","dayofweek","sma_10","ema_20","sma_50","ema_100","rsi","macd","macd_h","macd_s","bbl","bbm","bbu","bbb","bbp","atr","stoch_k","stoch_d","ichimoku_ts","ichimoku_ks","close_lag1","close_lag2","volume_lag1","volume_lag2"],"feature_types":["float","float","float","float","float","float","float","float","float","float","float","float","float","float","float","float","float","float","float","float","float","float","float","float","float","float","float","float","float","float","float"],"gradient_booster":{"model":{"gbtree_model_param":{"num_parallel_tree":"1","num_trees":"150"},"iteration_indptr":[0,1,2,3,4,5,6,7,8,9,10,11,12,13,14,15,16,17,18,19,20,21,22,23,24,25,26,27,28,29,30,31,32,33,34,35,36,37,38,39,40,41,42,43,44,45,46,47,48,49,50,51,52,53,54,55,56,57,58,59,60,61,62,63,64,65,66,67,68,69,70,71,72,73,74,75,76,77,78,79,80,81,82,83,84,85,86,87,88,89,90,91,92,93,94,95,96,97,98,99,100,101,102,103,104,105,106,107,108,109,110,111,112,113,114,115,116,117,118,119,120,121,122,123,124,125,126,127,128,129,130,131,132,133,134,135,136,137,138,139,140,141,142,143,144,145,146,147,148,149,150],"tree_info":[0,0,0,0,0,0,0,0,0,0,0,0,0,0,0,0,0,0,0,0,0,0,0,0,0,0,0,0,0,0,0,0,0,0,0,0,0,0,0,0,0,0,0,0,0,0,0,0,0,0,0,0,0,0,0,0,0,0,0,0,0,0,0,0,0,0,0,0,0,0,0,0,0,0,0,0,0,0,0,0,0,0,0,0,0,0,0,0,0,0,0,0,0,0,0,0,0,0,0,0,0,0,0,0,0,0,0,0,0,0,0,0,0,0,0,0,0,0,0,0,0,0,0,0,0,0,0,0,0,0,0,0,0,0,0,0,0,0,0,0,0,0,0,0,0,0,0,0,0,0],"trees":[{"base_weights":[5.929953E-3,4.5440292E-1,-3.0096738E-2,-1.0440248E0,5.318165E-1,9.2074555E-1,-3.9318793E-2,-3.30371E-2,-1.3815427E-1,7.1867085E-1,2.2970662E-2,1.1468841E0,-3.973341E-2,2.2379741E-2,-1.5608159E-1,8.058806E-1,-8.201333E-1,9.127315E-1,-1.9800277E-1,2.8889042E-1,1.3788955E0,-1.0557569E-2,3.410218E-1,7.002873E-3,-2.904471E-1,7.8190304E-2,9.7210985E-1,2.6670896E-4,-1.2699026E-1,-2.1975331E-2,1.2975219E-1,-5.032853E-1,6.191485E-1,6.6913806E-2,-2.1975331E-2,4.0266827E-2,1.5422294E-1,-4.19934E-1,8.715393E-3,4.3916547E-1,-5.767761E-1,-8.635731E-2,6.709298E-1,-7.369415E-1,-2.0887809E-1,-3.2155123E-2,1.20326415E-1,3.9009992E-2,1.15068376E-1,-1.8457046E-2,-1.3298813E-1,1.00356005E-1,-3.973341E-2,5.037064E-2,-6.0285937E-2,-1.3071068E-2,7.311471E-3,-1.3733134E-3,7.262369E-2,-1.1076581E-1,1.2104674E-2,-8.48681E-4,-8.0179416E-2,-9.30077E-2,9.218874E-2,-4.1333463E-2,-1.21016376E-1,-3.871382E-2,-4.7606593E-3],"categories":[],"categories_nodes":[],"categories_segments":[],"categories_sizes":[],"default_left":[0,0,0,0,0,0,0,0,0,0,0,0,0,0,0,0,0,0,0,0,0,0,0,0,0,0,0,0,0,0,0,0,0,0,0,0,0,0,0,0,0,0,0,0,0,0,0,0,0,0,0,0,0,0,0,0,0,0,0,0,0,0,0,0,0,0,0,0,0],"id":0,"left_children":[1,3,5,7,9,11,13,-1,-1,15,17,19,-1,21,23,25,27,29,31,33,35,37,39,41,43,45,47,-1,-1,-1,-1,49,51,-1,-1,-1,-1,53,55,57,59,61,63,65,67,-1,-1,-1,-1,-1,-1,-1,-1,-1,-1,-1,-1,-1,-1,-1,-1,-1,-1,-1,-1,-1,-1,-1,-1],"loss_changes":[2.1728573E1,1.2155031E1,1.0953204E1,8.081455E-1,9.087364E0,4.032502E0,8.893299E0,0E0,0E0,1.0054794E1,5.4401097E0,1.6918163E0,0E0,8.486314E0,9.35333E0,7.9982605E0,1.57618E0,2.6818552E0,5.8621106E0,8.2397985E-1,6.545954E-1,5.79087E0,7.0765285E0,1.2067345E1,8.368332E0,6.4583554E0,5.1893845E0,0E0,0E0,0E0,0E0,4.167283E0,2.938598E0,0E0,0E0,0E0,0E0,5.8792253E0,6.308254E0,8.980913E0,3.0051432E0,9.505873E0,1.05002165E1,4.974451E0,5.709634E0,0E0,0E0,0E0,0E0,0E0,0E0,0E0,0E0,0E0,0E0,0E0,0E0,0E0,0E0,0E0,0E0,0E0,0E0,0E0,0E0,0E0,0E0,0E0,0E0],"parents":[2147483647,0,0,1,1,2,2,3,3,4,4,5,5,6,6,9,9,10,10,11,11,13,13,14,14,15,15,16,16,17,17,18,18,19,19,20,20,21,21,22,22,23,23,24,24,25,25,26,26,31,31,32,32,37,37,38,38,39,39,40,40,41,41,42,42,43,43,44,44],"right_children":[2,4,6,8,10,12,14,-1,-1,16,18,20,-1,22,24,26,28,30,32,34,36,38,40,42,44,46,48,-1,-1,-1,-1,50,52,-1,-1,-1,-1,54,56,58,60,62,64,66,68,-1,-1,-1,-1,-1,-1,-1,-1,-1,-1,-1,-1,-1,-1,-1,-1,-1,-1,-1,-1,-1,-1,-1,-1],"split_conditions":[-8.9284647E-1,-1.7006261E0,-2.1743412E0,-7.574123E-1,4.1102257E-1,-2.1079948E0,4.9511093E-1,-3.30371E-2,-1.3815427E-1,2.708554E0,-8.985136E-1,-8.666582E-1,-3.973341E-2,1.2470795E0,2.4373114E-1,-8.641045E-1,-4.704663E-1,-1.1153723E0,7.227826E-1,-2.3257165E0,-2.8932482E-1,-1.0063944E0,1.2774324E0,8.195663E-2,3.5098466E-1,-1.6884099E-1,-7.281881E-1,2.6670896E-4,-1.2699026E-1,-2.1975331E-2,1.2975219E-1,4.5102537E-1,1.2982801E0,6.6913806E-2,-2.1975331E-2,4.0266827E-2,1.5422294E-1,-1.3585485E0,-8.1083673E-1,7.1520016E-2,2.5737355E0,1.7993007E0,6.7500067E-1,-2.7450022E-1,-2.1968928E-1,-3.2155123E-2,1.20326415E-1,3.9009992E-2,1.15068376E-1,-1.8457046E-2,-1.3298813E-1,1.00356005E-1,-3.973341E-2,5.037064E-2,-6.0285937E-2,-1.3071068E-2,7.311471E-3,-1.3733134E-3,7.262369E-2,-1.1076581E-1,1.2104674E-2,-8.48681E-4,-8.0179416E-2,-9.30077E-2,9.218874E-2,-4.1333463E-2,-1.21016376E-1,-3.871382E-2,-4.7606593E-3],"split_indices":[4,22,12,20,14,9,21,0,0,8,22,14,0,22,0,0,13,4,1,1,7,20,12,0,1,13,8,0,0,0,0,17,0,0,0,0,0,21,13,2,20,21,21,4,4,0,0,0,0,0,0,0,0,0,0,0,0,0,0,0,0,0,0,0,0,0,0,0,0],"split_type":[0,0,0,0,0,0,0,0,0,0,0,0,0,0,0,0,0,0,0,0,0,0,0,0,0,0,0,0,0,0,0,0,0,0,0,0,0,0,0,0,0,0,0,0,0,0,0,0,0,0,0,0,0,0,0,0,0,0,0,0,0,0,0,0,0,0,0,0,0],"sum_hessian":[1.3429933E3,9.8999504E1,1.2439938E3,4.2499785E0,9.474953E1,1.0999945E1,1.2329938E3,1.99999E0,2.2499888E0,6.899966E1,2.574987E1,9.499952E0,1.4999925E0,8.07246E2,4.2574786E2,6.574967E1,3.2499838E0,4.4999776E0,2.1249893E1,2.4999876E0,6.9999647E0,7.3249634E2,7.4749626E1,1.9274904E2,2.3299884E2,1.2499937E1,5.3249733E1,1.4999925E0,1.7499912E0,1.2499938E0,3.2499838E0,1.5749921E1,5.4999723E0,1.2499938E0,1.2499938E0,1.4999925E0,5.4999723E0,3.199984E1,7.004965E2,6.799966E1,6.749966E0,1.6974915E2,2.2999886E1,3.4749825E1,1.9824901E2,9.749951E0,2.7499862E0,1.3249933E1,3.99998E1,1.2249939E1,3.4999824E0,3.99998E0,1.4999925E0,4.999975E0,2.6999865E1,2.2099889E2,4.794976E2,2.6749866E1,4.1249794E1,3.4999824E0,3.2499838E0,1.5399922E2,1.5749921E1,2.7499862E0,2.0249899E1,2.1749891E1,1.2999935E1,9.3499535E1,1.0474947E2],"tree_param":{"num_deleted":"0","num_feature":"31","num_nodes":"69","size_leaf_vector":"1"}},{"base_weights":[-8.156402E-3,-5.5098716E-2,3.456803E-1,-3.504877E-2,-4.754669E-1,5.0905776E-1,-1.3085146E-1,-7.0737995E-2,1.790465E-1,-1.1793289E0,-2.0736234E-1,4.310746E-1,1.3558476E0,-2.9085308E-1,5.442394E-1,-1.6352793E-2,-2.038967E-1,6.386513E-1,8.531083E-2,-1.3659722E0,7.172861E-4,1.0873306E-1,-3.119585E-1,9.8748815E-1,3.376933E-1,1.6199593E-1,-2.153273E-2,-6.338393E-2,-7.4506474E-1,-6.713307E-2,8.5724664E-1,-6.966328E-2,2.3793457E-1,-5.1750875E-1,-8.704764E-2,3.7367645E-1,1.3982722E0,-4.0919623E-1,2.3719896E-1,-2.2247398E-2,-1.4709339E0,-5.6193557E-2,-9.208473E-1,-6.506592E-2,1.1804398E0,1.3005912E-1,7.009833E-1,-5.4000705E-1,6.1704856E-1,-1.0745828E0,-1.1673108E-2,1.2304187E0,-1.6653966E-2,1.7443656E-3,-2.2463629E-2,3.4625318E-2,-1.70179E-2,4.151923E-2,-6.2829174E-2,3.2761864E-2,-2.0951113E-2,7.123823E-3,1.372666E-1,3.7390184E-2,1.61974E-1,-2.601459E-2,-1.4822006E-1,-9.543451E-2,3.0302374E-2,-1.5929697E-1,-3.9448153E-2,-6.576279E-2,2.513617E-2,-2.7396351E-2,-1.6077243E-1,1.499782E-1,9.493807E-3,1.4175023E-1,4.639607E-3,1.00757375E-1,-9.555362E-3,3.840501E-2,-7.8911334E-2,8.377342E-2,-4.0216614E-2,2.5715977E-3,-1.3426143E-1,1.1735326E-1,-9.946241E-2,2.051982E-2,1.4993393E-1],"categories":[],"categories_nodes":[],"categories_segments":[],"categories_sizes":[],"default_left":[0,0,0,0,0,0,0,0,0,0,0,0,0,0,0,0,0,0,0,0,0,0,0,0,0,0,0,0,0,0,0,0,0,0,0,0,0,0,0,0,0,0,0,0,0,0,0,0,0,0,0,0,0,0,0,0,0,0,0,0,0,0,0,0,0,0,0,0,0,0,0,0,0,0,0,0,0,0,0,0,0,0,0,0,0,0,0,0,0,0,0],"id":1,"left_children":[1,3,5,7,9,11,13,15,17,19,21,23,25,27,29,31,33,35,37,39,-1,-1,41,43,45,-1,-1,47,49,-1,51,53,55,57,59,61,63,65,67,-1,69,71,73,-1,75,77,79,81,83,85,87,89,-1,-1,-1,-1,-1,-1,-1,-1,-1,-1,-1,-1,-1,-1,-1,-1,-1,-1,-1,-1,-1,-1,-1,-1,-1,-1,-1,-1,-1,-1,-1,-1,-1,-1,-1,-1,-1,-1,-1],"loss_changes":[2.2450304E1,1.0039706E1,1.2392187E1,8.722674E0,9.9907675E0,7.2142925E0,4.6102204E0,7.0775075E0,6.9744573E0,3.2757206E0,5.822491E0,5.361559E0,4.288023E0,3.4625766E0,3.7126062E0,9.442374E0,1.0342108E1,5.0095377E0,1.0362374E1,1.2028599E0,0E0,0E0,5.9036784E0,5.5825834E0,7.103114E0,0E0,0E0,8.028404E0,2.7044039E0,0E0,2.877695E0,7.7738123E0,5.396077E0,8.190306E0,1.0616486E1,6.4709167E0,9.2415047E-1,4.8092303E0,8.539516E0,0E0,8.8209534E-1,5.343576E0,4.55684E0,0E0,4.704458E0,6.6033864E0,8.51136E0,3.6378036E0,2.6403496E0,2.319004E0,6.4054713E0,1.1387606E0,0E0,0E0,0E0,0E0,0E0,0E0,0E0,0E0,0E0,0E0,0E0,0E0,0E0,0E0,0E0,0E0,0E0,0E0,0E0,0E0,0E0,0E0,0E0,0E0,0E0,0E0,0E0,0E0,0E0,0E0,0E0,0E0,0E0,0E0,0E0,0E0,0E0,0E0,0E0],"parents":[2147483647,0,0,1,1,2,2,3,3,4,4,5,5,6,6,7,7,8,8,9,9,10,10,11,11,12,12,13,13,14,14,15,15,16,16,17,17,18,18,19,19,22,22,23,23,24,24,27,27,28,28,30,30,31,31,32,32,33,33,34,34,35,35,36,36,37,37,38,38,40,40,41,41,42,42,44,44,45,45,46,46,47,47,48,48,49,49,50,50,51,51],"right_children":[2,4,6,8,10,12,14,16,18,20,22,24,26,28,30,32,34,36,38,40,-1,-1,42,44,46,-1,-1,48,50,-1,52,54,56,58,60,62,64,66,68,-1,70,72,74,-1,76,78,80,82,84,86,88,90,-1,-1,-1,-1,-1,-1,-1,-1,-1,-1,-1,-1,-1,-1,-1,-1,-1,-1,-1,-1,-1,-1,-1,-1,-1,-1,-1,-1,-1,-1,-1,-1,-1,-1,-1,-1,-1,-1,-1],"split_conditions":[1.3755991E0,1.2588155E0,5.962562E-1,9.2505306E-1,1.2495414E0,1.1771145E0,9.46984E-1,1.0242801E-1,-1.210472E0,9.21529E-1,-1.5001786E0,-1.4231658E0,7.450921E-2,1.503015E0,-5.2855676E-1,7.452034E-1,-2.7876696E-1,1.1533676E0,-5.206653E-1,-4.9611652E-1,7.172861E-4,1.0873306E-1,1.5078908E0,-2.098337E0,6.1080292E-2,1.6199593E-1,-2.153273E-2,1.1137272E0,1.0596476E0,-6.713307E-2,1.7059283E0,2.7891096E-1,9.821099E-1,-1.3296275E0,-5.068051E-1,-1.5707405E-1,-1.9230793E0,-2.7210814E-1,-1.122289E0,-2.2247398E-2,1.2668658E0,-2.0261217E-2,-5.1391107E-1,-6.506592E-2,1.8296694E0,-1.7187873E0,2.0000938E-1,-3.5392544E-1,7.727934E-1,1.3572768E0,1.3262492E0,-3.861268E-1,-1.6653966E-2,1.7443656E-3,-2.2463629E-2,3.4625318E-2,-1.70179E-2,4.151923E-2,-6.2829174E-2,3.2761864E-2,-2.0951113E-2,7.123823E-3,1.372666E-1,3.7390184E-2,1.61974E-1,-2.601459E-2,-1.4822006E-1,-9.543451E-2,3.0302374E-2,-1.5929697E-1,-3.9448153E-2,-6.576279E-2,2.513617E-2,-2.7396351E-2,-1.6077243E-1,1.499782E-1,9.493807E-3,1.4175023E-1,4.639607E-3,1.00757375E-1,-9.555362E-3,3.840501E-2,-7.8911334E-2,8.377342E-2,-4.0216614E-2,2.5715977E-3,-1.3426143E-1,1.1735326E-1,-9.946241E-2,2.051982E-2,1.4993393E-1],"split_indices":[7,2,16,22,11,26,2,22,23,7,7,13,21,13,15,18,4,19,13,22,0,0,26,19,21,0,0,14,22,0,22,2,23,14,20,14,21,14,16,0,23,21,23,0,7,24,20,21,9,23,22,22,0,0,0,0,0,0,0,0,0,0,0,0,0,0,0,0,0,0,0,0,0,0,0,0,0,0,0,0,0,0,0,0,0,0,0,0,0,0,0],"split_type":[0,0,0,0,0,0,0,0,0,0,0,0,0,0,0,0,0,0,0,0,0,0,0,0,0,0,0,0,0,0,0,0,0,0,0,0,0,0,0,0,0,0,0,0,0,0,0,0,0,0,0,0,0,0,0,0,0,0,0,0,0,0,0,0,0,0,0,0,0,0,0,0,0,0,0,0,0,0,0,0,0,0,0,0,0,0,0,0,0,0,0],"sum_hessian":[1.3494742E3,1.1921589E3,1.573154E2,1.1389202E3,5.323873E1,1.17099815E2,4.021558E1,9.7676514E2,1.6215506E2,1.3747719E1,3.9491013E1,1.0860697E2,8.492843E0,3.297049E1,7.245089E0,6.9431366E2,2.8245148E2,2.6484228E1,1.3567084E2,1.1748374E1,1.9993443E0,2.2496235E0,3.724139E1,1.4231803E1,9.437517E1,7.244077E0,1.2487657E0,2.2727905E1,1.0242584E1,1.2491627E0,5.9959264E0,5.7458075E2,1.19732864E2,7.574095E1,2.0671053E2,2.0741125E1,5.743102E0,3.1481485E1,1.0418935E2,1.2499927E0,1.0498382E1,2.699456E1,1.0246829E1,1.2497106E0,1.2982092E1,6.0916855E1,3.3458317E1,1.3487019E1,9.240887E0,6.746231E0,3.4963534E0,4.246308E0,1.7496186E0,3.6839914E2,2.0618163E2,9.473939E1,2.4993479E1,7.749423E0,6.799152E1,4.6747242E1,1.5996329E2,1.6743454E1,3.997672E0,1.498816E0,4.244286E0,2.8732693E1,2.7487931E0,4.7477865E0,9.944156E1,8.998413E0,1.4999683E0,8.7484455E0,1.8246113E1,5.997441E0,4.249388E0,9.736173E0,3.2459192E0,2.7442446E0,5.8172607E1,2.3967995E1,9.490323E0,2.7487707E0,1.0738248E1,7.7425003E0,1.4983864E0,1.4985542E0,5.247677E0,1.4971993E0,1.9991542E0,1.2487345E0,2.9975734E0],"tree_param":{"num_deleted":"0","num_feature":"31","num_nodes":"91","size_leaf_vector":"1"}},{"base_weights":[-5.402002E-3,4.1191787E-1,-3.716214E-2,5.4523176E-1,-1.9419196E-1,-2.3933129E-1,-1.3453351E-2,5.947546E-1,-7.8445606E-2,-1.0328578E0,1.6227038E-1,-6.731527E-2,-1.0371562E0,1.0957368E-2,-2.2366263E-1,4.6829456E-1,1.1503625E0,-2.1253187E-2,-1.224337E-1,4.756226E-1,-7.000501E-1,6.192426E-1,-1.4629327E-1,-1.1196724E0,2.3198761E-2,-1.0588229E-2,6.579289E-1,2.1235624E-1,-4.278172E-1,6.815497E-1,-1.0361542E-1,1.3315353E0,2.5397E-1,-4.911429E-1,8.380204E-1,-1.0656396E-1,-1.4552707E-2,8.8889205E-1,-2.4854334E-1,-9.5239687E-1,-5.9853233E-2,-8.0415404E-1,-1.5959871E-1,-1.8228274E-2,9.461288E-1,9.7782713E-1,-1.1343587E-2,8.895339E-1,-1.0561933E-1,2.0933898E-1,-5.166785E-1,7.853996E-2,-2.3989769E-2,-4.5179587E-2,7.883596E-2,3.3422243E-2,1.4540444E-1,6.674324E-2,-2.7243737E-2,-1.5699873E-2,-6.065029E-2,3.9147142E-2,1.1864294E-1,-2.2595484E-2,1.1904194E-1,2.5848482E-2,-6.44949E-2,-1.2026786E-1,-9.078944E-4,1.2480686E-2,-3.69057E-2,-1.04200736E-1,2.9192561E-2,7.82238E-3,-8.442057E-3,1.21457435E-1,-2.5123423E-2,5.448199E-2,1.2936884E-1,-7.257656E-2,1.154454E-1,1.050261E-1,-2.929625E-2,-7.719871E-2,2.2023452E-2,-4.6720598E-2,9.089952E-2,-7.145412E-2,-2.0010542E-2],"categories":[],"categories_nodes":[],"categories_segments":[],"categories_sizes":[],"default_left":[0,0,0,0,0,0,0,0,0,0,0,0,0,0,0,0,0,0,0,0,0,0,0,0,0,0,0,0,0,0,0,0,0,0,0,0,0,0,0,0,0,0,0,0,0,0,0,0,0,0,0,0,0,0,0,0,0,0,0,0,0,0,0,0,0,0,0,0,0,0,0,0,0,0,0,0,0,0,0,0,0,0,0,0,0,0,0,0,0],"id":2,"left_children":[1,3,5,7,9,11,13,15,-1,17,19,21,23,25,27,29,31,-1,-1,33,35,37,39,41,-1,43,45,47,49,51,53,55,57,59,61,-1,-1,63,65,67,69,71,-1,73,75,77,79,81,83,85,87,-1,-1,-1,-1,-1,-1,-1,-1,-1,-1,-1,-1,-1,-1,-1,-1,-1,-1,-1,-1,-1,-1,-1,-1,-1,-1,-1,-1,-1,-1,-1,-1,-1,-1,-1,-1,-1,-1],"loss_changes":[1.7867262E1,7.809538E0,6.000523E0,5.630007E0,5.526761E0,1.7965057E1,5.760583E0,4.8128567E0,0E0,6.00966E-1,3.965629E0,6.0103226E0,2.693409E0,1.4034824E1,1.0487726E1,7.8433867E0,1.8437119E0,0E0,0E0,4.0749283E0,6.533487E-1,2.9011974E0,6.8217444E0,2.0216045E0,0E0,7.143124E0,6.9584627E0,8.258255E0,4.631007E0,4.643175E0,6.0015717E0,8.507366E-1,9.424205E-1,3.89753E-2,7.7627325E-1,0E0,0E0,3.280044E0,8.695512E-1,2.2304811E0,5.1977496E0,4.278454E0,0E0,6.1876774E0,2.7937746E0,2.2995605E0,1.0401441E1,2.6304436E0,5.966486E0,5.3896255E0,4.266346E0,0E0,0E0,0E0,0E0,0E0,0E0,0E0,0E0,0E0,0E0,0E0,0E0,0E0,0E0,0E0,0E0,0E0,0E0,0E0,0E0,0E0,0E0,0E0,0E0,0E0,0E0,0E0,0E0,0E0,0E0,0E0,0E0,0E0,0E0,0E0,0E0,0E0,0E0],"parents":[2147483647,0,0,1,1,2,2,3,3,4,4,5,5,6,6,7,7,9,9,10,10,11,11,12,12,13,13,14,14,15,15,16,16,19,19,20,20,21,21,22,22,23,23,25,25,26,26,27,27,28,28,29,29,30,30,31,31,32,32,33,33,34,34,37,37,38,38,39,39,40,40,41,41,43,43,44,44,45,45,46,46,47,47,48,48,49,49,50,50],"right_children":[2,4,6,8,10,12,14,16,-1,18,20,22,24,26,28,30,32,-1,-1,34,36,38,40,42,-1,44,46,48,50,52,54,56,58,60,62,-1,-1,64,66,68,70,72,-1,74,76,78,80,82,84,86,88,-1,-1,-1,-1,-1,-1,-1,-1,-1,-1,-1,-1,-1,-1,-1,-1,-1,-1,-1,-1,-1,-1,-1,-1,-1,-1,-1,-1,-1,-1,-1,-1,-1,-1,-1,-1,-1,-1],"split_conditions":[-9.049902E-1,5.962562E-1,-1.69578E0,9.5821923E-1,5.4440796E-1,-1.9363003E0,1.1478853E0,2.3158854E-1,-7.8445606E-2,-8.641045E-1,1.4484081E0,-2.1743412E0,3.23417E0,1.0818928E0,-3.1683922E-1,-9.30482E-2,2.8264938E-2,-2.1253187E-2,-1.224337E-1,-1.0572792E0,-3.2080764E-1,-2.1870413E0,-2.1523654E0,5.2694815E-1,2.3198761E-2,1.1620549E0,1.1394535E0,-1.3425806E-1,-7.510964E-1,1.0861062E0,1.2624331E-1,1.0728858E0,-1.0704076E0,9.867111E-1,2.6197383E-1,-1.0656396E-1,-1.4552707E-2,5.455125E-2,9.205697E-1,1.5135353E0,1.1016101E-1,2.2360465E-1,-1.5959871E-1,-1.8172975E-1,1.1136363E0,1.1281785E0,9.074166E-2,7.552901E-1,1.0195264E-1,-8.59608E-1,2.5982442E-1,7.853996E-2,-2.3989769E-2,-4.5179587E-2,7.883596E-2,3.3422243E-2,1.4540444E-1,6.674324E-2,-2.7243737E-2,-1.5699873E-2,-6.065029E-2,3.9147142E-2,1.1864294E-1,-2.2595484E-2,1.1904194E-1,2.5848482E-2,-6.44949E-2,-1.2026786E-1,-9.078944E-4,1.2480686E-2,-3.69057E-2,-1.04200736E-1,2.9192561E-2,7.82238E-3,-8.442057E-3,1.21457435E-1,-2.5123423E-2,5.448199E-2,1.2936884E-1,-7.257656E-2,1.154454E-1,1.050261E-1,-2.929625E-2,-7.719871E-2,2.2023452E-2,-4.6720598E-2,9.089952E-2,-7.145412E-2,-2.0010542E-2],"split_indices":[4,16,1,13,13,0,28,14,0,0,13,12,20,25,4,16,20,0,0,4,0,26,12,20,0,12,1,13,20,20,13,7,4,14,12,0,0,15,13,16,4,20,0,15,18,12,14,20,14,20,4,0,0,0,0,0,0,0,0,0,0,0,0,0,0,0,0,0,0,0,0,0,0,0,0,0,0,0,0,0,0,0,0,0,0,0,0,0,0],"split_type":[0,0,0,0,0,0,0,0,0,0,0,0,0,0,0,0,0,0,0,0,0,0,0,0,0,0,0,0,0,0,0,0,0,0,0,0,0,0,0,0,0,0,0,0,0,0,0,0,0,0,0,0,0,0,0,0,0,0,0,0,0,0,0,0,0,0,0,0,0,0,0,0,0,0,0,0,0,0,0,0,0,0,0,0,0,0,0,0,0],"sum_hessian":[1.345897E3,9.43389E1,1.251558E3,7.741246E1,1.692644E1,1.3041248E2,1.1211455E3,7.51657E1,2.246754E0,4.482568E0,1.24438715E1,1.0817388E2,2.2238588E1,1.00534674E3,1.1579881E2,6.2730648E1,1.2435058E1,1.2476019E0,3.234966E0,9.456121E0,2.9877508E0,1.0454236E1,9.771965E1,2.0991549E1,1.2470393E0,9.738974E2,3.1449326E1,3.691602E1,7.888279E1,4.5553017E1,1.717763E1,9.94051E0,2.4945474E0,2.4813595E0,6.9747615E0,1.2451304E0,1.7426203E0,7.957316E0,2.4969196E0,8.493628E0,8.922602E1,1.4244227E1,6.747322E0,9.6715497E2,6.7424526E0,2.0966667E1,1.0482658E1,1.1221221E1,2.5694798E1,9.488961E0,6.939383E1,4.1071754E1,4.4812627E0,1.2709854E1,4.4677753E0,1.4953587E0,8.445151E0,1.2471123E0,1.247435E0,1.2427213E0,1.2386382E0,3.9875698E0,2.987192E0,1.747364E0,6.209952E0,1.248253E0,1.2486666E0,6.4953365E0,1.9982915E0,5.623699E1,3.298903E1,1.1744878E1,2.4993489E0,3.9353452E2,5.736204E2,5.49591E0,1.2465423E0,9.992729E0,1.0973938E1,6.733623E0,3.7490351E0,9.97696E0,1.2442603E0,7.988756E0,1.7706041E1,4.993064E0,4.495897E0,4.1929924E1,2.7463907E1],"tree_param":{"num_deleted":"0","num_feature":"31","num_nodes":"89","size_leaf_vector":"1"}},{"base_weights":[-1.5578938E-2,-5.199135E-2,2.65218E-1,-7.454241E-2,1.7313904E-1,4.273688E-1,-2.4614085E-1,-2.5357725E-2,-2.0686713E-1,3.350734E-1,-1.2364591E-1,6.924332E-1,2.3253517E-1,1.6397393E-1,-5.104412E-1,5.2150603E-2,-1.3015857E-1,-5.7958686E-1,-1.4022028E-1,1.23594835E-1,2.849593E-1,-1.3419302E-1,-2.2698225E-2,-1.1161393E-1,8.6640453E-1,8.092914E-3,6.2253594E-1,-3.1032094E-1,9.842005E-1,-8.0378985E-1,3.349328E-1,7.921389E-2,-4.7751263E-1,1.8284682E-2,-2.6340568E-1,-8.8481176E-1,-2.0414929E-1,-3.7055132E-1,-4.824796E-2,5.241307E-1,5.950969E-2,-4.2435196E-1,3.30572E-1,7.564751E-1,-8.478059E-1,5.1962423E-1,1.245283E0,2.681778E-1,-9.698673E-1,7.273172E-1,-5.100661E-2,7.8468405E-2,-5.7357454E-1,1.3384224E-1,-2.0108031E-2,-1.102124E0,-7.884363E-2,6.9498414E-1,-3.4600537E-2,-1.0444748E-2,1.5394218E-2,3.2721713E-2,-8.432156E-2,-3.3339188E-3,9.5034145E-2,-8.650946E-2,-1.9999685E-2,5.14077E-3,-1.3267963E-1,2.1708073E-2,-8.9433804E-2,-7.958763E-2,-1.3310717E-2,2.3750257E-2,-2.1599283E-2,-1.0386638E-2,7.896631E-2,-8.012117E-2,2.6381282E-2,-6.655665E-2,2.558226E-3,5.6971323E-2,-7.2184876E-2,-2.387896E-2,1.1519368E-1,1.515075E-2,-1.1572053E-1,8.856528E-2,5.0255205E-3,3.1437915E-2,1.383835E-1,7.068782E-2,-9.381401E-3,-1.3442205E-1,3.1916343E-2,1.12376764E-1,2.7298404E-2,-8.05391E-2,3.7515823E-2,-3.511134E-2,-1.2787439E-1,7.9228066E-2,-8.696645E-2,-2.1038782E-2,1.07888006E-1],"categories":[],"categories_nodes":[],"categories_segments":[],"categories_sizes":[],"default_left":[0,0,0,0,0,0,0,0,0,0,0,0,0,0,0,0,0,0,0,0,0,0,0,0,0,0,0,0,0,0,0,0,0,0,0,0,0,0,0,0,0,0,0,0,0,0,0,0,0,0,0,0,0,0,0,0,0,0,0,0,0,0,0,0,0,0,0,0,0,0,0,0,0,0,0,0,0,0,0,0,0,0,0,0,0,0,0,0,0,0,0,0,0,0,0,0,0,0,0,0,0,0,0,0,0],"id":3,"left_children":[1,3,5,7,9,11,13,15,17,19,21,23,25,27,29,31,33,35,37,-1,39,-1,41,43,45,47,49,51,53,55,57,59,61,63,65,67,69,71,73,75,77,79,81,83,85,87,89,91,93,95,-1,-1,97,-1,-1,99,101,103,-1,-1,-1,-1,-1,-1,-1,-1,-1,-1,-1,-1,-1,-1,-1,-1,-1,-1,-1,-1,-1,-1,-1,-1,-1,-1,-1,-1,-1,-1,-1,-1,-1,-1,-1,-1,-1,-1,-1,-1,-1,-1,-1,-1,-1,-1,-1],"loss_changes":[1.384601E1,6.097066E0,1.2995305E1,7.088731E0,5.2997885E0,5.953352E0,4.209341E0,6.4707127E0,7.252144E0,2.8558426E0,4.809513E0,7.0421143E0,6.0998054E0,6.4027066E0,6.069347E0,6.605279E0,6.7022486E0,4.9144115E0,5.315356E0,0E0,3.668518E0,0E0,5.441459E0,6.85198E0,4.7311554E0,1.1777442E1,3.392767E0,3.5318947E0,2.7807393E0,3.7320166E0,1.890741E0,6.0102806E0,6.8721995E0,7.7833834E0,6.6371603E0,1.0092117E1,6.3685684E0,7.1342535E0,8.730334E0,5.6124697E0,6.6206727E0,1.9619992E0,5.555436E0,2.2382994E0,1.9469876E0,3.9221458E0,1.9956341E0,5.8709726E0,5.1238365E0,3.9654465E0,0E0,0E0,2.324771E0,0E0,0E0,1.2001057E0,4.9774804E0,1.8728397E0,0E0,0E0,0E0,0E0,0E0,0E0,0E0,0E0,0E0,0E0,0E0,0E0,0E0,0E0,0E0,0E0,0E0,0E0,0E0,0E0,0E0,0E0,0E0,0E0,0E0,0E0,0E0,0E0,0E0,0E0,0E0,0E0,0E0,0E0,0E0,0E0,0E0,0E0,0E0,0E0,0E0,0E0,0E0,0E0,0E0,0E0,0E0],"parents":[2147483647,0,0,1,1,2,2,3,3,4,4,5,5,6,6,7,7,8,8,9,9,10,10,11,11,12,12,13,13,14,14,15,15,16,16,17,17,18,18,20,20,22,22,23,23,24,24,25,25,26,26,27,27,28,28,29,29,30,30,31,31,32,32,33,33,34,34,35,35,36,36,37,37,38,38,39,39,40,40,41,41,42,42,43,43,44,44,45,45,46,46,47,47,48,48,49,49,52,52,55,55,56,56,57,57],"right_children":[2,4,6,8,10,12,14,16,18,20,22,24,26,28,30,32,34,36,38,-1,40,-1,42,44,46,48,50,52,54,56,58,60,62,64,66,68,70,72,74,76,78,80,82,84,86,88,90,92,94,96,-1,-1,98,-1,-1,100,102,104,-1,-1,-1,-1,-1,-1,-1,-1,-1,-1,-1,-1,-1,-1,-1,-1,-1,-1,-1,-1,-1,-1,-1,-1,-1,-1,-1,-1,-1,-1,-1,-1,-1,-1,-1,-1,-1,-1,-1,-1,-1,-1,-1,-1,-1,-1,-1],"split_conditions":[1.3755991E0,1.3262492E0,6.787312E-1,4.674588E-1,2.1694915E0,1.6783127E0,6.002027E-1,2.674051E-1,-6.0603833E-1,-2.2623358E0,-1.5001786E0,-1.0158298E0,-1.3392971E-1,6.351231E-1,7.1550107E-1,1.2584655E0,2.5340346E-1,-6.947614E-1,-5.449094E-1,1.23594835E-1,3.19844E-2,-1.3419302E-1,8.039167E-1,-7.609829E-1,-2.751776E-1,-3.0398013E-2,4.392779E-1,-5.066788E-1,2.0494003E0,1.0878406E0,2.0494003E0,-7.86807E-1,-7.43395E-1,2.5124267E-1,3.0604473E-1,-1.152849E0,-2.2078209E-1,7.701723E-1,4.557863E-1,-1.6161644E0,-5.8074087E-1,2.1083274E0,1.309946E0,-2.761951E-1,-5.655286E-1,-7.6789916E-2,-1.1612056E0,-4.669626E-1,7.615009E-1,2.63024E-1,-5.100661E-2,7.8468405E-2,1.5927476E0,1.3384224E-1,-2.0108031E-2,9.6843666E-1,1.3675869E0,1.0820156E0,-3.4600537E-2,-1.0444748E-2,1.5394218E-2,3.2721713E-2,-8.432156E-2,-3.3339188E-3,9.5034145E-2,-8.650946E-2,-1.9999685E-2,5.14077E-3,-1.3267963E-1,2.1708073E-2,-8.9433804E-2,-7.958763E-2,-1.3310717E-2,2.3750257E-2,-2.1599283E-2,-1.0386638E-2,7.896631E-2,-8.012117E-2,2.6381282E-2,-6.655665E-2,2.558226E-3,5.6971323E-2,-7.2184876E-2,-2.387896E-2,1.1519368E-1,1.515075E-2,-1.1572053E-1,8.856528E-2,5.0255205E-3,3.1437915E-2,1.383835E-1,7.068782E-2,-9.381401E-3,-1.3442205E-1,3.1916343E-2,1.12376764E-1,2.7298404E-2,-8.05391E-2,3.7515823E-2,-3.511134E-2,-1.2787439E-1,7.9228066E-2,-8.696645E-2,-2.1038782E-2,1.07888006E-1],"split_indices":[7,22,14,7,22,7,15,21,22,18,7,0,21,21,9,18,25,20,26,0,21,0,14,21,20,16,20,22,14,22,14,14,7,17,0,22,20,7,19,0,15,20,25,22,20,16,21,15,17,11,0,0,22,0,0,14,22,14,0,0,0,0,0,0,0,0,0,0,0,0,0,0,0,0,0,0,0,0,0,0,0,0,0,0,0,0,0,0,0,0,0,0,0,0,0,0,0,0,0,0,0,0,0,0,0],"split_type":[0,0,0,0,0,0,0,0,0,0,0,0,0,0,0,0,0,0,0,0,0,0,0,0,0,0,0,0,0,0,0,0,0,0,0,0,0,0,0,0,0,0,0,0,0,0,0,0,0,0,0,0,0,0,0,0,0,0,0,0,0,0,0,0,0,0,0,0,0,0,0,0,0,0,0,0,0,0,0,0,0,0,0,0,0,0,0,0,0,0,0,0,0,0,0,0,0,0,0,0,0,0,0,0,0],"sum_hessian":[1.3518514E3,1.1973939E3,1.5445753E2,1.0889808E3,1.08413086E2,1.1739581E2,3.7061718E1,7.9476196E2,2.942189E2,7.005827E1,3.8354813E1,4.8652206E1,6.874361E1,1.4673085E1,2.2388632E1,4.5715952E2,3.3760245E2,4.346216E1,2.5075674E2,2.4449022E0,6.761337E1,1.9942262E0,3.6360588E1,8.718085E0,3.993412E1,4.4281002E1,2.4462605E1,9.690964E0,4.982122E0,1.6657568E1,5.731063E0,4.3574542E2,2.1414082E1,1.6010313E2,1.774993E2,2.3224367E1,2.0237793E1,7.0691475E1,1.8006528E2,3.2165413E1,3.544796E1,1.6920952E1,1.9439636E1,3.9880183E0,4.7300677E0,2.2088455E1,1.7845667E1,3.5551888E1,8.729115E0,2.271865E1,1.7439528E0,1.4943774E0,8.196587E0,3.7363179E0,1.245804E0,1.1432511E1,5.2250566E0,3.7353437E0,1.9957193E0,1.25905945E2,3.0983948E2,6.723734E0,1.4690347E1,1.526145E2,7.488635E0,1.5716993E1,1.617823E2,7.731358E0,1.5493009E1,1.2993306E1,7.244487E0,2.4483404E1,4.6208073E1,6.6451096E1,1.13614174E2,9.739605E0,2.2425806E1,6.2395E0,2.9208462E1,1.0703461E1,6.2174907E0,1.6213999E1,3.225637E0,1.2466725E0,2.7413456E0,1.2389059E0,3.4911616E0,1.1912115E1,1.0176339E1,2.7354875E0,1.5110179E1,1.5642223E1,1.9909666E1,6.731403E0,1.9977118E0,1.134531E1,1.1373342E1,6.708498E0,1.4880885E0,2.7456439E0,8.686868E0,2.485415E0,2.7396414E0,1.2468249E0,2.488519E0],"tree_param":{"num_deleted":"0","num_feature":"31","num_nodes":"105","size_leaf_vector":"1"}},{"base_weights":[1.1144334E-3,3.5564104E-1,-2.6891213E-2,-1.1715269E-1,4.3679246E-1,5.578485E-1,-3.8787104E-2,-2.2587029E-3,6.247569E-1,8.3077353E-1,-1.2429338E-1,-1.0191497E-1,5.0920576E-2,8.300043E-1,-3.2206365E-1,1.0071119E0,4.020065E-1,2.4597134E-1,1.1032314E0,6.0676087E-2,-7.5379986E-1,1.6195898E-1,-1.4590217E-1,-1.8473431E-1,1.2739351E-1,-1.5599668E-1,1.3311513E-1,-7.2169346E-1,1.1333335E-2,1.4697777E-1,6.346886E-1,-2.7528784E-1,5.9104574E-1,-6.464401E-1,9.782854E-1,-2.7193434E-3,1.3320171E0,1.362461E-2,-1.10905685E-1,2.707729E-1,-6.492961E-1,-1.8233013E-1,9.410446E-2,1.08274736E-1,-5.339321E-1,5.112534E-1,5.164225E-2,3.7192896E-2,-6.688484E-2,3.173998E-2,-1.160211E-1,-3.23431E-2,5.717052E-2,-1.888306E-2,9.4893575E-2,1.3487346E-2,-9.464507E-2,7.066574E-2,-4.644293E-2,-7.9261445E-2,-1.9658342E-2,3.3551335E-2,1.20538644E-1,1.6028412E-2,1.4803044E-1,-1.7917633E-2,5.580877E-2,6.660564E-2,-1.08938016E-1,-1.2687425E-2,-4.7188483E-2,9.800197E-2,-2.1851973E-3,2.6226232E-2,-4.7110457E-2,1.153211E-1,-6.0006093E-2,3.42686E-2,8.3818726E-2,-2.7072592E-2,1.0893438E-2],"categories":[],"categories_nodes":[],"categories_segments":[],"categories_sizes":[],"default_left":[0,0,0,0,0,0,0,0,0,0,0,0,0,0,0,0,0,0,0,0,0,0,0,0,0,0,0,0,0,0,0,0,0,0,0,0,0,0,0,0,0,0,0,0,0,0,0,0,0,0,0,0,0,0,0,0,0,0,0,0,0,0,0,0,0,0,0,0,0,0,0,0,0,0,0,0,0,0,0,0,0],"id":4,"left_children":[1,3,5,-1,7,9,11,13,15,17,19,21,23,25,27,29,31,33,35,-1,37,39,41,43,45,47,-1,49,51,-1,53,55,57,59,61,-1,63,-1,-1,65,67,69,71,73,75,77,79,-1,-1,-1,-1,-1,-1,-1,-1,-1,-1,-1,-1,-1,-1,-1,-1,-1,-1,-1,-1,-1,-1,-1,-1,-1,-1,-1,-1,-1,-1,-1,-1,-1,-1],"loss_changes":[1.3345844E1,1.2707537E1,8.687362E0,0E0,7.772928E0,4.739717E0,6.924804E0,8.046291E0,5.211569E0,2.5834866E0,4.1328106E0,8.352018E0,9.130747E0,4.3546987E0,2.9172263E0,3.135477E0,5.7108817E0,5.194996E0,3.1231441E0,0E0,1.649009E0,9.267707E0,5.3987303E0,1.2768187E1,1.1085314E1,1.2568343E0,0E0,4.900254E0,2.6025789E0,0E0,4.0199156E0,2.9184365E0,4.5008965E0,9.0703964E-2,2.1342754E-1,0E0,1.491024E0,0E0,0E0,1.1931307E1,7.9470067E0,8.527033E0,8.421772E0,6.2240324E0,7.0342674E0,3.1775455E0,5.9445467E0,0E0,0E0,0E0,0E0,0E0,0E0,0E0,0E0,0E0,0E0,0E0,0E0,0E0,0E0,0E0,0E0,0E0,0E0,0E0,0E0,0E0,0E0,0E0,0E0,0E0,0E0,0E0,0E0,0E0,0E0,0E0,0E0,0E0,0E0],"parents":[2147483647,0,0,1,1,2,2,4,4,5,5,6,6,7,7,8,8,9,9,10,10,11,11,12,12,13,13,14,14,15,15,16,16,17,17,18,18,20,20,21,21,22,22,23,23,24,24,25,25,27,27,28,28,30,30,31,31,32,32,33,33,34,34,36,36,39,39,40,40,41,41,42,42,43,43,44,44,45,45,46,46],"right_children":[2,4,6,-1,8,10,12,14,16,18,20,22,24,26,28,30,32,34,36,-1,38,40,42,44,46,48,-1,50,52,-1,54,56,58,60,62,-1,64,-1,-1,66,68,70,72,74,76,78,80,-1,-1,-1,-1,-1,-1,-1,-1,-1,-1,-1,-1,-1,-1,-1,-1,-1,-1,-1,-1,-1,-1,-1,-1,-1,-1,-1,-1,-1,-1,-1,-1,-1,-1],"split_conditions":[-8.9284647E-1,-1.7527974E0,-2.0289383E0,-1.1715269E-1,-4.1496673E-1,-1.000489E0,6.465088E-1,-6.145118E-1,-4.4734782E-1,-2.3836696E0,-1.6582067E-1,-8.61891E-1,-4.940722E-1,-8.639643E-1,-4.083964E-2,-6.301917E-1,-3.721266E-1,2.9203084E0,1.3873318E0,6.0676087E-2,-7.736674E-1,-1.4484105E-1,7.365121E-1,1.077211E-2,-3.7033734E-1,-9.1533697E-1,1.3311513E-1,-6.522694E-1,1.6254112E-1,1.4697777E-1,-1.2315917E0,-3.3024698E-1,1.4747796E0,-1.4278611E0,-9.7395515E-1,-2.7193434E-3,-7.668141E-1,1.362461E-2,-1.10905685E-1,-6.766122E-1,1.19889416E-1,1.1220518E0,8.1865185E-1,3.634845E-1,-2.0128613E0,6.351231E-1,-1.1624461E0,3.7192896E-2,-6.688484E-2,3.173998E-2,-1.160211E-1,-3.23431E-2,5.717052E-2,-1.888306E-2,9.4893575E-2,1.3487346E-2,-9.464507E-2,7.066574E-2,-4.644293E-2,-7.9261445E-2,-1.9658342E-2,3.3551335E-2,1.20538644E-1,1.6028412E-2,1.4803044E-1,-1.7917633E-2,5.580877E-2,6.660564E-2,-1.08938016E-1,-1.2687425E-2,-4.7188483E-2,9.800197E-2,-2.1851973E-3,2.6226232E-2,-4.7110457E-2,1.153211E-1,-6.0006093E-2,3.42686E-2,8.3818726E-2,-2.7072592E-2,1.0893438E-2],"split_indices":[4,22,14,0,0,23,8,20,13,14,1,15,4,20,8,15,15,20,20,0,21,21,20,14,4,20,0,13,21,0,23,23,23,23,21,0,4,0,0,14,22,23,20,20,19,21,23,0,0,0,0,0,0,0,0,0,0,0,0,0,0,0,0,0,0,0,0,0,0,0,0,0,0,0,0,0,0,0,0,0,0],"split_type":[0,0,0,0,0,0,0,0,0,0,0,0,0,0,0,0,0,0,0,0,0,0,0,0,0,0,0,0,0,0,0,0,0,0,0,0,0,0,0,0,0,0,0,0,0,0,0,0,0,0,0,0,0,0,0,0,0,0,0,0,0,0,0,0,0,0,0,0,0,0,0,0,0,0,0,0,0,0,0,0,0],"sum_hessian":[1.3421987E3,9.740749E1,1.2447913E3,4.236958E0,9.317054E1,2.3903948E1,1.2208873E3,2.8226492E1,6.4944046E1,1.6917404E1,6.9865437E0,7.1652673E2,5.0436053E2,7.392596E0,2.0833897E1,2.2610847E1,4.23332E1,5.9815087E0,1.0935896E1,3.2492635E0,3.7372804E0,1.0199413E2,6.145326E2,1.2322409E2,3.8113644E2,2.7232842E0,4.6693115E0,8.946006E0,1.1887891E1,8.769665E0,1.3841182E1,9.137804E0,3.3195396E1,2.7489054E0,3.232603E0,1.9890728E0,8.946823E0,1.2420316E0,2.4952488E0,9.051902E1,1.1475118E1,5.3375946E2,8.077315E1,6.737783E1,5.584626E1,6.1869823E1,3.1926663E2,1.4773225E0,1.2459619E0,2.7369168E0,6.209089E0,7.7067385E0,4.1811523E0,3.933117E0,9.908065E0,6.167664E0,2.97014E0,3.0216146E1,2.9792485E0,1.4996796E0,1.2492259E0,1.4907255E0,1.7418777E0,1.2388237E0,7.707999E0,3.5422306E1,5.5096714E1,2.7480593E0,8.727058E0,4.4917172E2,8.4587746E1,8.486219E0,7.228693E1,5.366269E1,1.3715143E1,1.4863446E0,5.4359917E1,4.2173367E1,1.9696459E1,4.7616333E1,2.716503E2],"tree_param":{"num_deleted":"0","num_feature":"31","num_nodes":"81","size_leaf_vector":"1"}},{"base_weights":[2.7018918E-2,1.9427987E-4,2.419689E-1,1.8023858E-2,-3.337436E-1,3.1740284E-1,-4.5435232E-1,7.981391E-1,1.086767E-2,7.509505E-2,-5.73977E-1,2.7047554E-1,1.1799165E0,-7.38462E-1,9.395731E-2,-1.5944593E-2,1.0834963E0,-2.6269168E-1,4.4820394E-2,-1.7245515E-1,1.1557522E0,5.344528E-1,-7.4521035E-1,2.9970175E-1,-8.744543E-1,1.4637636E-1,3.382724E-2,2.1320783E-2,-9.0328884E-1,5.563183E-1,1.3564442E-1,-2.954126E-1,1.3003021E-1,1.2926063E-1,-8.865927E-3,8.363712E-1,-4.376225E-1,2.8755724E-2,1.3999234E-1,-4.4820933E-3,9.1759986E-1,-9.4871515E-1,-2.665926E-1,5.723963E-1,1.14518784E-1,-2.3450578E-2,-1.1231425E-1,1.624874E-2,-1.1095603E0,1.00563124E-1,-3.447297E-2,-1.3733724E-2,-8.0187954E-2,5.724669E-3,4.5844063E-2,-8.223362E-2,9.6383004E-4,1.3008808E-2,1.0658552E-1,-1.02380864E-1,-2.0106925E-2,2.669616E-2,1.1598257E-1,-1.04996875E-1,9.009597E-3,3.2090344E-2,-1.09724104E-1,-3.4913577E-3,6.927692E-2,-2.9095424E-2,3.600185E-2,2.6404504E-2,-1.3459647E-1],"categories":[],"categories_nodes":[],"categories_segments":[],"categories_sizes":[],"default_left":[0,0,0,0,0,0,0,0,0,0,0,0,0,0,0,0,0,0,0,0,0,0,0,0,0,0,0,0,0,0,0,0,0,0,0,0,0,0,0,0,0,0,0,0,0,0,0,0,0,0,0,0,0,0,0,0,0,0,0,0,0,0,0,0,0,0,0,0,0,0,0,0,0],"id":5,"left_children":[1,3,5,7,9,11,13,15,17,19,21,23,25,27,-1,-1,29,31,33,35,37,39,41,43,45,-1,-1,-1,47,49,-1,51,-1,53,55,57,59,-1,-1,-1,61,63,65,67,69,-1,-1,-1,71,-1,-1,-1,-1,-1,-1,-1,-1,-1,-1,-1,-1,-1,-1,-1,-1,-1,-1,-1,-1,-1,-1,-1,-1],"loss_changes":[7.7733374E0,7.148262E0,8.000839E0,6.354009E0,6.019845E0,5.167061E0,6.6466336E0,2.999878E0,1.0510822E1,6.461074E0,7.6952715E0,4.6070194E0,1.1046734E0,2.239029E0,0E0,0E0,4.1078568E-1,6.7744894E0,4.5635624E0,5.6933136E0,5.4978037E-1,1.3121767E0,3.0313282E0,6.365923E0,2.9161358E-1,0E0,0E0,0E0,2.666932E0,2.1515653E0,0E0,9.753627E0,0E0,9.248239E0,9.283203E0,5.888431E-1,2.0718505E0,0E0,0E0,0E0,2.4095058E-1,2.542036E0,5.939995E0,3.7714157E0,7.779643E0,0E0,0E0,0E0,3.474307E0,0E0,0E0,0E0,0E0,0E0,0E0,0E0,0E0,0E0,0E0,0E0,0E0,0E0,0E0,0E0,0E0,0E0,0E0,0E0,0E0,0E0,0E0,0E0,0E0],"parents":[2147483647,0,0,1,1,2,2,3,3,4,4,5,5,6,6,7,7,8,8,9,9,10,10,11,11,12,12,13,13,16,16,17,17,18,18,19,19,20,20,21,21,22,22,23,23,24,24,28,28,29,29,31,31,33,33,34,34,35,35,36,36,40,40,41,41,42,42,43,43,44,44,48,48],"right_children":[2,4,6,8,10,12,14,16,18,20,22,24,26,28,-1,-1,30,32,34,36,38,40,42,44,46,-1,-1,-1,48,50,-1,52,-1,54,56,58,60,-1,-1,-1,62,64,66,68,70,-1,-1,-1,72,-1,-1,-1,-1,-1,-1,-1,-1,-1,-1,-1,-1,-1,-1,-1,-1,-1,-1,-1,-1,-1,-1,-1,-1],"split_conditions":[1.3755991E0,1.2588155E0,1.4484081E0,-2.1743412E0,-3.1683922E-1,-1.5634489E-1,1.0957352E0,5.455125E-2,-1.6533183E0,-3.7033734E-1,-5.311266E-1,-3.0732116E-1,1.4663993E-1,4.260542E-1,9.395731E-2,-1.5944593E-2,1.3344078E0,1.94332E0,1.9231373E-1,-1.7765602E-1,1.3327043E0,-5.092411E-1,2.5982442E-1,1.6783127E0,-7.153372E-1,1.4637636E-1,3.382724E-2,2.1320783E-2,-1.6979604E0,9.925875E-1,1.3564442E-1,-1.9363003E0,1.3003021E-1,5.1150694E-2,1.4831845E-1,-4.55152E-1,-2.1521978E-1,2.8755724E-2,1.3999234E-1,-4.4820933E-3,1.3112597E0,1.4030806E0,1.4466289E0,-1.041005E0,-7.5790167E-1,-2.3450578E-2,-1.1231425E-1,1.624874E-2,6.5094966E-1,1.00563124E-1,-3.447297E-2,-1.3733724E-2,-8.0187954E-2,5.724669E-3,4.5844063E-2,-8.223362E-2,9.6383004E-4,1.3008808E-2,1.0658552E-1,-1.02380864E-1,-2.0106925E-2,2.669616E-2,1.1598257E-1,-1.04996875E-1,9.009597E-3,3.2090344E-2,-1.09724104E-1,-3.4913577E-3,6.927692E-2,-2.9095424E-2,3.600185E-2,2.6404504E-2,-1.3459647E-1],"split_indices":[7,2,13,12,4,4,28,15,28,4,16,4,13,15,0,0,23,13,12,23,1,24,4,7,15,0,0,0,9,13,0,0,0,0,26,13,15,0,0,0,28,24,14,9,24,0,0,0,16,0,0,0,0,0,0,0,0,0,0,0,0,0,0,0,0,0,0,0,0,0,0,0,0],"split_type":[0,0,0,0,0,0,0,0,0,0,0,0,0,0,0,0,0,0,0,0,0,0,0,0,0,0,0,0,0,0,0,0,0,0,0,0,0,0,0,0,0,0,0,0,0,0,0,0,0,0,0,0,0,0,0,0,0,0,0,0,0,0,0,0,0,0,0,0,0,0,0,0,0],"sum_hessian":[1.3471521E3,1.1985768E3,1.4857524E2,1.1387242E3,5.985262E1,1.3454398E2,1.4031259E1,9.34613E0,1.129378E3,2.2406967E1,3.7445656E1,1.288473E2,5.69668E0,1.2046227E1,1.9850314E0,2.2470045E0,7.099126E0,1.2395195E2,1.0054261E3,1.8914555E1,3.4924119E0,4.726812E0,3.271884E1,1.2635999E2,2.4873092E0,3.7072337E0,1.9894465E0,1.7350351E0,1.03111925E1,3.4581528E0,3.6409729E0,1.2220462E2,1.7473285E0,3.9023672E2,6.151894E2,3.4884934E0,1.5426062E1,1.2446212E0,2.2477908E0,2.2333167E0,2.493495E0,2.2268318E1,1.0450524E1,5.025909E1,7.61009E1,1.2398298E0,1.2474794E0,1.7064523E0,8.60474E0,2.2300544E0,1.2280984E0,9.410448E1,2.8100143E1,3.2115277E2,6.908394E1,1.2716462E1,6.0247296E2,1.239759E0,2.2487345E0,3.478416E0,1.1947645E1,1.2467477E0,1.2467474E0,2.0280796E1,1.9875219E0,6.4806213E0,3.9699035E0,8.431277E0,4.1827812E1,2.8629917E1,4.7470985E1,1.2463015E0,7.3584385E0],"tree_param":{"num_deleted":"0","num_feature":"31","num_nodes":"73","size_leaf_vector":"1"}},{"base_weights":[-1.4417835E-2,3.0506104E-1,-3.8893946E-2,5.663576E-1,4.326822E-2,-4.619339E-1,-2.7026428E-2,1.1001587E0,3.3029097E-1,-1.3746561E-1,1.3291025E-1,7.839802E-1,-6.079976E-1,5.635582E-3,-1.5799652E-1,4.0705878E-1,1.3057433E-1,5.7798004E-1,-3.6633328E-1,3.4062254E-1,-3.517227E-1,-1.9409401E-2,1.2985924E-1,-7.6719487E-1,1.4589451E-1,-8.933428E-3,5.0723743E-1,8.776862E-1,-1.8851072E-1,-7.860276E-2,1.0554164E-1,-4.8462737E-2,7.5303483E-1,-1.1770346E-1,-7.321671E-2,-4.400324E-2,1.0831475E0,-9.525484E-1,5.938808E-2,-9.960638E-1,-3.4023064E-1,8.75247E-1,-5.7526845E-1,-1.866636E-1,1.5832635E-2,8.49133E-1,-2.0378803E-1,-7.378105E-2,1.3399482E0,-6.682395E-1,-1.4654903E-1,9.362808E-2,-4.4468258E-2,3.787837E-2,1.1821707E-1,-7.944796E-2,2.8430013E-2,-4.8094384E-2,1.1005884E-1,1.2770943E-1,2.7123526E-2,-1.2323667E-1,-6.73069E-3,6.0222805E-2,-6.405776E-2,3.476942E-3,-1.1035196E-1,-7.088029E-2,9.5671505E-2,1.15054384E-1,2.1049019E-2,5.7353727E-3,-1.0229951E-1,-5.349686E-3,-5.952248E-2,5.5336136E-2,3.2580257E-4,1.0168091E-1,-4.956876E-2,-6.783995E-2,5.0228395E-2,1.4823414E-1,4.1723233E-2,4.860599E-2,-7.9656735E-2,1.0580661E-1,-1.7391061E-2],"categories":[],"categories_nodes":[],"categories_segments":[],"categories_sizes":[],"default_left":[0,0,0,0,0,0,0,0,0,0,0,0,0,0,0,0,0,0,0,0,0,0,0,0,0,0,0,0,0,0,0,0,0,0,0,0,0,0,0,0,0,0,0,0,0,0,0,0,0,0,0,0,0,0,0,0,0,0,0,0,0,0,0,0,0,0,0,0,0,0,0,0,0,0,0,0,0,0,0,0,0,0,0,0,0,0,0],"id":6,"left_children":[1,3,5,7,9,11,13,15,17,-1,19,21,23,25,27,29,-1,31,33,35,37,-1,-1,39,41,43,45,47,49,-1,-1,51,53,-1,55,57,59,61,63,65,67,69,71,73,75,77,79,-1,81,83,85,-1,-1,-1,-1,-1,-1,-1,-1,-1,-1,-1,-1,-1,-1,-1,-1,-1,-1,-1,-1,-1,-1,-1,-1,-1,-1,-1,-1,-1,-1,-1,-1,-1,-1,-1,-1],"loss_changes":[1.0483061E1,6.5016756E0,6.2364087E0,5.642972E0,6.3777795E0,6.646298E0,5.1846185E0,1.4899311E0,6.1608033E0,0E0,4.8261876E0,2.2624664E0,3.8214426E0,7.0995264E0,7.8107085E0,4.4639263E0,0E0,2.868248E0,2.208262E0,9.539309E0,3.6427393E0,0E0,0E0,2.170434E0,3.779869E0,4.1601353E0,6.8388433E0,6.291039E0,4.6490784E0,0E0,0E0,2.9834805E0,2.803359E0,0E0,2.329482E0,1.1959411E1,1.4455872E0,1.3926468E0,4.018866E0,1.8327084E0,5.6878023E0,3.9715767E-1,1.1167259E0,6.256954E0,5.6074343E0,4.7230663E0,3.594723E0,0E0,1.535244E-1,3.1552086E0,7.373552E0,0E0,0E0,0E0,0E0,0E0,0E0,0E0,0E0,0E0,0E0,0E0,0E0,0E0,0E0,0E0,0E0,0E0,0E0,0E0,0E0,0E0,0E0,0E0,0E0,0E0,0E0,0E0,0E0,0E0,0E0,0E0,0E0,0E0,0E0,0E0,0E0],"parents":[2147483647,0,0,1,1,2,2,3,3,4,4,5,5,6,6,7,7,8,8,10,10,11,11,12,12,13,13,14,14,15,15,17,17,18,18,19,19,20,20,23,23,24,24,25,25,26,26,27,27,28,28,31,31,32,32,34,34,35,35,36,36,37,37,38,38,39,39,40,40,41,41,42,42,43,43,44,44,45,45,46,46,48,48,49,49,50,50],"right_children":[2,4,6,8,10,12,14,16,18,-1,20,22,24,26,28,30,-1,32,34,36,38,-1,-1,40,42,44,46,48,50,-1,-1,52,54,-1,56,58,60,62,64,66,68,70,72,74,76,78,80,-1,82,84,86,-1,-1,-1,-1,-1,-1,-1,-1,-1,-1,-1,-1,-1,-1,-1,-1,-1,-1,-1,-1,-1,-1,-1,-1,-1,-1,-1,-1,-1,-1,-1,-1,-1,-1,-1,-1],"split_conditions":[-8.9284647E-1,-7.6789916E-2,-1.0283872E0,-4.5517364E-1,-4.7622472E-2,-1.0335158E0,1.0969983E0,-4.1496673E-1,-7.230982E-2,-1.3746561E-1,7.8834586E-2,-1.0884202E0,7.247422E-1,1.0366751E0,-2.1132069E0,-1.6189524E0,1.3057433E-1,-8.287843E-1,-1.998363E0,-6.413633E-3,9.0202856E-1,-1.9409401E-2,1.2985924E-1,-2.2593629E-2,-1.1126112E0,-1.6533183E0,6.3841575E-1,1.1336266E0,-7.3148555E-1,-7.860276E-2,1.0554164E-1,-1.0390866E0,-4.3289202E-1,-1.1770346E-1,2.2360465E-1,-4.5065647E-1,9.098304E-1,6.465088E-1,1.2131776E0,-1.1069213E0,-2.2809707E-1,6.465088E-1,3.326576E-1,-1.950821E0,-1.2888211E0,1.4217117E0,1.0778351E0,-7.378105E-2,2.1299756E0,-1.0063944E0,-6.9969046E-1,9.362808E-2,-4.4468258E-2,3.787837E-2,1.1821707E-1,-7.944796E-2,2.8430013E-2,-4.8094384E-2,1.1005884E-1,1.2770943E-1,2.7123526E-2,-1.2323667E-1,-6.73069E-3,6.0222805E-2,-6.405776E-2,3.476942E-3,-1.1035196E-1,-7.088029E-2,9.5671505E-2,1.15054384E-1,2.1049019E-2,5.7353727E-3,-1.0229951E-1,-5.349686E-3,-5.952248E-2,5.5336136E-2,3.2580257E-4,1.0168091E-1,-4.956876E-2,-6.783995E-2,5.0228395E-2,1.4823414E-1,4.1723233E-2,4.860599E-2,-7.9656735E-2,1.0580661E-1,-1.7391061E-2],"split_indices":[4,16,20,15,16,13,23,0,20,0,20,20,23,23,28,23,0,20,9,15,14,0,0,14,20,28,11,24,20,0,0,20,14,0,20,20,13,8,16,23,15,8,14,10,17,15,23,0,15,20,20,0,0,0,0,0,0,0,0,0,0,0,0,0,0,0,0,0,0,0,0,0,0,0,0,0,0,0,0,0,0,0,0,0,0,0,0],"split_type":[0,0,0,0,0,0,0,0,0,0,0,0,0,0,0,0,0,0,0,0,0,0,0,0,0,0,0,0,0,0,0,0,0,0,0,0,0,0,0,0,0,0,0,0,0,0,0,0,0,0,0,0,0,0,0,0,0,0,0,0,0,0,0,0,0,0,0,0,0,0,0,0,0,0,0,0,0,0,0,0,0,0,0,0,0,0,0],"sum_hessian":[1.3380961E3,9.440421E1,1.2436918E3,4.6664642E1,4.773957E1,3.2902325E1,1.2107896E3,1.3186519E1,3.3478127E1,1.986286E0,4.5753284E1,2.9942417E0,2.9908083E1,9.6987415E2,2.4091533E2,3.6982818E0,9.488237E0,2.4822607E1,8.655518E0,3.2234726E1,1.3518558E1,1.2470076E0,1.7472341E0,2.4679035E1,5.2290473E0,9.434538E2,2.6420393E1,6.1003404E0,2.3481499E2,1.2273732E0,2.4709086E0,5.579441E0,1.9243166E1,1.4976724E0,7.1578455E0,2.1854761E1,1.0379965E1,4.957018E0,8.56154E0,1.5198935E1,9.480102E0,2.493535E0,2.7355123E0,1.1458849E2,8.288653E2,1.7710222E1,8.710172E0,1.2245921E0,4.875748E0,1.7686644E1,2.1712834E2,1.2097528E0,4.3696885E0,1.128454E1,7.9586263E0,1.9671184E0,5.190727E0,1.6236422E1,5.6183395E0,7.916058E0,2.463907E0,3.4685194E0,1.4884984E0,4.9006224E0,3.6609168E0,1.4986523E0,1.3700282E1,7.7353234E0,1.7447784E0,1.2465327E0,1.2470024E0,1.4950122E0,1.2405E0,8.727345E1,2.7315035E1,1.7963661E1,8.109016E2,1.5963726E1,1.746496E0,5.2322917E0,3.4778795E0,3.6984985E0,1.1772497E0,1.4906566E0,1.6195988E1,3.9856806E0,2.1314267E2],"tree_param":{"num_deleted":"0","num_feature":"31","num_nodes":"87","size_leaf_vector":"1"}},{"base_weights":[-2.890071E-3,3.422026E-1,-1.6781036E-2,5.334031E-1,-6.34285E-1,-2.1648608E-2,9.57424E-1,1.7881045E-1,7.7259475E-1,3.3688182E-1,-1.0973153E0,-9.111016E-3,-5.5322474E-1,1.8917877E-2,1.3193913E-1,5.419637E-1,-6.398143E-1,1.0365952E0,2.896047E-1,-1.9947603E-2,6.889048E-2,-1.4097695E-1,-2.0501965E-3,-4.0864386E-2,1.8597373E-1,9.531286E-2,-8.121303E-1,-5.282543E-2,7.644832E-1,2.300989E-1,-1.3320464E-1,4.0786123E-1,1.2570528E0,-5.4230016E-2,4.8101798E-1,-2.7064897E-2,-5.6342524E-1,9.8982996E-1,1.18780896E-1,-6.805648E-1,7.258102E-1,-1.0456094E0,-1.4384028E-1,1.8744593E-2,9.104894E-2,6.923819E-2,-3.953748E-2,-4.3483533E-2,1.1519698E-1,1.439608E-1,4.5155633E-2,1.03777885E-1,2.7611833E-3,-1.8866543E-3,-8.011528E-2,-9.2680745E-2,-1.3810589E-2,1.19217336E-1,-2.470625E-2,-1.4581858E-2,2.4305647E-2,1.7389922E-3,-1.0090902E-1,1.07125215E-1,-3.0641649E-2,-4.4475995E-2,-1.4467369E-1,7.789936E-2,-8.710166E-2],"categories":[],"categories_nodes":[],"categories_segments":[],"categories_sizes":[],"default_left":[0,0,0,0,0,0,0,0,0,0,0,0,0,0,0,0,0,0,0,0,0,0,0,0,0,0,0,0,0,0,0,0,0,0,0,0,0,0,0,0,0,0,0,0,0,0,0,0,0,0,0,0,0,0,0,0,0,0,0,0,0,0,0,0,0,0,0,0,0],"id":7,"left_children":[1,3,5,7,9,11,13,15,17,19,21,23,25,-1,-1,27,29,31,33,-1,-1,-1,-1,35,37,39,41,-1,43,45,-1,47,49,-1,51,53,55,57,59,61,63,65,67,-1,-1,-1,-1,-1,-1,-1,-1,-1,-1,-1,-1,-1,-1,-1,-1,-1,-1,-1,-1,-1,-1,-1,-1,-1,-1],"loss_changes":[6.489193E0,1.011834E1,6.1906548E0,3.6232672E0,4.4320736E0,8.629921E0,1.5553517E0,6.0444613E0,3.038311E0,8.325695E-1,2.1083493E0,7.8548665E0,5.087409E0,0E0,0E0,3.6944294E0,4.1292195E0,1.7800827E0,1.9553139E0,0E0,0E0,0E0,0E0,7.846861E0,9.470282E0,5.09624E0,3.1932755E0,0E0,8.275223E-1,1.3336828E0,0E0,4.121912E0,1.0802155E0,0E0,2.2888794E0,6.7327404E0,4.1995544E0,3.6874704E0,5.4596043E0,1.102992E0,2.3515112E0,3.1457272E0,5.1799116E0,0E0,0E0,0E0,0E0,0E0,0E0,0E0,0E0,0E0,0E0,0E0,0E0,0E0,0E0,0E0,0E0,0E0,0E0,0E0,0E0,0E0,0E0,0E0,0E0,0E0,0E0],"parents":[2147483647,0,0,1,1,2,2,3,3,4,4,5,5,6,6,7,7,8,8,9,9,10,10,11,11,12,12,15,15,16,16,17,17,18,18,23,23,24,24,25,25,26,26,28,28,29,29,31,31,32,32,34,34,35,35,36,36,37,37,38,38,39,39,40,40,41,41,42,42],"right_children":[2,4,6,8,10,12,14,16,18,20,22,24,26,-1,-1,28,30,32,34,-1,-1,-1,-1,36,38,40,42,-1,44,46,-1,48,50,-1,52,54,56,58,60,62,64,66,68,-1,-1,-1,-1,-1,-1,-1,-1,-1,-1,-1,-1,-1,-1,-1,-1,-1,-1,-1,-1,-1,-1,-1,-1,-1,-1],"split_conditions":[-1.012971E0,6.0460496E-1,2.497335E0,-7.291815E-1,-8.985136E-1,2.6843061E0,5.7356006E-1,-9.826211E-1,5.490963E-1,7.342057E-1,1.022752E0,9.2505306E-1,-3.1941447E-1,1.8917877E-2,1.3193913E-1,-1.7006261E0,-5.7936424E-1,-4.5065647E-1,5.5901635E-1,-1.9947603E-2,6.889048E-2,-1.4097695E-1,-2.0501965E-3,1.600841E0,-1.4891912E0,-1.6711147E-1,9.494079E-1,-5.282543E-2,-7.662125E-1,-8.391907E-1,-1.3320464E-1,-3.2644662E-1,8.6378044E-1,-5.4230016E-2,-2.3124565E-1,1.7804459E0,-5.920383E-1,-3.713672E-1,-3.2610014E-2,1.0878406E0,2.4826756E0,-1.04595706E-1,1.5945731E0,1.8744593E-2,9.104894E-2,6.923819E-2,-3.953748E-2,-4.3483533E-2,1.1519698E-1,1.439608E-1,4.5155633E-2,1.03777885E-1,2.7611833E-3,-1.8866543E-3,-8.011528E-2,-9.2680745E-2,-1.3810589E-2,1.19217336E-1,-2.470625E-2,-1.4581858E-2,2.4305647E-2,1.7389922E-3,-1.0090902E-1,1.07125215E-1,-3.0641649E-2,-4.4475995E-2,-1.4467369E-1,7.789936E-2,-8.710166E-2],"split_indices":[4,16,21,22,22,4,24,22,0,14,14,22,1,0,0,22,20,20,27,0,0,0,0,24,24,14,16,0,16,22,0,24,20,0,22,15,7,16,4,22,15,16,14,0,0,0,0,0,0,0,0,0,0,0,0,0,0,0,0,0,0,0,0,0,0,0,0,0,0],"split_type":[0,0,0,0,0,0,0,0,0,0,0,0,0,0,0,0,0,0,0,0,0,0,0,0,0,0,0,0,0,0,0,0,0,0,0,0,0,0,0,0,0,0,0,0,0,0,0,0,0,0,0,0,0,0,0,0,0,0,0,0,0,0,0,0,0,0,0,0,0],"sum_hessian":[1.3515023E3,5.1382175E1,1.3001201E3,4.3348167E1,8.034005E0,1.2946294E3,5.4907784E0,1.8165724E1,2.5182446E1,2.681735E0,5.3522706E0,1.265792E3,2.8837439E1,2.246151E0,3.2446277E0,1.2817613E1,5.348111E0,1.5541381E1,9.641064E0,1.2343572E0,1.4473778E0,3.9088511E0,1.4434195E0,1.0892831E3,1.7650885E2,8.407982E0,2.0429459E1,1.9698004E0,1.0847812E1,2.665736E0,2.682375E0,4.77458E0,1.0766801E1,1.4604849E0,8.180579E0,1.0622827E3,2.7000359E1,1.255669E1,1.6395216E2,3.733814E0,4.674167E0,1.4721599E1,5.707859E0,2.6517072E0,8.196105E0,1.4713211E0,1.1944149E0,2.4338713E0,2.340709E0,8.135717E0,2.6310837E0,3.0933025E0,5.0872765E0,1.0521637E3,1.0119078E1,1.3924517E1,1.3075843E1,1.0822406E1,1.7342842E0,5.2339962E1,1.11612206E2,1.4981177E0,2.2356963E0,3.4738216E0,1.2003456E0,6.737806E0,7.9837933E0,2.4841073E0,3.2237518E0],"tree_param":{"num_deleted":"0","num_feature":"31","num_nodes":"69","size_leaf_vector":"1"}},{"base_weights":[3.730711E-3,2.997203E-1,-2.2345016E-2,-8.063299E-1,3.4622225E-1,7.0747316E-2,-8.720871E-2,-4.793247E-3,-1.22635566E-1,4.1595674E-1,-2.2098412E-1,8.7090634E-2,-4.7616544E-1,-2.9377058E-1,-4.7849935E-2,1.6009831E-1,6.279683E-1,-5.962236E-1,1.02522194E-1,-5.4583065E-2,1.6540682E-1,5.941145E-1,-8.8389313E-1,8.261568E-1,-3.4076738E-1,-5.7734635E-2,8.8662654E-1,-5.227955E-1,4.4770423E-1,9.826344E-1,3.2094362E-1,4.4591684E-2,-7.856077E-1,1.8028907E-1,-2.0721053E-1,7.943271E-1,8.390575E-2,-9.4766475E-2,1.4029448E-1,-1.1034907E0,1.9378593E-2,2.5255699E-3,1.3532813E-1,2.6543912E-1,-4.397405E-1,-1.2101912E-2,-3.7274405E-1,1.1084611E-3,1.273645E-1,-6.824248E-2,6.1036017E-2,6.544226E-2,-4.3368217E-2,-3.446726E-2,1.17019296E-1,4.776184E-2,-5.852387E-2,2.0739788E-2,-1.152933E-1,-2.1648366E-2,4.5422677E-2,2.5680238E-2,-3.5742957E-2,5.5710714E-2,1.277495E-1,-1.1624383E-3,3.0615514E-2,-1.8756576E-2,-1.21966004E-1,7.071325E-2,-6.844846E-2,-2.1247888E-2,-5.7546373E-2,1.6572124E-3,-4.3137982E-2,8.339063E-2,-4.217411E-2],"categories":[],"categories_nodes":[],"categories_segments":[],"categories_sizes":[],"default_left":[0,0,0,0,0,0,0,0,0,0,0,0,0,0,0,0,0,0,0,0,0,0,0,0,0,0,0,0,0,0,0,0,0,0,0,0,0,0,0,0,0,0,0,0,0,0,0,0,0,0,0,0,0,0,0,0,0,0,0,0,0,0,0,0,0,0,0,0,0,0,0,0,0,0,0,0,0],"id":8,"left_children":[1,3,5,7,9,11,13,-1,-1,15,17,19,21,23,25,27,29,31,-1,33,35,37,39,41,43,45,47,49,51,53,55,-1,57,59,61,63,65,-1,-1,67,-1,-1,-1,69,71,73,75,-1,-1,-1,-1,-1,-1,-1,-1,-1,-1,-1,-1,-1,-1,-1,-1,-1,-1,-1,-1,-1,-1,-1,-1,-1,-1,-1,-1,-1,-1],"loss_changes":[1.0388462E1,5.88414E0,7.4763875E0,1.4374971E0,4.2560673E0,4.5872984E0,5.917296E0,0E0,0E0,5.0038395E0,6.306591E0,5.497489E0,7.0321755E0,6.4169245E0,5.7226496E0,8.872362E0,5.250763E0,2.3225784E0,0E0,6.377124E0,1.627491E1,7.204954E0,2.864338E0,2.0710993E0,6.8714733E0,8.742582E0,2.1842937E0,2.8576343E0,6.020679E0,6.1871376E0,4.38027E0,0E0,3.4556599E0,7.727643E0,7.596003E0,3.4668522E0,6.019618E0,0E0,0E0,7.770891E-1,0E0,0E0,0E0,7.375434E0,2.874529E0,6.409586E0,4.9018393E0,0E0,0E0,0E0,0E0,0E0,0E0,0E0,0E0,0E0,0E0,0E0,0E0,0E0,0E0,0E0,0E0,0E0,0E0,0E0,0E0,0E0,0E0,0E0,0E0,0E0,0E0,0E0,0E0,0E0,0E0],"parents":[2147483647,0,0,1,1,2,2,3,3,4,4,5,5,6,6,9,9,10,10,11,11,12,12,13,13,14,14,15,15,16,16,17,17,19,19,20,20,21,21,22,22,23,23,24,24,25,25,26,26,27,27,28,28,29,29,30,30,32,32,33,33,34,34,35,35,36,36,39,39,43,43,44,44,45,45,46,46],"right_children":[2,4,6,8,10,12,14,-1,-1,16,18,20,22,24,26,28,30,32,-1,34,36,38,40,42,44,46,48,50,52,54,56,-1,58,60,62,64,66,-1,-1,68,-1,-1,-1,70,72,74,76,-1,-1,-1,-1,-1,-1,-1,-1,-1,-1,-1,-1,-1,-1,-1,-1,-1,-1,-1,-1,-1,-1,-1,-1,-1,-1,-1,-1,-1,-1],"split_conditions":[-8.695436E-1,-1.7006261E0,-1.8172975E-1,-7.574123E-1,1.2847751E0,9.9144083E-1,-7.281881E-1,-4.793247E-3,-1.22635566E-1,-4.154927E-1,1.1559429E0,-4.679071E-1,-1.1156231E0,-8.117788E-1,2.497335E0,-3.721266E-1,1.6783127E0,-4.7736117E-1,1.02522194E-1,-1.2521307E0,-1.6724385E-1,-1.7764575E0,-2.3748712E-1,-1.6073585E-1,-8.4291935E-1,1.4363263E0,5.7356006E-1,8.642429E-1,-5.563056E-1,-1.5064421E0,-9.049902E-1,4.4591684E-2,-1.0704076E0,2.2197717E-1,-1.4634652E0,6.465088E-1,-2.2511033E-2,-9.4766475E-2,1.4029448E-1,-1.0580469E0,1.9378593E-2,2.5255699E-3,1.3532813E-1,4.2926547E-1,-4.3805167E-1,1.3606383E0,-2.2234917E0,1.1084611E-3,1.273645E-1,-6.824248E-2,6.1036017E-2,6.544226E-2,-4.3368217E-2,-3.446726E-2,1.17019296E-1,4.776184E-2,-5.852387E-2,2.0739788E-2,-1.152933E-1,-2.1648366E-2,4.5422677E-2,2.5680238E-2,-3.5742957E-2,5.5710714E-2,1.277495E-1,-1.1624383E-3,3.0615514E-2,-1.8756576E-2,-1.21966004E-1,7.071325E-2,-6.844846E-2,-2.1247888E-2,-5.7546373E-2,1.6572124E-3,-4.3137982E-2,8.339063E-2,-4.217411E-2],"split_indices":[4,22,15,20,23,24,8,0,0,20,21,14,17,4,21,15,7,20,0,14,16,0,15,16,20,21,24,11,20,16,4,0,4,19,23,8,24,0,0,22,0,0,0,24,16,4,11,0,0,0,0,0,0,0,0,0,0,0,0,0,0,0,0,0,0,0,0,0,0,0,0,0,0,0,0,0,0],"split_type":[0,0,0,0,0,0,0,0,0,0,0,0,0,0,0,0,0,0,0,0,0,0,0,0,0,0,0,0,0,0,0,0,0,0,0,0,0,0,0,0,0,0,0,0,0,0,0,0,0,0,0,0,0,0,0,0,0,0,0,0,0,0,0,0,0,0,0,0,0,0,0,0,0,0,0,0,0],"sum_hessian":[1.3441117E3,1.07975136E2,1.2361366E3,3.6972082E0,1.0427792E2,5.0757483E2,7.285617E2,1.7149025E0,1.9823056E0,9.309868E1,1.1179247E1,4.936635E2,1.3911317E1,1.1556936E2,6.129924E2,4.2982254E1,5.0116425E1,8.99298E0,2.1862664E0,1.7585162E2,3.178119E2,3.7115116E0,1.0199804E1,3.986747E0,1.1158261E2,6.075045E2,5.4878426E0,1.2495378E1,3.0486876E1,2.2232998E1,2.7883427E1,1.1746377E0,7.8183427E0,6.919266E1,1.06658966E2,3.5456684E1,2.823552E2,1.2180451E0,2.4934666E0,8.453328E0,1.7464767E0,1.998374E0,1.9883729E0,1.5424744E1,9.615787E1,5.3154285E2,7.5961655E1,1.997528E0,3.4903145E0,1.1301136E1,1.1942418E0,2.490356E1,5.5833154E0,2.6489968E0,1.9584E1,2.4176376E1,3.7070503E0,2.228724E0,5.5896187E0,2.834596E1,4.0846695E1,2.591142E1,8.074754E1,2.5225035E1,1.023165E1,1.9813705E2,8.421815E1,1.2457706E0,7.2075577E0,1.0703463E1,4.7212815E0,3.691354E1,5.9244328E1,4.9841705E2,3.3125816E1,2.339021E0,7.3622635E1],"tree_param":{"num_deleted":"0","num_feature":"31","num_nodes":"77","size_leaf_vector":"1"}},{"base_weights":[1.6043881E-2,4.4387653E-2,-1.3043267E-1,1.8357597E-2,2.517736E-1,1.3122976E-1,-3.714188E-1,-4.1247685E-2,1.3388035E-1,8.086862E-1,1.8136644E-1,8.191027E-1,6.849609E-2,-9.7776234E-1,-2.6013207E-1,2.790984E-2,-1.9671139E-1,6.521257E-2,3.065415E-1,9.897603E-1,-4.199071E-2,3.0298704E-1,-1.2047115E-1,1.4703588E-1,-9.505663E-3,-1.254236E-1,1.0557693E-1,-3.5035777E-1,-1.412393E0,-1.1837806E0,-1.8010531E-1,-6.591917E-2,1.3723579E-1,-3.8939038E-1,-2.6610347E-2,1.2583134E-1,-3.6963737E-1,4.3941146E-1,-3.1073955E-1,2.419094E-1,1.1721233E0,7.8340185E-1,1.8202451E-1,-4.7118175E-1,3.032237E-1,-9.738056E-2,8.397265E-2,5.565683E-1,1.0952386E-2,3.1830332E-1,-8.8194853E-1,-1.570674E-1,-1.655527E-2,-1.0690174E-2,-1.4834872E-1,3.2931492E-1,-3.0227098E-1,-4.3470687E-3,-1.431259E-1,1.9596172E-2,-5.1578302E-2,-2.4551509E-2,-7.4468836E-2,-3.572079E-2,2.8274177E-2,4.484151E-2,5.1209587E-3,-5.41353E-2,9.9849656E-2,2.5523424E-2,8.245974E-2,-8.878093E-2,3.4204468E-3,6.2337507E-2,-2.8194565E-2,3.7030783E-2,1.2921236E-1,4.176108E-2,1.14489056E-1,-1.9232761E-2,3.990717E-2,-8.115774E-2,2.7109085E-2,7.454596E-2,-4.1375566E-2,8.343675E-2,-1.2106283E-2,-4.5071695E-2,1.2930472E-2,8.528405E-2,-5.9252765E-2,-1.3467197E-1,2.858947E-2,4.943811E-2,-5.04719E-2,-4.9128693E-2,1.8018391E-2],"categories":[],"categories_nodes":[],"categories_segments":[],"categories_sizes":[],"default_left":[0,0,0,0,0,0,0,0,0,0,0,0,0,0,0,0,0,0,0,0,0,0,0,0,0,0,0,0,0,0,0,0,0,0,0,0,0,0,0,0,0,0,0,0,0,0,0,0,0,0,0,0,0,0,0,0,0,0,0,0,0,0,0,0,0,0,0,0,0,0,0,0,0,0,0,0,0,0,0,0,0,0,0,0,0,0,0,0,0,0,0,0,0,0,0,0,0],"id":9,"left_children":[1,3,5,7,9,11,13,15,17,19,21,23,25,27,29,31,33,35,37,39,-1,41,43,-1,45,-1,47,49,51,53,55,57,59,61,63,65,67,69,71,73,75,77,79,81,83,-1,-1,85,87,89,91,-1,-1,-1,-1,93,95,-1,-1,-1,-1,-1,-1,-1,-1,-1,-1,-1,-1,-1,-1,-1,-1,-1,-1,-1,-1,-1,-1,-1,-1,-1,-1,-1,-1,-1,-1,-1,-1,-1,-1,-1,-1,-1,-1,-1,-1],"loss_changes":[5.604588E0,6.0989814E0,1.3851704E1,6.9301915E0,4.7942667E0,4.5045004E0,7.4524107E0,7.1459675E0,4.0409083E0,3.497572E0,4.190439E0,4.7312717E0,4.93635E0,4.2360115E0,7.0204635E0,4.7331996E0,6.695468E0,6.539604E0,8.107709E0,1.4037466E0,0E0,4.5610924E0,5.0784283E0,0E0,4.7817454E0,0E0,4.0990105E0,3.2771358E0,1.6975136E0,2.3018808E0,5.7776833E0,7.5545235E0,8.270489E0,4.717454E0,1.1324373E1,5.198982E0,7.680219E0,5.492446E0,3.5735974E0,9.122436E-1,4.535284E-1,1.634656E0,5.4364185E0,4.9105635E0,5.2708826E0,0E0,0E0,3.2376943E0,4.458533E0,2.6808548E0,3.0779932E0,0E0,0E0,0E0,0E0,2.745037E0,6.846954E0,0E0,0E0,0E0,0E0,0E0,0E0,0E0,0E0,0E0,0E0,0E0,0E0,0E0,0E0,0E0,0E0,0E0,0E0,0E0,0E0,0E0,0E0,0E0,0E0,0E0,0E0,0E0,0E0,0E0,0E0,0E0,0E0,0E0,0E0,0E0,0E0,0E0,0E0,0E0,0E0],"parents":[2147483647,0,0,1,1,2,2,3,3,4,4,5,5,6,6,7,7,8,8,9,9,10,10,11,11,12,12,13,13,14,14,15,15,16,16,17,17,18,18,19,19,21,21,22,22,24,24,26,26,27,27,28,28,29,29,30,30,31,31,32,32,33,33,34,34,35,35,36,36,37,37,38,38,39,39,40,40,41,41,42,42,43,43,44,44,47,47,48,48,49,49,50,50,55,55,56,56],"right_children":[2,4,6,8,10,12,14,16,18,20,22,24,26,28,30,32,34,36,38,40,-1,42,44,-1,46,-1,48,50,52,54,56,58,60,62,64,66,68,70,72,74,76,78,80,82,84,-1,-1,86,88,90,92,-1,-1,-1,-1,94,96,-1,-1,-1,-1,-1,-1,-1,-1,-1,-1,-1,-1,-1,-1,-1,-1,-1,-1,-1,-1,-1,-1,-1,-1,-1,-1,-1,-1,-1,-1,-1,-1,-1,-1,-1,-1,-1,-1,-1,-1],"split_conditions":[1.1544685E0,1.3755991E0,2.6531976E-1,1.8137379E-1,-6.322528E-2,-2.0577307E0,1.2086893E0,4.674588E-1,1.7833633E-2,1.1859936E0,5.587804E-1,1.1016101E-1,-5.525887E-1,5.0268936E-1,2.6201817E-1,-4.0351933E-1,4.812946E-2,-1.9568539E-1,1.5821439E0,-1.1047668E0,-4.199071E-2,-8.792934E-1,8.553304E-1,1.4703588E-1,8.380137E-2,-1.254236E-1,-9.36066E-1,4.323893E-1,1.1405573E0,2.3158854E-1,2.409595E-1,1.8428564E-2,1.1791718E0,6.604722E-2,2.6813516E-1,-2.056892E-1,9.9882966E-1,9.2505306E-1,1.6510605E0,-1.1234614E-1,-3.9743307E-1,6.1329335E-2,-8.571463E-1,8.3735514E-1,6.465088E-1,-9.738056E-2,8.397265E-2,1.3388645E-2,-5.1525867E-1,7.304321E-1,-3.1970248E-1,-1.570674E-1,-1.655527E-2,-1.0690174E-2,-1.4834872E-1,3.7010273E-1,1.5477413E0,-4.3470687E-3,-1.431259E-1,1.9596172E-2,-5.1578302E-2,-2.4551509E-2,-7.4468836E-2,-3.572079E-2,2.8274177E-2,4.484151E-2,5.1209587E-3,-5.41353E-2,9.9849656E-2,2.5523424E-2,8.245974E-2,-8.878093E-2,3.4204468E-3,6.2337507E-2,-2.8194565E-2,3.7030783E-2,1.2921236E-1,4.176108E-2,1.14489056E-1,-1.9232761E-2,3.990717E-2,-8.115774E-2,2.7109085E-2,7.454596E-2,-4.1375566E-2,8.343675E-2,-1.2106283E-2,-4.5071695E-2,1.2930472E-2,8.528405E-2,-5.9252765E-2,-1.3467197E-1,2.858947E-2,4.943811E-2,-5.04719E-2,-4.9128693E-2,1.8018391E-2],"split_indices":[24,7,1,16,5,0,24,7,20,16,3,4,14,15,10,24,4,20,20,15,0,15,12,0,22,0,22,16,14,14,14,14,10,20,28,13,24,22,22,16,22,19,24,24,8,0,0,7,22,0,20,0,0,0,0,4,14,0,0,0,0,0,0,0,0,0,0,0,0,0,0,0,0,0,0,0,0,0,0,0,0,0,0,0,0,0,0,0,0,0,0,0,0,0,0,0,0],"split_type":[0,0,0,0,0,0,0,0,0,0,0,0,0,0,0,0,0,0,0,0,0,0,0,0,0,0,0,0,0,0,0,0,0,0,0,0,0,0,0,0,0,0,0,0,0,0,0,0,0,0,0,0,0,0,0,0,0,0,0,0,0,0,0,0,0,0,0,0,0,0,0,0,0,0,0,0,0,0,0,0,0,0,0,0,0,0,0,0,0,0,0,0,0,0,0,0,0],"sum_hessian":[1.3475563E3,1.1296598E3,2.178965E2,1.00464966E3,1.2501013E2,1.0468506E2,1.1321145E2,6.631387E2,3.41511E2,1.2853615E1,1.1215652E2,7.741617E0,9.6943436E1,1.6348886E1,9.6862564E1,4.59536E2,2.0360263E2,2.4532307E2,9.618792E1,1.1371972E1,1.481643E0,7.994155E1,3.2214966E1,3.9010448E0,3.8405724E0,1.7484678E0,9.519497E1,7.4298058E0,8.919082E0,6.6235013E0,9.023906E1,2.475087E2,2.1202733E2,9.486115E1,1.0874148E2,2.159324E2,2.939068E1,7.938782E1,1.6800104E1,2.6855109E0,8.6864605E0,1.4978106E1,6.496344E1,1.756422E1,1.4650745E1,1.7297539E0,2.1108186E0,1.5662734E1,7.9532234E1,3.4683583E0,3.9614472E0,7.683918E0,1.2351635E0,1.7374263E0,4.886075E0,1.7126673E1,7.311239E1,2.4452022E2,2.9884834E0,1.9517516E2,1.6852175E1,6.872321E1,2.6137943E1,5.249092E1,5.6250553E1,3.962548E1,1.7630692E2,2.6650116E1,2.7405646E0,5.4832294E1,2.455552E1,5.696477E0,1.1103627E1,1.4440169E0,1.2414939E0,1.6626807E0,7.02378E0,8.516003E0,6.4621034E0,2.388378E1,4.1079662E1,1.1977941E1,5.5862803E0,9.036978E0,5.613768E0,1.0944618E1,4.7181163E0,1.5655384E1,6.387685E1,2.2257848E0,1.2425735E0,2.7241418E0,1.2373054E0,1.463705E1,2.4896224E0,5.2518433E1,2.0593954E1],"tree_param":{"num_deleted":"0","num_feature":"31","num_nodes":"97","size_leaf_vector":"1"}},{"base_weights":[-5.3270306E-3,-3.0969217E-4,-7.3660773E-1,-2.0890396E-2,1.642436E-1,4.2964365E-2,-1.0244172E0,-2.584895E-2,9.178879E-1,5.751615E-2,6.184585E-1,-1.216287E-1,-4.8877242E-1,-3.0329652E-2,7.540792E-1,1.0212493E-2,1.21259E-1,1.7412518E-1,-3.8927495E-1,7.080858E-1,-7.264124E-2,-6.287772E-2,-1.1293306E-2,-1.8391212E-2,-3.6693564E-1,-5.9262156E-2,1.167787E0,2.4887082E-1,-6.304329E-1,1.6033226E-1,-7.3815453E-1,1.7032836E-1,8.478151E-1,-3.107406E-3,3.28411E-2,-1.0934563E-1,-2.0301688E-2,1.3845746E-1,2.3670882E-2,7.771481E-2,1.6156115E-2,5.137827E-2,-8.918247E-2,-4.867747E-2,6.626958E-2,-8.659864E-3,-1.23745434E-1,7.926791E-2,-6.49445E-2,9.300985E-2,1.1345539E-2],"categories":[],"categories_nodes":[],"categories_segments":[],"categories_sizes":[],"default_left":[0,0,0,0,0,0,0,0,0,0,0,0,0,0,0,0,0,0,0,0,0,0,0,0,0,0,0,0,0,0,0,0,0,0,0,0,0,0,0,0,0,0,0,0,0,0,0,0,0,0,0],"id":10,"left_children":[1,3,5,7,9,-1,11,13,15,17,19,-1,21,23,25,-1,-1,27,29,31,-1,-1,-1,33,35,-1,37,39,41,43,45,47,49,-1,-1,-1,-1,-1,-1,-1,-1,-1,-1,-1,-1,-1,-1,-1,-1,-1,-1],"loss_changes":[4.8621745E0,4.464312E0,3.4711633E0,5.4778037E0,7.0683813E0,0E0,1.8024492E-1,4.099286E0,1.3627248E0,6.307414E0,3.86279E0,0E0,1.21572495E-1,4.6579013E0,4.425924E0,0E0,0E0,5.9099855E0,4.930587E0,1.8505716E0,0E0,0E0,0E0,4.945573E0,4.5066786E0,0E0,7.7504635E-1,3.9449005E0,2.9750855E0,3.7575965E0,4.9451694E0,3.9469566E0,1.1526985E0,0E0,0E0,0E0,0E0,0E0,0E0,0E0,0E0,0E0,0E0,0E0,0E0,0E0,0E0,0E0,0E0,0E0,0E0],"parents":[2147483647,0,0,1,1,2,2,3,3,4,4,6,6,7,7,8,8,9,9,10,10,12,12,13,13,14,14,17,17,18,18,19,19,23,23,24,24,26,26,27,27,28,28,29,29,30,30,31,31,32,32],"right_children":[2,4,6,8,10,-1,12,14,16,18,20,-1,22,24,26,-1,-1,28,30,32,-1,-1,-1,34,36,-1,38,40,42,44,46,48,50,-1,-1,-1,-1,-1,-1,-1,-1,-1,-1,-1,-1,-1,-1,-1,-1,-1,-1],"split_conditions":[1.5118375E0,1.3755991E0,-3.7884843E-1,2.497335E0,8.406235E-1,4.2964365E-2,1.0347352E-1,1.4766427E0,-5.406187E-1,7.9266083E-1,1.4793752E0,-1.216287E-1,-5.920383E-1,1.2588155E0,-5.5626553E-1,1.0212493E-2,1.21259E-1,7.1710235E-1,2.9557464E-1,-1.1047668E0,-7.264124E-2,-6.287772E-2,-1.1293306E-2,1.180231E0,1.0962805E0,-5.9262156E-2,1.505042E0,-1.0250654E0,-8.222255E-1,-3.2264093E-1,-3.0436632E-1,-1.2843759E0,1.2131776E0,-3.107406E-3,3.28411E-2,-1.0934563E-1,-2.0301688E-2,1.3845746E-1,2.3670882E-2,7.771481E-2,1.6156115E-2,5.137827E-2,-8.918247E-2,-4.867747E-2,6.626958E-2,-8.659864E-3,-1.23745434E-1,7.926791E-2,-6.49445E-2,9.300985E-2,1.1345539E-2],"split_indices":[9,7,20,21,26,0,20,25,20,15,1,0,7,2,13,0,0,18,16,15,0,0,0,19,12,0,28,21,14,16,9,24,16,0,0,0,0,0,0,0,0,0,0,0,0,0,0,0,0,0,0],"split_type":[0,0,0,0,0,0,0,0,0,0,0,0,0,0,0,0,0,0,0,0,0,0,0,0,0,0,0,0,0,0,0,0,0,0,0,0,0,0,0,0,0,0,0,0,0,0,0,0,0,0,0],"sum_hessian":[1.3242367E3,1.3162065E3,8.0301075E0,1.1706644E3,1.4554213E2,1.491895E0,6.538213E0,1.1654808E3,5.1835136E0,1.18762886E2,2.6779236E1,3.878296E0,2.6599169E0,1.159779E3,5.7018423E0,1.732985E0,3.4505286E0,9.466605E1,2.4096834E1,2.554998E1,1.2292554E0,1.4476535E0,1.2122633E0,1.1210725E3,3.870656E1,1.2383391E0,4.4635034E0,8.725088E1,7.4151707E0,9.566574E0,1.453026E1,5.727255E0,1.9822725E1,1.0823987E3,3.867382E1,6.081486E0,3.2625072E1,3.2254417E0,1.2380618E0,1.12543125E1,7.599657E1,1.1993918E0,6.215779E0,4.1945286E0,5.372046E0,6.8130646E0,7.7171955E0,3.2744374E0,2.4528177E0,1.758574E1,2.2369866E0],"tree_param":{"num_deleted":"0","num_feature":"31","num_nodes":"51","size_leaf_vector":"1"}},{"base_weights":[-9.430234E-3,6.826591E-4,-4.2448542E-1,-2.1488791E-2,2.2832395E-1,-5.623313E-1,7.7134454E-1,-1.2729537E-2,-6.6987556E-1,8.030221E-1,1.4376166E-1,-1.3198538E-1,-1.0166763E0,1.602116E-2,1.01354085E-1,2.1470243E-1,-3.1600066E-2,-1.3017823E0,-7.7834465E-2,1.1920602E0,7.305771E-2,-8.4162104E-1,1.9522671E-1,-9.5220834E-1,1.4940977E-1,2.114148E-1,-1.3017671E0,3.3749503E-1,-2.8086102E-1,1.3539879E-2,-1.3750225E-1,-5.5550046E-2,-1.4645866E-1,-4.520293E-1,9.683494E-2,1.424389E-1,2.7284596E-2,-4.6970767E-1,6.485037E-1,3.5704833E-2,-1.4140384E-1,-4.4881392E-1,2.751698E-1,-1.6593125E-2,-1.2252181E-1,-4.6307227E-1,7.9463977E-1,6.1413582E-2,-2.8710408E-2,-1.4182718E-1,-1.9589495E-2,6.176504E-2,1.039392E-2,-8.19445E-2,2.3817964E-2,2.2315902E-3,-7.751649E-2,-4.3124255E-2,-9.077108E-3,-7.4995965E-2,4.4487704E-2,2.0784402E-2,-8.930645E-2,1.0285437E-1,-4.1733272E-3,-8.883348E-2,4.8374932E-2,3.2041147E-2,-4.6993E-2,5.964866E-2,-7.847072E-2,1.0699395E-1,-2.6590517E-2],"categories":[],"categories_nodes":[],"categories_segments":[],"categories_sizes":[],"default_left":[0,0,0,0,0,0,0,0,0,0,0,0,0,0,0,0,0,0,0,0,0,0,0,0,0,0,0,0,0,0,0,0,0,0,0,0,0,0,0,0,0,0,0,0,0,0,0,0,0,0,0,0,0,0,0,0,0,0,0,0,0,0,0,0,0,0,0,0,0,0,0,0,0],"id":11,"left_children":[1,3,5,7,9,11,13,15,17,19,21,23,25,-1,-1,27,29,31,33,35,37,39,41,43,45,47,49,51,53,55,57,-1,-1,59,-1,-1,-1,61,63,-1,-1,65,67,-1,-1,69,71,-1,-1,-1,-1,-1,-1,-1,-1,-1,-1,-1,-1,-1,-1,-1,-1,-1,-1,-1,-1,-1,-1,-1,-1,-1,-1],"loss_changes":[5.5684156E0,6.5460367E0,5.635242E0,6.703928E0,5.4786315E0,5.5109644E0,3.82766E-1,5.0159736E0,5.7851596E0,4.043989E0,5.3148375E0,3.829783E0,5.140109E0,0E0,0E0,5.544095E0,5.158084E0,1.03411674E-1,4.034239E0,1.6239796E0,2.2169318E0,4.0930214E0,5.134863E0,7.0185304E-1,5.4106073E0,8.746138E-1,1.1931133E0,4.661433E0,5.3189135E0,5.258213E0,4.3869367E0,0E0,0E0,2.3239968E0,0E0,0E0,0E0,1.2557783E0,9.3269193E-1,0E0,0E0,4.990778E0,3.0902343E0,0E0,0E0,2.914237E0,2.2062483E0,0E0,0E0,0E0,0E0,0E0,0E0,0E0,0E0,0E0,0E0,0E0,0E0,0E0,0E0,0E0,0E0,0E0,0E0,0E0,0E0,0E0,0E0,0E0,0E0,0E0,0E0],"parents":[2147483647,0,0,1,1,2,2,3,3,4,4,5,5,6,6,7,7,8,8,9,9,10,10,11,11,12,12,15,15,16,16,17,17,18,18,19,19,20,20,21,21,22,22,23,23,24,24,25,25,26,26,27,27,28,28,29,29,30,30,33,33,37,37,38,38,41,41,42,42,45,45,46,46],"right_children":[2,4,6,8,10,12,14,16,18,20,22,24,26,-1,-1,28,30,32,34,36,38,40,42,44,46,48,50,52,54,56,58,-1,-1,60,-1,-1,-1,62,64,-1,-1,66,68,-1,-1,70,72,-1,-1,-1,-1,-1,-1,-1,-1,-1,-1,-1,-1,-1,-1,-1,-1,-1,-1,-1,-1,-1,-1,-1,-1,-1,-1],"split_conditions":[2.6843061E0,1.22016E0,2.497335E0,1.94332E0,-1.386432E0,2.1542948E-1,5.4271507E0,-9.049902E-1,2.3028558E-1,2.1694915E0,-1.5001786E0,-5.591435E-1,-8.786838E-1,1.602116E-2,1.01354085E-1,6.0460496E-1,4.674588E-1,2.0274444E0,1.5548251E0,-1.4634652E0,7.053091E-1,1.5561534E0,-1.0250654E0,-1.0335158E0,1.3675869E0,4.674588E-1,1.3572768E0,1.6783127E0,8.998066E-1,1.6517713E0,-7.899954E-1,-5.5550046E-2,-1.4645866E-1,1.8932049E0,9.683494E-2,1.424389E-1,2.7284596E-2,1.5154527E-1,2.3047192E0,3.5704833E-2,-1.4140384E-1,8.765351E-1,1.6156366E0,-1.6593125E-2,-1.2252181E-1,-6.894944E-1,2.4826756E0,6.1413582E-2,-2.8710408E-2,-1.4182718E-1,-1.9589495E-2,6.176504E-2,1.039392E-2,-8.19445E-2,2.3817964E-2,2.2315902E-3,-7.751649E-2,-4.3124255E-2,-9.077108E-3,-7.4995965E-2,4.4487704E-2,2.0784402E-2,-8.930645E-2,1.0285437E-1,-4.1733272E-3,-8.883348E-2,4.8374932E-2,3.2041147E-2,-4.6993E-2,5.964866E-2,-7.847072E-2,1.0699395E-1,-2.6590517E-2],"split_indices":[4,22,21,13,23,26,4,4,4,22,7,16,24,0,0,16,7,13,23,23,0,22,21,13,22,7,23,7,16,24,20,0,0,15,0,0,0,3,20,0,0,19,23,0,0,20,15,0,0,0,0,0,0,0,0,0,0,0,0,0,0,0,0,0,0,0,0,0,0,0,0,0,0],"split_type":[0,0,0,0,0,0,0,0,0,0,0,0,0,0,0,0,0,0,0,0,0,0,0,0,0,0,0,0,0,0,0,0,0,0,0,0,0,0,0,0,0,0,0,0,0,0,0,0,0,0,0,0,0,0,0,0,0,0,0,0,0,0,0,0,0,0,0,0,0,0,0,0,0],"sum_hessian":[1.3255626E3,1.2950079E3,3.0554745E1,1.1808982E3,1.1410968E2,2.7871674E1,2.6830716E0,1.1661638E3,1.4734431E1,1.3546869E1,1.0056281E2,1.4976627E1,1.2895045E1,1.2330973E0,1.4499743E0,8.855085E1,1.0776129E3,6.5473776E0,8.187054E0,8.424142E0,5.1227274E0,4.2294664E0,9.633334E1,3.2166657E0,1.1759962E1,2.4781775E0,1.0416868E1,7.122213E1,1.732872E1,7.5617267E2,3.2144028E2,1.9626813E0,4.5846963E0,6.4485044E0,1.7385495E0,6.285842E0,2.1383E0,2.7307818E0,2.3919456E0,1.4885713E0,2.7408953E0,1.0127733E1,8.620561E1,1.2434046E0,1.9732611E0,6.177915E0,5.582047E0,1.242512E0,1.2356657E0,9.168468E0,1.2483993E0,3.1633041E1,3.958909E1,8.22022E0,9.108501E0,7.4881226E2,7.3604274E0,4.2989716E1,2.7845056E2,4.963566E0,1.4849383E0,1.2458872E0,1.4848945E0,1.2265072E0,1.1654384E0,6.915742E0,3.211991E0,8.180827E1,4.3973384E0,1.2396389E0,4.938276E0,4.424629E0,1.1574179E0],"tree_param":{"num_deleted":"0","num_feature":"31","num_nodes":"73","size_leaf_vector":"1"}},{"base_weights":[7.6356363E-3,1.7934816E-2,-4.8176396E-1,2.4738503E-1,1.9637187E-4,1.0498482E-1,-6.46819E-1,6.356989E-1,8.468837E-2,-4.7006845E-3,7.816628E-1,-8.873127E-1,2.5394565E-1,7.298025E-1,-3.8691808E-2,-1.8454666E-1,4.4217783E-1,8.468964E-3,-2.8344452E-1,1.7555328E-1,1.13387465E-1,1.1501036E-1,-1.0323435E0,1.0939709E-1,-4.0377182E-1,-3.662201E-2,8.1285787E-1,-3.7719145E-1,2.8274E-1,8.4642583E-1,-1.9316119E-1,2.0174556E-3,6.863874E-1,-1.393035E0,-9.259241E-2,7.579353E-2,-4.8064142E-2,-5.4113504E-2,7.16699E-2,-1.2022061E0,-4.4661063E-1,1.281426E-2,-7.4115396E-2,-2.3617616E-2,8.893609E-2,4.7268726E-2,-4.9370274E-2,-6.1568707E-2,7.573284E-2,9.919105E-2,8.497384E-4,7.343131E-2,-7.252379E-2,-3.3639766E-2,1.3462458E-3,9.204625E-2,-6.2474567E-2,-1.7220043E-2,-1.5946476E-1,8.281564E-2,-2.1650665E-2,-1.2899652E-1,-2.8565088E-2,-8.9459665E-2,3.7799485E-2],"categories":[],"categories_nodes":[],"categories_segments":[],"categories_sizes":[],"default_left":[0,0,0,0,0,0,0,0,0,0,0,0,0,0,0,0,0,0,0,0,0,0,0,0,0,0,0,0,0,0,0,0,0,0,0,0,0,0,0,0,0,0,0,0,0,0,0,0,0,0,0,0,0,0,0,0,0,0,0,0,0,0,0,0,0],"id":12,"left_children":[1,3,5,7,9,-1,11,13,15,17,19,21,23,25,-1,27,29,31,33,35,-1,37,39,-1,41,-1,43,45,47,49,51,53,55,57,59,-1,-1,-1,-1,61,63,-1,-1,-1,-1,-1,-1,-1,-1,-1,-1,-1,-1,-1,-1,-1,-1,-1,-1,-1,-1,-1,-1,-1,-1],"loss_changes":[6.7407165E0,5.327925E0,7.6472626E0,5.8809204E0,4.657617E0,0E0,5.7496376E0,2.9367704E0,6.564402E0,4.442566E0,1.4189682E0,3.0769672E0,3.840304E0,2.628562E0,0E0,3.6287167E0,7.670617E0,5.0542355E0,1.1432941E1,1.881001E0,0E0,1.7585986E0,1.2418327E0,0E0,8.451881E-1,0E0,2.1451654E0,3.0190501E0,5.579833E0,2.1918764E0,6.543317E0,4.4433546E0,3.91847E0,1.6800737E0,5.616533E0,0E0,0E0,0E0,0E0,6.9872475E-1,2.4106061E0,0E0,0E0,0E0,0E0,0E0,0E0,0E0,0E0,0E0,0E0,0E0,0E0,0E0,0E0,0E0,0E0,0E0,0E0,0E0,0E0,0E0,0E0,0E0,0E0],"parents":[2147483647,0,0,1,1,2,2,3,3,4,4,6,6,7,7,8,8,9,9,10,10,11,11,12,12,13,13,15,15,16,16,17,17,18,18,19,19,21,21,22,22,24,24,26,26,27,27,28,28,29,29,30,30,31,31,32,32,33,33,34,34,39,39,40,40],"right_children":[2,4,6,8,10,-1,12,14,16,18,20,22,24,26,-1,28,30,32,34,36,-1,38,40,-1,42,-1,44,46,48,50,52,54,56,58,60,-1,-1,-1,-1,62,64,-1,-1,-1,-1,-1,-1,-1,-1,-1,-1,-1,-1,-1,-1,-1,-1,-1,-1,-1,-1,-1,-1,-1,-1],"split_conditions":[1.6156366E0,-8.9284647E-1,-2.0338812E0,-5.4018277E-1,2.497335E0,1.0498482E-1,6.0171384E-1,-4.704663E-1,3.3129513E-1,1.632213E0,8.136419E-1,-4.329125E-1,7.213679E-1,-2.1249924E0,-3.8691808E-2,-4.154927E-1,1.0778351E0,1.5548929E0,-1.0714674E-1,6.5668386E-1,1.13387465E-1,1.6544988E0,2.7063012E0,1.0939709E-1,-5.357548E-1,-3.662201E-2,-2.3836696E0,-1.2116436E0,-1.5591354E0,1.2215929E0,-2.108693E-3,-1.8086182E0,7.479662E-1,3.3870512E-1,-1.1613957E0,7.579353E-2,-4.8064142E-2,-5.4113504E-2,7.16699E-2,1.8792695E0,-1.1938303E0,1.281426E-2,-7.4115396E-2,-2.3617616E-2,8.893609E-2,4.7268726E-2,-4.9370274E-2,-6.1568707E-2,7.573284E-2,9.919105E-2,8.497384E-4,7.343131E-2,-7.252379E-2,-3.3639766E-2,1.3462458E-3,9.204625E-2,-6.2474567E-2,-1.7220043E-2,-1.5946476E-1,8.281564E-2,-2.1650665E-2,-1.2899652E-1,-2.8565088E-2,-8.9459665E-2,3.7799485E-2],"split_indices":[23,4,0,14,21,0,17,13,21,21,24,20,17,10,0,20,23,21,14,23,0,23,20,0,4,0,14,3,0,14,20,21,0,23,0,0,0,0,0,13,0,0,0,0,0,0,0,0,0,0,0,0,0,0,0,0,0,0,0,0,0,0,0,0,0],"split_type":[0,0,0,0,0,0,0,0,0,0,0,0,0,0,0,0,0,0,0,0,0,0,0,0,0,0,0,0,0,0,0,0,0,0,0,0,0,0,0,0,0,0,0,0,0,0,0,0,0,0,0,0,0,0,0,0,0,0,0,0,0,0,0,0,0],"sum_hessian":[1.3346196E3,1.3080557E3,2.6564047E1,9.293802E1,1.2151176E3,2.0627127E0,2.4501335E1,2.6583344E1,6.6354675E1,1.2085383E3,6.579315E0,1.9350035E1,5.151301E0,2.4605434E1,1.9779094E0,3.8125267E1,2.8229406E1,1.154941E3,5.3597214E1,2.9688137E0,3.6105015E0,2.4720979E0,1.6877935E1,1.9708639E0,3.1804368E0,1.4930724E0,2.3112362E1,2.71324E1,1.0992867E1,1.7049229E1,1.1180179E1,1.145047E3,9.894029E0,6.941451E0,4.665576E1,1.4907266E0,1.4780871E0,1.2306765E0,1.2414213E0,1.2267792E1,4.6101446E0,1.4750572E0,1.7053796E0,1.4290894E0,2.1683271E1,2.9026122E0,2.422979E1,3.6969638E0,7.295903E0,1.4370413E1,2.6788158E0,3.9371529E0,7.2430253E0,3.652921E1,1.1085178E3,8.648065E0,1.2459645E0,1.2466514E0,5.6947994E0,4.8600087E0,4.1795753E1,1.0824002E1,1.4437894E0,2.9322524E0,1.6778923E0],"tree_param":{"num_deleted":"0","num_feature":"31","num_nodes":"65","size_leaf_vector":"1"}},{"base_weights":[1.2949672E-2,2.2613429E-2,-3.4313497E-1,4.205771E-1,1.347204E-2,8.743894E-2,-7.57151E-1,6.5994537E-1,-2.460612E-1,-3.6093864E-1,2.2845527E-2,-9.5918916E-2,3.09337E-1,-1.0979534E0,9.1610745E-2,-1.4390415E-1,9.274823E-1,3.9479434E-1,-9.052018E-1,-8.5100955E-1,3.1499398E-1,3.1374753E-2,-3.5560974E-1,-3.4174785E-1,6.805008E-1,-1.2763757E0,-2.338464E-1,7.487318E-2,-2.7833024E-1,-8.238573E-2,4.261506E-1,2.4648528E-1,1.1937718E0,-2.7615888E-2,1.17345E-1,-1.2632613E-1,-3.0299986E-2,2.7131608E-1,-1.0437576E0,-2.4337253E-1,9.4862986E-1,-1.5727118E-1,5.1226024E-2,9.610796E-2,-4.8379534E-1,-7.910256E-1,1.4036793E-1,9.637167E-1,-4.7198944E-2,-3.0656675E-1,-1.5740024E-1,6.105969E-2,-9.781837E-2,2.5924033E-2,-7.591577E-2,9.919349E-2,-2.3080377E-2,1.002818E-1,-5.6344867E-2,1.3111846E-1,3.1193262E-2,1.1256422E-1,-7.094403E-2,2.5152376E-2,-1.1714329E-1,-6.65748E-2,5.189645E-2,1.155414E-1,3.0341754E-2,2.7386898E-3,-5.7615012E-2,1.0975732E-1,4.3677664E-3,-7.890449E-2,6.4414184E-5,-1.0374905E-1,-1.8798769E-2,-4.55642E-2,6.845537E-2,-1.9610867E-2,1.1791646E-1,-1.01411656E-1,4.5283303E-2],"categories":[],"categories_nodes":[],"categories_segments":[],"categories_sizes":[],"default_left":[0,0,0,0,0,0,0,0,0,0,0,0,0,0,0,0,0,0,0,0,0,0,0,0,0,0,0,0,0,0,0,0,0,0,0,0,0,0,0,0,0,0,0,0,0,0,0,0,0,0,0,0,0,0,0,0,0,0,0,0,0,0,0,0,0,0,0,0,0,0,0,0,0,0,0,0,0,0,0,0,0,0,0],"id":13,"left_children":[1,3,5,7,9,11,13,15,17,19,21,-1,23,25,27,29,31,33,35,37,39,41,43,45,47,49,51,-1,53,-1,55,57,59,-1,-1,-1,-1,61,63,65,67,69,71,-1,73,75,77,79,-1,81,-1,-1,-1,-1,-1,-1,-1,-1,-1,-1,-1,-1,-1,-1,-1,-1,-1,-1,-1,-1,-1,-1,-1,-1,-1,-1,-1,-1,-1,-1,-1,-1,-1],"loss_changes":[4.6125994E0,4.7373466E0,6.380175E0,4.8286586E0,4.48473E0,4.537231E0,5.3536253E0,4.81921E0,3.928582E0,1.0607411E1,4.030926E0,0E0,4.0558586E0,1.7111292E0,1.6975492E0,2.7955205E0,2.694582E0,2.927341E0,5.813694E-1,4.25583E0,5.130492E0,4.5722203E0,5.11115E0,1.4994835E0,3.8530374E0,2.5711136E0,2.768966E0,0E0,1.3982966E0,0E0,1.748992E0,4.1751714E0,7.908459E-1,0E0,0E0,0E0,0E0,3.7188487E0,2.9206142E0,2.9720962E0,5.421648E-1,9.010525E0,8.667675E0,0E0,3.8084216E0,3.2051682E-1,1.590244E0,2.4017124E0,0E0,2.4613614E0,0E0,0E0,0E0,0E0,0E0,0E0,0E0,0E0,0E0,0E0,0E0,0E0,0E0,0E0,0E0,0E0,0E0,0E0,0E0,0E0,0E0,0E0,0E0,0E0,0E0,0E0,0E0,0E0,0E0,0E0,0E0,0E0,0E0],"parents":[2147483647,0,0,1,1,2,2,3,3,4,4,5,5,6,6,7,7,8,8,9,9,10,10,12,12,13,13,14,14,15,15,16,16,17,17,18,18,19,19,20,20,21,21,22,22,23,23,24,24,25,25,26,26,28,28,30,30,31,31,32,32,37,37,38,38,39,39,40,40,41,41,42,42,44,44,45,45,46,46,47,47,49,49],"right_children":[2,4,6,8,10,12,14,16,18,20,22,-1,24,26,28,30,32,34,36,38,40,42,44,46,48,50,52,-1,54,-1,56,58,60,-1,-1,-1,-1,62,64,66,68,70,72,-1,74,76,78,80,-1,82,-1,-1,-1,-1,-1,-1,-1,-1,-1,-1,-1,-1,-1,-1,-1,-1,-1,-1,-1,-1,-1,-1,-1,-1,-1,-1,-1,-1,-1,-1,-1,-1,-1],"split_conditions":[2.6843061E0,-1.964071E0,1.4600159E-1,-1.000489E0,-1.7175974E0,-8.4316593E-1,4.326009E0,-2.3836696E0,-1.885094E-1,-4.083964E-2,1.6156366E0,-9.5918916E-2,-4.083964E-2,9.6843666E-1,-5.312761E-2,1.0596476E0,1.8407504E-1,-4.7569248E-1,-5.3613377E-1,-1.9216344E0,-1.00549325E-1,-1.7757177E0,-2.0338812E0,1.2470795E0,5.4271507E0,-3.6109582E-1,1.9495722E0,7.487318E-2,1.4391137E0,-8.238573E-2,-1.3271384E-1,-6.4472026E-1,1.3085905E0,-2.7615888E-2,1.17345E-1,-1.2632613E-1,-3.0299986E-2,5.122953E-1,-1.9920645E0,-1.8036482E0,1.2823417E0,-1.9826018E0,-1.6802123E0,9.610796E-2,2.4711931E-1,-8.681914E-1,2.1952479E-1,-5.591435E-1,-4.7198944E-2,-9.322831E-1,-1.5740024E-1,6.105969E-2,-9.781837E-2,2.5924033E-2,-7.591577E-2,9.919349E-2,-2.3080377E-2,1.002818E-1,-5.6344867E-2,1.3111846E-1,3.1193262E-2,1.1256422E-1,-7.094403E-2,2.5152376E-2,-1.1714329E-1,-6.65748E-2,5.189645E-2,1.155414E-1,3.0341754E-2,2.7386898E-3,-5.7615012E-2,1.0975732E-1,4.3677664E-3,-7.890449E-2,6.4414184E-5,-1.0374905E-1,-1.8798769E-2,-4.55642E-2,6.845537E-2,-1.9610867E-2,1.1791646E-1,-1.01411656E-1,4.5283303E-2],"split_indices":[4,14,2,23,14,16,4,14,4,8,23,0,8,14,14,22,22,4,15,14,4,1,0,22,4,16,14,0,22,0,4,4,19,0,0,0,0,9,0,14,22,2,17,0,19,1,15,16,0,16,0,0,0,0,0,0,0,0,0,0,0,0,0,0,0,0,0,0,0,0,0,0,0,0,0,0,0,0,0,0,0,0,0],"split_type":[0,0,0,0,0,0,0,0,0,0,0,0,0,0,0,0,0,0,0,0,0,0,0,0,0,0,0,0,0,0,0,0,0,0,0,0,0,0,0,0,0,0,0,0,0,0,0,0,0,0,0,0,0,0,0,0,0,0,0,0,0,0,0,0,0,0,0,0,0,0,0,0,0,0,0,0,0,0,0,0,0,0,0],"sum_hessian":[1.3371825E3,1.3027634E3,3.4419113E1,2.8242413E1,1.274521E3,1.7258839E1,1.7160273E1,2.0788115E1,7.454299E0,3.0212662E1,1.2443083E3,2.437799E0,1.482104E1,1.2034485E1,5.1257873E0,5.3064156E0,1.5481698E1,3.9829173E0,3.4713817E0,1.7364138E1,1.2848523E1,1.2177804E3,2.6527952E1,5.410083E0,9.410957E0,9.579409E0,2.4550762E0,1.4774649E0,3.6483226E0,2.2169018E0,3.0895138E0,4.893333E0,1.0588365E1,2.486062E0,1.4968553E0,1.4885672E0,1.9828143E0,2.4852872E0,1.4878851E1,7.157325E0,5.6911983E0,1.1528725E2,1.102493E3,1.7770444E0,2.4750908E1,2.4687486E0,2.9413342E0,7.685981E0,1.7249765E0,2.7261994E0,6.85321E0,1.2343713E0,1.2207049E0,1.9401066E0,1.708216E0,1.3859781E0,1.7035357E0,2.4072483E0,2.4860847E0,8.914559E0,1.6738057E0,1.2493037E0,1.2359835E0,1.2479745E0,1.3630877E1,4.6871142E0,2.4702106E0,3.711083E0,1.9801152E0,8.066264E1,3.4624603E1,6.8621507E0,1.095631E3,1.4797866E1,9.953042E0,1.2410747E0,1.227674E0,1.481479E0,1.4598552E0,1.2181336E0,6.4678473E0,1.2376419E0,1.4885573E0],"tree_param":{"num_deleted":"0","num_feature":"31","num_nodes":"83","size_leaf_vector":"1"}},{"base_weights":[1.8637674E-2,4.1703504E-2,-1.49012E-1,3.254583E-2,5.6159914E-1,1.8024233E-1,-2.562993E-1,6.1936468E-2,-8.845357E-2,-6.0082906E-1,8.7878734E-1,5.1324792E-2,1.4363895E-1,-3.0283773E-1,6.5978044E-1,-2.2933479E-1,7.95386E-2,-3.446303E-1,5.9073742E-2,1.2515984E-2,-1.2393806E-1,4.6934716E-2,1.098435E0,1.761001E-1,-9.18477E-1,-2.082045E-1,-6.47112E-1,9.816928E-2,1.1286366E-1,-6.659674E-2,-8.077822E-1,-6.750717E-2,1.1884369E-1,-4.1172396E-2,-5.7329106E-1,-4.924464E-1,1.15976594E-1,-7.8022204E-2,7.250904E-2,1.2644609E0,-2.5683103E-2,-7.485403E-2,9.576373E-1,-1.13773756E-1,-1.8920688E-2,-2.6263306E-1,7.197356E-1,1.4705183E-1,-7.9199964E-1,1.0154593E-1,-6.921686E-2,2.438832E-2,-4.406543E-2,-4.5616023E-2,-1.2722643E-1,4.6940395E-3,-6.300603E-2,6.3383044E-3,3.6999658E-2,-4.554546E-2,4.0039387E-2,-6.3361906E-2,7.668274E-2,-8.5119195E-2,5.8901396E-2,-2.1282272E-2,2.4416395E-2,3.3025812E-2,1.343185E-1,-5.419737E-2,3.477764E-2,1.2759985E-1,-3.189988E-2,3.7515797E-2,-3.1261288E-2,1.3253011E-1,-9.956935E-4,-6.225579E-2,5.9803076E-2,-1.2186221E-1,-3.862971E-2],"categories":[],"categories_nodes":[],"categories_segments":[],"categories_sizes":[],"default_left":[0,0,0,0,0,0,0,0,0,0,0,0,0,0,0,0,0,0,0,0,0,0,0,0,0,0,0,0,0,0,0,0,0,0,0,0,0,0,0,0,0,0,0,0,0,0,0,0,0,0,0,0,0,0,0,0,0,0,0,0,0,0,0,0,0,0,0,0,0,0,0,0,0,0,0,0,0,0,0,0,0],"id":14,"left_children":[1,3,5,7,9,11,13,15,17,19,21,23,-1,25,27,29,31,33,35,-1,-1,37,39,41,43,45,47,49,-1,51,53,55,57,59,61,63,65,-1,-1,67,-1,69,71,-1,-1,73,75,77,79,-1,-1,-1,-1,-1,-1,-1,-1,-1,-1,-1,-1,-1,-1,-1,-1,-1,-1,-1,-1,-1,-1,-1,-1,-1,-1,-1,-1,-1,-1,-1,-1],"loss_changes":[5.20221E0,5.609049E0,5.794554E0,4.139822E0,8.048765E0,6.497837E0,5.449975E0,4.8168397E0,8.622426E0,2.4575434E0,2.9506254E0,4.7407E0,0E0,3.7057743E0,1.539736E0,4.991434E0,5.113485E0,5.75807E0,4.6166635E0,0E0,0E0,3.0770094E0,3.23954E0,6.81186E0,5.001979E-1,4.93351E0,2.9863863E0,3.5645378E0,0E0,5.0918107E0,1.3268886E0,1.20662155E1,9.690673E0,6.92941E0,4.321252E0,5.8470364E0,5.636915E0,0E0,0E0,4.175434E-1,0E0,5.507054E0,3.8313718E0,0E0,0E0,2.9691615E0,2.431158E0,2.0006995E0,3.2072601E0,0E0,0E0,0E0,0E0,0E0,0E0,0E0,0E0,0E0,0E0,0E0,0E0,0E0,0E0,0E0,0E0,0E0,0E0,0E0,0E0,0E0,0E0,0E0,0E0,0E0,0E0,0E0,0E0,0E0,0E0,0E0,0E0],"parents":[2147483647,0,0,1,1,2,2,3,3,4,4,5,5,6,6,7,7,8,8,9,9,10,10,11,11,13,13,14,14,15,15,16,16,17,17,18,18,21,21,22,22,23,23,24,24,25,25,26,26,27,27,29,29,30,30,31,31,32,32,33,33,34,34,35,35,36,36,39,39,41,41,42,42,45,45,46,46,47,47,48,48],"right_children":[2,4,6,8,10,12,14,16,18,20,22,24,-1,26,28,30,32,34,36,-1,-1,38,40,42,44,46,48,50,-1,52,54,56,58,60,62,64,66,-1,-1,68,-1,70,72,-1,-1,74,76,78,80,-1,-1,-1,-1,-1,-1,-1,-1,-1,-1,-1,-1,-1,-1,-1,-1,-1,-1,-1,-1,-1,-1,-1,-1,-1,-1,-1,-1,-1,-1,-1,-1],"split_conditions":[9.0902233E-1,7.905388E-1,-8.4846663E-1,1.0860131E0,-8.571463E-1,3.6831133E-2,2.497335E0,-2.0337963E0,1.2847751E0,-1.4947102E0,-7.202364E-1,-3.0856645E-1,1.4363895E-1,8.0864066E-1,-7.230982E-2,2.4341395E-1,-7.281881E-1,5.8972234E-1,-8.3606625E-1,1.2515984E-2,-1.2393806E-1,-4.603683E-1,2.0363157E0,-7.3705345E-1,2.06596E0,7.642268E-1,-5.24534E-1,6.2236667E-1,1.1286366E-1,-2.1125193E0,-2.7134416E-1,5.1358163E-1,6.672379E-1,-4.0578392E-1,2.1083274E0,1.1361352E0,-2.691825E-1,-7.8022204E-2,7.250904E-2,-2.0995944E0,-2.5683103E-2,6.0223484E-1,7.478143E-1,-1.13773756E-1,-1.8920688E-2,-1.2051482E0,7.740154E-1,-1.003021E0,1.0005645E0,1.0154593E-1,-6.921686E-2,2.438832E-2,-4.406543E-2,-4.5616023E-2,-1.2722643E-1,4.6940395E-3,-6.300603E-2,6.3383044E-3,3.6999658E-2,-4.554546E-2,4.0039387E-2,-6.3361906E-2,7.668274E-2,-8.5119195E-2,5.8901396E-2,-2.1282272E-2,2.4416395E-2,3.3025812E-2,1.343185E-1,-5.419737E-2,3.477764E-2,1.2759985E-1,-3.189988E-2,3.7515797E-2,-3.1261288E-2,1.3253011E-1,-9.956935E-4,-6.225579E-2,5.9803076E-2,-1.2186221E-1,-3.862971E-2],"split_indices":[4,4,15,23,24,24,21,12,23,23,20,24,0,28,20,4,8,15,4,0,0,23,20,24,4,0,24,15,0,12,23,24,24,4,20,21,20,0,0,12,0,20,11,0,0,14,25,24,0,0,0,0,0,0,0,0,0,0,0,0,0,0,0,0,0,0,0,0,0,0,0,0,0,0,0,0,0,0,0,0,0],"split_type":[0,0,0,0,0,0,0,0,0,0,0,0,0,0,0,0,0,0,0,0,0,0,0,0,0,0,0,0,0,0,0,0,0,0,0,0,0,0,0,0,0,0,0,0,0,0,0,0,0,0,0,0,0,0,0,0,0,0,0,0,0,0,0,0,0,0,0,0,0,0,0,0,0,0,0,0,0,0,0,0,0],"sum_hessian":[1.3426833E3,1.1809547E3,1.6172865E2,1.1615571E3,1.9397585E1,3.958036E1,1.2214829E2,9.3494745E2,2.266097E2,3.9665992E0,1.5430986E1,3.6840324E1,2.7400384E0,1.1688001E2,5.2682858E0,5.259546E1,8.82352E2,8.232272E1,1.4428697E2,2.2324512E0,1.734148E0,3.476901E0,1.1954085E1,3.3365868E1,3.474457E0,9.293816E1,2.3941841E1,2.9472976E0,2.320988E0,4.191765E1,1.0677813E1,1.8595418E2,6.963978E2,3.5882614E1,4.644011E1,1.2778605E1,1.3150838E2,1.4985685E0,1.9783325E0,1.0709168E1,1.2449172E0,2.5940508E1,7.425359E0,2.2406764E0,1.2337806E0,8.846613E1,4.472032E0,3.6917174E0,2.0250124E1,1.2322589E0,1.7150388E0,2.3095575E1,1.8822071E1,7.205325E0,3.4724872E0,1.5528008E2,3.0674107E1,5.714583E2,1.249395E2,1.849704E1,1.7385574E1,4.4944057E1,1.4960513E0,9.755427E0,3.0231783E0,3.670364E1,9.480473E1,1.2360727E0,9.473096E0,1.2187584E1,1.3752923E1,5.9436584E0,1.4817005E0,5.95597E0,8.251016E1,1.9978163E0,2.4742157E0,1.2234324E0,2.4682848E0,8.89389E0,1.1356234E1],"tree_param":{"num_deleted":"0","num_feature":"31","num_nodes":"81","size_leaf_vector":"1"}},{"base_weights":[1.9602627E-2,-3.6153227E-1,3.4122825E-2,-9.5205635E-1,-2.3258832E-1,3.779891E-1,2.0694988E-2,-1.1761274E0,1.90301E-2,1.18271895E-1,-5.070568E-1,9.999489E-2,8.705595E-1,5.0577696E-2,-1.2701844E-1,-2.3425987E-2,-1.3335226E0,-7.1323985E-1,5.501908E-1,-1.351164E-1,-3.4314167E-1,3.3566245E-1,-3.5129768E-1,1.3015814E0,1.6406679E-1,-2.8127804E-1,6.615596E-2,9.371967E-1,-1.6265348E-1,-2.8734384E-2,-1.5486382E-1,6.0119636E-2,-1.3517557E-1,-4.5502055E-1,8.607578E-1,-5.8406794E-1,6.7222816E-1,7.7267724E-1,-6.4288266E-2,2.164506E-1,-8.6534107E-1,1.539384E0,5.816575E-4,-3.357462E-1,8.6131793E-1,-3.4265615E-2,-9.7291315E-1,8.709699E-1,6.019851E-2,3.5941827E-1,1.3015543E-1,-9.6473616E-1,-1.2511879E-1,6.147719E-2,-1.23448804E-1,-4.099497E-2,1.1224971E-1,4.773145E-2,-7.831633E-2,1.2475208E-1,-1.4817004E-2,2.9743856E-2,1.4086635E-1,-6.44896E-2,9.8412946E-2,-4.454422E-2,1.2219421E-1,-1.4594977E-1,1.3228284E-2,3.583252E-2,1.7261937E-1,4.276545E-2,-1.1802018E-1,1.0717497E-1,2.6765991E-2,1.2501074E-1,-1.810771E-2,-1.2719399E-1,-1.0768906E-2,1.5363161E-1,-5.5484795E-3,3.098329E-3,2.2319308E-2,9.4382025E-2,-2.946921E-2,-4.3217916E-2,-1.4026676E-1,1.17752925E-1,-1.585405E-2],"categories":[],"categories_nodes":[],"categories_segments":[],"categories_sizes":[],"default_left":[0,0,0,0,0,0,0,0,0,0,0,0,0,0,0,0,0,0,0,0,0,0,0,0,0,0,0,0,0,0,0,0,0,0,0,0,0,0,0,0,0,0,0,0,0,0,0,0,0,0,0,0,0,0,0,0,0,0,0,0,0,0,0,0,0,0,0,0,0,0,0,0,0,0,0,0,0,0,0,0,0,0,0,0,0,0,0,0,0],"id":15,"left_children":[1,3,5,7,9,11,13,15,-1,17,19,21,23,25,27,-1,29,31,33,-1,35,37,39,41,43,45,47,49,51,-1,-1,-1,-1,53,55,57,59,61,63,65,67,69,-1,71,73,75,77,79,81,83,-1,85,87,-1,-1,-1,-1,-1,-1,-1,-1,-1,-1,-1,-1,-1,-1,-1,-1,-1,-1,-1,-1,-1,-1,-1,-1,-1,-1,-1,-1,-1,-1,-1,-1,-1,-1,-1,-1],"loss_changes":[7.3838024E0,3.507306E0,5.9210124E0,2.3875432E0,4.0579867E0,6.5128336E0,5.465874E0,7.558899E-1,0E0,7.2280793E0,2.7855282E0,3.5148706E0,5.041935E0,5.3404965E0,8.055511E0,0E0,8.965874E-1,6.639155E0,4.478465E0,0E0,5.531046E0,3.8064778E0,3.5277367E0,3.2495327E0,2.966946E0,7.8848886E0,4.6658955E0,9.847498E-1,5.9756217E0,0E0,0E0,0E0,0E0,3.8809946E0,3.901476E0,4.0743427E0,2.3054645E0,2.7085996E0,8.028212E0,4.6963434E0,3.8722973E0,1.3519897E0,0E0,3.853769E0,1.4896035E-1,6.8613925E0,3.0092154E0,4.496713E0,4.6498938E0,1.8262761E0,0E0,1.470295E0,8.658606E0,0E0,0E0,0E0,0E0,0E0,0E0,0E0,0E0,0E0,0E0,0E0,0E0,0E0,0E0,0E0,0E0,0E0,0E0,0E0,0E0,0E0,0E0,0E0,0E0,0E0,0E0,0E0,0E0,0E0,0E0,0E0,0E0,0E0,0E0,0E0,0E0],"parents":[2147483647,0,0,1,1,2,2,3,3,4,4,5,5,6,6,7,7,9,9,10,10,11,11,12,12,13,13,14,14,16,16,17,17,18,18,20,20,21,21,22,22,23,23,24,24,25,25,26,26,27,27,28,28,33,33,34,34,35,35,36,36,37,37,38,38,39,39,40,40,41,41,43,43,44,44,45,45,46,46,47,47,48,48,49,49,51,51,52,52],"right_children":[2,4,6,8,10,12,14,16,-1,18,20,22,24,26,28,-1,30,32,34,-1,36,38,40,42,44,46,48,50,52,-1,-1,-1,-1,54,56,58,60,62,64,66,68,70,-1,72,74,76,78,80,82,84,-1,86,88,-1,-1,-1,-1,-1,-1,-1,-1,-1,-1,-1,-1,-1,-1,-1,-1,-1,-1,-1,-1,-1,-1,-1,-1,-1,-1,-1,-1,-1,-1,-1,-1,-1,-1,-1,-1],"split_conditions":[-1.4564114E0,2.0126481E-1,-1.2227848E0,1.3034279E0,2.6063398E-1,9.8234385E-2,1.1423802E0,-1.5706867E-1,1.90301E-2,-9.726149E-1,2.046113E-1,-4.4943574E-1,2.7552643E-1,-2.0968683E0,-2.0766757E0,-2.3425987E-2,3.520654E-2,-1.5318308E0,1.6064467E-1,-1.351164E-1,1.3338572E0,-3.4590608E-1,2.168569E-1,6.1881554E-1,3.000896E-1,-2.11474E0,-2.0922275E0,-2.11479E0,-8.074223E-1,-2.8734384E-2,-1.5486382E-1,6.0119636E-2,-1.3517557E-1,-6.3749963E-1,-7.296677E-1,-1.0290533E0,-1.3456267E-1,-5.22259E-1,-5.8104765E-1,1.7846897E-1,3.6181203E-1,2.409595E-1,5.816575E-4,2.3862863E-1,-5.974581E-1,-1.4094336E0,-8.426365E-3,-5.119201E-1,7.748056E-1,-4.4068155E-1,1.3015543E-1,-2.8932482E-1,9.458235E-3,6.147719E-2,-1.23448804E-1,-4.099497E-2,1.1224971E-1,4.773145E-2,-7.831633E-2,1.2475208E-1,-1.4817004E-2,2.9743856E-2,1.4086635E-1,-6.44896E-2,9.8412946E-2,-4.454422E-2,1.2219421E-1,-1.4594977E-1,1.3228284E-2,3.583252E-2,1.7261937E-1,4.276545E-2,-1.1802018E-1,1.0717497E-1,2.6765991E-2,1.2501074E-1,-1.810771E-2,-1.2719399E-1,-1.0768906E-2,1.5363161E-1,-5.5484795E-3,3.098329E-3,2.2319308E-2,9.4382025E-2,-2.946921E-2,-4.3217916E-2,-1.4026676E-1,1.17752925E-1,-1.585405E-2],"split_indices":[22,17,22,24,3,16,24,15,0,24,19,4,1,18,1,0,11,23,12,0,8,14,10,7,12,26,10,3,16,0,0,0,0,4,16,4,16,14,4,23,17,14,0,12,4,21,23,21,24,7,0,7,13,0,0,0,0,0,0,0,0,0,0,0,0,0,0,0,0,0,0,0,0,0,0,0,0,0,0,0,0,0,0,0,0,0,0,0,0],"split_type":[0,0,0,0,0,0,0,0,0,0,0,0,0,0,0,0,0,0,0,0,0,0,0,0,0,0,0,0,0,0,0,0,0,0,0,0,0,0,0,0,0,0,0,0,0,0,0,0,0,0,0,0,0,0,0,0,0,0,0,0,0,0,0,0,0,0,0,0,0,0,0,0,0,0,0,0,0,0,0,0,0,0,0,0,0,0,0,0,0],"sum_hessian":[1.3309948E3,4.7969296E1,1.2830254E3,7.4530606E0,4.0516235E1,4.719836E1,1.235827E3,6.2061706E0,1.2468898E0,1.8033117E1,2.2483118E1,3.0939756E1,1.6258604E1,1.0284312E3,2.0739598E2,1.2449031E0,4.9612675E0,5.942173E0,1.2090944E1,2.4781933E0,2.0004925E1,2.049393E1,1.04458275E1,9.5748205E0,6.683784E0,4.534811E1,9.83083E2,5.8998966E0,2.0149608E2,1.2445194E0,3.7167482E0,1.9618971E0,3.9802759E0,2.7440755E0,9.346869E0,1.6511791E1,3.4931335E0,9.347858E0,1.1146071E1,5.238718E0,5.2071095E0,7.931243E0,1.6435777E0,4.1950808E0,2.4887033E0,3.4187748E1,1.1160361E1,6.1566796E0,9.7692633E2,3.0499294E0,2.8499672E0,7.903467E0,1.9359262E2,1.2456945E0,1.4983809E0,1.4997144E0,7.8471546E0,2.3873506E0,1.4124441E1,1.7472622E0,1.7458713E0,6.190047E0,3.1578119E0,7.4211607E0,3.7249105E0,3.4950163E0,1.7437015E0,2.9733145E0,2.2337952E0,1.4816974E0,6.4495454E0,2.4625092E0,1.732572E0,1.2428299E0,1.2458732E0,2.736096E0,3.1451653E1,7.9445925E0,3.2157688E0,3.2001638E0,2.956516E0,8.294461E2,1.4748021E2,1.3768781E0,1.6730511E0,4.462997E0,3.4404702E0,3.986382E0,1.8960623E2],"tree_param":{"num_deleted":"0","num_feature":"31","num_nodes":"89","size_leaf_vector":"1"}},{"base_weights":[-1.39940865E-2,-3.9398775E-2,1.8562406E-1,-8.7669775E-2,3.179097E-2,2.1991816E-1,-6.948618E-1,-2.0950907E-1,-4.202745E-2,3.6823022E-1,1.34111205E-2,8.255454E-1,1.5636292E-1,-2.071741E-3,-9.630969E-1,-1.3541578E-1,-7.864955E-1,-1.9694025E-2,-5.275161E-1,5.05372E-1,-1.07664704E-1,-2.4769069E-3,4.242069E-1,9.448268E-1,-1.3409118E-3,4.8933944E-1,7.2159626E-2,-1.1026603E-1,-2.9485052E-2,-2.0001535E-1,3.3729044E-1,-1.060354E0,5.940832E-1,-2.2893964E-1,2.859367E-2,-1.4599884E-1,-8.2958645E-1,-5.726482E-2,9.07826E-1,1.2018788E-2,-9.0760356E-1,9.131032E-1,-1.8816143E-1,6.3446998E-3,1.0361495E0,3.259837E-2,9.373983E-1,-3.421662E-1,1.6829966E-1,-2.8573161E-2,1.3076837E-2,1.1973051E-1,1.0228343E-2,-1.1726077E-1,2.7028492E-2,-3.0862013E-2,1.1973279E-1,-6.979327E-2,-1.111126E-2,1.7547803E-2,-5.0576506E-3,7.2167344E-2,-4.4402305E-2,-6.8431594E-3,-1.1168604E-1,-1.20357215E-1,2.6168538E-2,4.5552187E-2,1.6657571E-1,-2.7230596E-2,3.3909124E-3,1.6489414E-2,-1.1652378E-1,1.1769815E-1,-1.7293975E-2,-5.695161E-2,9.7824134E-2,1.1537713E-1,2.3209853E-2,5.7787716E-2,-7.88018E-2,-3.88733E-2,1.2316849E-1,3.2764483E-2,-5.9797227E-2,7.9608215E-3,9.16131E-2],"categories":[],"categories_nodes":[],"categories_segments":[],"categories_sizes":[],"default_left":[0,0,0,0,0,0,0,0,0,0,0,0,0,0,0,0,0,0,0,0,0,0,0,0,0,0,0,0,0,0,0,0,0,0,0,0,0,0,0,0,0,0,0,0,0,0,0,0,0,0,0,0,0,0,0,0,0,0,0,0,0,0,0,0,0,0,0,0,0,0,0,0,0,0,0,0,0,0,0,0,0,0,0,0,0,0,0],"id":16,"left_children":[1,3,5,7,9,11,13,15,17,19,21,23,25,-1,27,29,31,33,35,37,-1,39,41,43,-1,45,47,-1,-1,49,51,53,55,57,59,61,63,65,67,69,71,73,75,-1,77,79,81,83,85,-1,-1,-1,-1,-1,-1,-1,-1,-1,-1,-1,-1,-1,-1,-1,-1,-1,-1,-1,-1,-1,-1,-1,-1,-1,-1,-1,-1,-1,-1,-1,-1,-1,-1,-1,-1,-1,-1],"loss_changes":[6.7625275E0,4.0663357E0,4.699128E0,3.9114394E0,2.9542866E0,5.4781756E0,1.0441983E0,8.095791E0,5.563659E0,5.4486933E0,2.9694147E0,1.373847E0,3.6958365E0,0E0,6.544733E-2,5.296453E0,8.806412E0,4.9829264E0,2.479979E0,5.324854E0,0E0,5.768944E0,5.2436247E0,8.939276E-1,0E0,5.4308543E0,4.335244E0,0E0,0E0,4.3265996E0,4.113714E0,3.066143E0,2.6678953E0,5.0316987E0,4.672724E0,3.21328E0,2.6312504E0,4.2092547E0,3.915514E0,2.70377E0,2.1071687E0,2.9521475E0,4.2712464E0,0E0,7.477665E-1,6.8324156E0,5.7221756E0,3.7178707E0,5.75276E0,0E0,0E0,0E0,0E0,0E0,0E0,0E0,0E0,0E0,0E0,0E0,0E0,0E0,0E0,0E0,0E0,0E0,0E0,0E0,0E0,0E0,0E0,0E0,0E0,0E0,0E0,0E0,0E0,0E0,0E0,0E0,0E0,0E0,0E0,0E0,0E0,0E0,0E0],"parents":[2147483647,0,0,1,1,2,2,3,3,4,4,5,5,6,6,7,7,8,8,9,9,10,10,11,11,12,12,14,14,15,15,16,16,17,17,18,18,19,19,21,21,22,22,23,23,25,25,26,26,29,29,30,30,31,31,32,32,33,33,34,34,35,35,36,36,37,37,38,38,39,39,40,40,41,41,42,42,44,44,45,45,46,46,47,47,48,48],"right_children":[2,4,6,8,10,12,14,16,18,20,22,24,26,-1,28,30,32,34,36,38,-1,40,42,44,-1,46,48,-1,-1,50,52,54,56,58,60,62,64,66,68,70,72,74,76,-1,78,80,82,84,86,-1,-1,-1,-1,-1,-1,-1,-1,-1,-1,-1,-1,-1,-1,-1,-1,-1,-1,-1,-1,-1,-1,-1,-1,-1,-1,-1,-1,-1,-1,-1,-1,-1,-1,-1,-1,-1,-1],"split_conditions":[1.3755991E0,6.465088E-1,2.2826295E0,-7.7996683E-1,-1.5001786E0,-6.322528E-2,-4.083964E-2,4.5389082E-2,1.2242424E0,1.5561534E0,2.1765962E0,1.3150952E0,-7.2463787E-1,-2.071741E-3,1.6906534E0,4.5097134E-1,6.761228E-1,-1.0461085E0,4.1696924E-1,1.7170623E-1,-1.07664704E-1,1.881966E0,1.5183694E0,-4.845489E-1,-1.3409118E-3,-1.2052215E0,-1.0487496E0,-1.1026603E-1,-2.9485052E-2,-2.8359708E-1,5.8622473E-1,6.717669E-1,-1.7893323E-1,-8.280732E-1,-1.741124E-1,-7.2563756E-1,7.206646E-2,-1.1874483E0,6.3946074E-1,-1.9128482E0,-2.3268633E0,5.122953E-1,1.1969846E0,6.3446998E-3,1.2668089E0,-1.4789838E0,-7.7141774E-1,-2.0691009E0,1.1899961E0,-2.8573161E-2,1.3076837E-2,1.1973051E-1,1.0228343E-2,-1.1726077E-1,2.7028492E-2,-3.0862013E-2,1.1973279E-1,-6.979327E-2,-1.111126E-2,1.7547803E-2,-5.0576506E-3,7.2167344E-2,-4.4402305E-2,-6.8431594E-3,-1.1168604E-1,-1.20357215E-1,2.6168538E-2,4.5552187E-2,1.6657571E-1,-2.7230596E-2,3.3909124E-3,1.6489414E-2,-1.1652378E-1,1.1769815E-1,-1.7293975E-2,-5.695161E-2,9.7824134E-2,1.1537713E-1,2.3209853E-2,5.7787716E-2,-7.88018E-2,-3.88733E-2,1.2316849E-1,3.2764483E-2,-5.9797227E-2,7.9608215E-3,9.16131E-2],"split_indices":[7,8,16,24,7,5,8,15,7,22,20,0,15,0,24,16,22,7,24,0,0,20,22,22,0,15,0,0,0,15,16,15,10,12,2,20,16,24,24,12,15,9,18,0,19,24,22,19,22,0,0,0,0,0,0,0,0,0,0,0,0,0,0,0,0,0,0,0,0,0,0,0,0,0,0,0,0,0,0,0,0,0,0,0,0,0,0],"split_type":[0,0,0,0,0,0,0,0,0,0,0,0,0,0,0,0,0,0,0,0,0,0,0,0,0,0,0,0,0,0,0,0,0,0,0,0,0,0,0,0,0,0,0,0,0,0,0,0,0,0,0,0,0,0,0,0,0,0,0,0,0,0,0,0,0,0,0,0,0,0,0,0,0,0,0,0,0,0,0,0,0,0,0,0,0,0,0],"sum_hessian":[1.3310645E3,1.1815016E3,1.4956285E2,7.039494E2,4.7755225E2,1.4467801E2,4.884841E0,1.9086284E2,5.1308655E2,2.3751507E1,4.5380072E2,1.2602026E1,1.3207599E2,1.6970215E0,3.1878195E0,1.7023671E2,2.062613E1,4.915164E2,2.1570148E1,2.2286406E1,1.4651015E0,4.3785992E2,1.5940796E1,1.0922836E1,1.6791894E0,2.5686998E1,1.06388985E2,2.0992997E0,1.0885198E0,1.502769E2,1.9959822E1,1.7405449E1,3.2206812E0,9.145823E1,4.0005817E2,1.0187093E1,1.1383056E1,9.651363E0,1.2635041E1,4.3192926E2,5.9306693E0,8.590944E0,7.3498507E0,1.1846102E0,9.738227E0,1.3251488E1,1.2435512E1,1.9555109E1,8.683388E1,1.1945788E2,3.081902E1,3.4048636E0,1.6554958E1,1.616087E1,1.2445796E0,1.485764E0,1.7349172E0,1.7375254E1,7.408298E1,1.3968474E2,2.6037344E2,2.2410216E0,7.946071E0,3.4582806E0,7.9247746E0,1.4971308E0,8.154233E0,8.915575E0,3.7194662E0,3.0059465E1,4.018698E2,1.2184383E0,4.712231E0,6.8442492E0,1.7466954E0,5.924555E0,1.4252963E0,8.116016E0,1.62221E0,8.139078E0,5.11241E0,2.2001472E0,1.0235364E1,5.3266916E0,1.4228416E1,7.861655E1,8.21733E0],"tree_param":{"num_deleted":"0","num_feature":"31","num_nodes":"87","size_leaf_vector":"1"}},{"base_weights":[-1.4635795E-2,-4.136813E-2,1.14118166E-1,-1.16492985E-2,-2.4616729E-1,-2.9595086E-1,1.6761264E-1,-4.1797045E-1,9.289119E-4,-4.8027655E-1,-5.9710767E-2,8.142786E-1,-5.1319087E-1,2.0090868E-1,-5.2743745E-1,3.2445115E-1,-6.704326E-1,7.3308367E-1,-5.9964503E-3,-3.494761E-1,-1.0926139E0,5.2526746E-2,-7.5326437E-1,1.12217985E-1,-1.0653686E-2,-7.444229E-1,2.717816E-1,1.20019495E-1,6.0125816E-1,3.0777335E-2,-8.221645E-1,5.985471E-1,-6.37358E-2,1.6998161E-1,-8.3512634E-1,1.7195156E-1,1.283401E-1,1.852391E-1,-3.0283459E-2,3.6483705E-2,-5.1229936E-1,-1.2929789E0,7.997986E-3,3.5474607E-1,-2.3145992E-1,8.092463E-3,-8.8813865E-1,1.09119564E-1,-9.310786E-1,8.0611926E-1,-6.685078E-2,1.6181442E-1,-7.6621294E-1,7.604737E-1,-2.3876862E-1,2.8542642E-2,-1.0968646E0,9.7431645E-2,-1.0788735E-2,-5.958252E-2,6.577581E-2,-9.9404454E-2,2.1293415E-2,8.9540236E-2,-4.0759027E-2,-5.3815868E-2,2.984249E-2,-2.697667E-2,-8.6325844E-4,1.0384156E-1,-3.04277E-2,-9.311037E-2,-1.7322041E-2,-3.1677686E-2,-1.4449684E-1,5.6869864E-2,-1.4575332E-2,-5.2464604E-2,5.9890248E-2,-1.2623644E-1,-3.9937433E-2,6.564026E-2,-3.485263E-2,-1.0605456E-1,8.4637245E-3,1.0742699E-1,6.39978E-3,1.2372193E-2,9.913772E-2,-1.0773956E-1,5.9491266E-3,3.6159623E-2,1.16926305E-1,4.3780807E-2,-1.1830775E-1,-1.341816E-1,-6.946739E-3],"categories":[],"categories_nodes":[],"categories_segments":[],"categories_sizes":[],"default_left":[0,0,0,0,0,0,0,0,0,0,0,0,0,0,0,0,0,0,0,0,0,0,0,0,0,0,0,0,0,0,0,0,0,0,0,0,0,0,0,0,0,0,0,0,0,0,0,0,0,0,0,0,0,0,0,0,0,0,0,0,0,0,0,0,0,0,0,0,0,0,0,0,0,0,0,0,0,0,0,0,0,0,0,0,0,0,0,0,0,0,0,0,0,0,0,0,0],"id":17,"left_children":[1,3,5,7,9,11,13,15,17,19,21,23,25,27,29,31,33,35,37,39,41,43,45,-1,-1,47,49,51,53,-1,55,57,-1,59,61,63,-1,65,67,69,71,73,-1,75,77,-1,79,81,83,85,-1,87,89,91,93,-1,95,-1,-1,-1,-1,-1,-1,-1,-1,-1,-1,-1,-1,-1,-1,-1,-1,-1,-1,-1,-1,-1,-1,-1,-1,-1,-1,-1,-1,-1,-1,-1,-1,-1,-1,-1,-1,-1,-1,-1,-1],"loss_changes":[4.5439E0,6.648332E0,5.0292673E0,4.883063E0,6.0140905E0,6.823182E0,4.767928E0,5.59476E0,4.708122E0,4.5224657E0,6.12696E0,1.4613755E0,4.3452625E0,6.1766996E0,2.5878332E0,2.4783754E0,3.1502943E0,2.4660902E0,4.278474E0,3.2818046E0,2.5250568E0,5.9391904E0,1.3047323E0,0E0,0E0,2.9531727E0,3.516415E0,6.116214E0,4.486127E0,0E0,2.5290508E0,1.885175E0,0E0,2.0326126E0,3.2667246E0,2.6553094E0,0E0,8.660525E0,4.2346854E0,5.8945823E0,5.034089E0,8.570366E-1,0E0,3.6653872E0,9.026867E0,0E0,1.2364221E0,1.2573851E0,2.034894E0,7.7345085E-1,0E0,4.7853785E0,1.980957E0,4.0279036E0,4.2805767E0,0E0,1.4274273E0,0E0,0E0,0E0,0E0,0E0,0E0,0E0,0E0,0E0,0E0,0E0,0E0,0E0,0E0,0E0,0E0,0E0,0E0,0E0,0E0,0E0,0E0,0E0,0E0,0E0,0E0,0E0,0E0,0E0,0E0,0E0,0E0,0E0,0E0,0E0,0E0,0E0,0E0,0E0,0E0],"parents":[2147483647,0,0,1,1,2,2,3,3,4,4,5,5,6,6,7,7,8,8,9,9,10,10,11,11,12,12,13,13,14,14,15,15,16,16,17,17,18,18,19,19,20,20,21,21,22,22,25,25,26,26,27,27,28,28,30,30,31,31,33,33,34,34,35,35,37,37,38,38,39,39,40,40,41,41,43,43,44,44,46,46,47,47,48,48,49,49,51,51,52,52,53,53,54,54,56,56],"right_children":[2,4,6,8,10,12,14,16,18,20,22,24,26,28,30,32,34,36,38,40,42,44,46,-1,-1,48,50,52,54,-1,56,58,-1,60,62,64,-1,66,68,70,72,74,-1,76,78,-1,80,82,84,86,-1,88,90,92,94,-1,96,-1,-1,-1,-1,-1,-1,-1,-1,-1,-1,-1,-1,-1,-1,-1,-1,-1,-1,-1,-1,-1,-1,-1,-1,-1,-1,-1,-1,-1,-1,-1,-1,-1,-1,-1,-1,-1,-1,-1,-1],"split_conditions":[7.123304E-1,1.1544685E0,-7.7600396E-1,-2.1209037E0,-2.691825E-1,-1.6174086E0,1.2689444E0,-9.19078E-1,-2.069437E0,1.4199731E-1,5.8452415E-1,4.5042375E-1,6.3841575E-1,8.004753E-1,-1.11380234E-1,-5.6717455E-1,-2.29467E0,-2.2362779E-1,-7.927426E-1,-6.7922026E-1,1.4709848E0,1.9112653E-1,-9.804783E-1,1.12217985E-1,-1.0653686E-2,-5.066788E-1,1.0426289E0,7.0257425E-1,3.23417E0,3.0777335E-2,5.6539487E-2,3.12673E-1,-6.37358E-2,-1.1836306E-2,-2.098337E0,3.0594528E-2,1.283401E-1,-9.336362E-1,-1.0807482E0,-1.3137915E0,-4.6289232E-1,-3.0065593E-1,7.997986E-3,1.4516593E0,9.595888E-1,8.092463E-3,1.4516593E0,1.0140824E0,2.2704415E0,1.3362858E0,-6.685078E-2,6.546143E-1,1.1159918E0,-1.0422145E0,1.2158773E0,2.8542642E-2,1.3893753E0,9.7431645E-2,-1.0788735E-2,-5.958252E-2,6.577581E-2,-9.9404454E-2,2.1293415E-2,8.9540236E-2,-4.0759027E-2,-5.3815868E-2,2.984249E-2,-2.697667E-2,-8.6325844E-4,1.0384156E-1,-3.04277E-2,-9.311037E-2,-1.7322041E-2,-3.1677686E-2,-1.4449684E-1,5.6869864E-2,-1.4575332E-2,-5.2464604E-2,5.9890248E-2,-1.2623644E-1,-3.9937433E-2,6.564026E-2,-3.485263E-2,-1.0605456E-1,8.4637245E-3,1.0742699E-1,6.39978E-3,1.2372193E-2,9.913772E-2,-1.0773956E-1,5.9491266E-3,3.6159623E-2,1.16926305E-1,4.3780807E-2,-1.1830775E-1,-1.341816E-1,-6.946739E-3],"split_indices":[20,24,4,27,20,15,3,14,17,4,20,0,11,12,4,13,19,4,4,20,13,1,4,0,0,22,1,11,20,0,13,20,0,15,19,15,0,20,14,22,4,14,0,24,17,0,24,20,15,20,0,12,15,16,3,0,24,0,0,0,0,0,0,0,0,0,0,0,0,0,0,0,0,0,0,0,0,0,0,0,0,0,0,0,0,0,0,0,0,0,0,0,0,0,0,0,0],"split_type":[0,0,0,0,0,0,0,0,0,0,0,0,0,0,0,0,0,0,0,0,0,0,0,0,0,0,0,0,0,0,0,0,0,0,0,0,0,0,0,0,0,0,0,0,0,0,0,0,0,0,0,0,0,0,0,0,0,0,0,0,0,0,0,0,0,0,0,0,0,0,0,0,0,0,0,0,0,0,0,0,0,0,0,0,0,0,0,0,0,0,0,0,0,0,0,0,0],"sum_hessian":[1.3178026E3,1.0917985E3,2.260042E2,9.543654E2,1.3743306E2,2.5557491E1,2.004467E2,2.7688791E1,9.2667664E2,6.0231888E1,7.720118E1,3.7327192E0,2.1824772E1,1.919618E2,8.48489E0,6.9539623E0,2.0734829E1,7.700671E0,9.1897595E2,5.092467E1,9.307216E0,6.724346E1,9.957718E0,2.6334639E0,1.0992553E0,1.6898561E1,4.92621E0,1.6077716E2,3.118466E1,2.2016082E0,6.2832823E0,5.7056537E0,1.2483087E0,3.39228E0,1.7342548E1,4.462714E0,3.237957E0,1.0281162E2,8.161643E2,1.5339504E1,3.5585167E1,7.86127E0,1.4459462E0,3.245529E1,3.4788166E1,1.4415878E0,8.51613E0,3.1068592E0,1.3791703E1,3.2321615E0,1.6940482E0,1.5431694E2,6.46021E0,2.6295425E1,4.889235E0,1.240905E0,5.042377E0,3.4769685E0,2.228685E0,1.2337639E0,2.1585162E0,1.5103876E1,2.2386734E0,1.7425034E0,2.7202108E0,1.3401941E1,8.9409676E1,6.67188E1,7.494455E2,3.373405E0,1.19661E1,1.5139741E1,2.0445425E1,1.47457E0,6.3866997E0,2.2640646E1,9.814645E0,2.5982414E1,8.805753E0,3.92679E0,4.58934E0,1.2170856E0,1.8897737E0,1.2193356E1,1.5983477E0,2.0454965E0,1.186665E0,1.4864069E2,5.676255E0,4.470569E0,1.9896407E0,1.4262904E1,1.2032521E1,3.1608949E0,1.7283403E0,3.8245058E0,1.2178713E0],"tree_param":{"num_deleted":"0","num_feature":"31","num_nodes":"97","size_leaf_vector":"1"}},{"base_weights":[-4.9656075E-3,6.743311E-4,-5.871766E-1,-2.6827082E-1,1.1957833E-2,5.8883034E-2,-9.935163E-1,-8.176677E-1,-3.0218268E-2,3.3700892E-1,-1.1448975E-3,-4.1977146E-1,6.1545666E-2,-1.5322775E-2,-1.1480598E0,2.482271E-2,-1.0276104E0,3.0484757E-1,-3.7084755E-1,7.3391765E-2,7.5860834E-1,-9.2523955E-2,3.7422486E-2,3.899088E-2,-9.509686E-2,-6.3314172E-3,-1.3845384E-1,-1.3255141E0,2.3188286E-2,4.8609293E-1,-6.0511875E-1,5.169457E-2,-5.166659E-1,3.1077668E-1,-6.6471744E-1,1.0872715E0,6.79593E-2,-1.4170709E-1,1.4418483E-1,-1.2938416E-1,7.303172E-2,-7.440036E-2,-1.5831704E-1,8.0676466E-2,-7.7195406E-2,9.9319555E-2,1.846786E-2,-1.0820254E-1,6.58714E-3,2.6307782E-2,-7.902402E-2,4.3608993E-2,-5.6374904E-2,6.926553E-2,-1.0212692E-1,1.2589306E-1,4.3675587E-2,9.482807E-2,-6.906959E-2,-3.979798E-3,-2.6797462E-2,3.994421E-2,-2.0653272E-2,8.421049E-3,-3.3613198E-2,8.752837E-2,6.362226E-3],"categories":[],"categories_nodes":[],"categories_segments":[],"categories_sizes":[],"default_left":[0,0,0,0,0,0,0,0,0,0,0,0,0,0,0,0,0,0,0,0,0,0,0,0,0,0,0,0,0,0,0,0,0,0,0,0,0,0,0,0,0,0,0,0,0,0,0,0,0,0,0,0,0,0,0,0,0,0,0,0,0,0,0,0,0,0,0],"id":18,"left_children":[1,3,5,7,9,11,13,15,17,19,21,23,-1,-1,25,-1,27,29,31,33,35,37,39,-1,-1,-1,-1,41,43,45,47,-1,49,51,53,55,57,59,61,63,65,-1,-1,-1,-1,-1,-1,-1,-1,-1,-1,-1,-1,-1,-1,-1,-1,-1,-1,-1,-1,-1,-1,-1,-1,-1,-1],"loss_changes":[4.3751307E0,4.010457E0,3.414369E0,6.934783E0,5.4020963E0,1.8247631E0,8.504453E-1,3.8463383E0,4.4689136E0,5.40654E0,4.303546E0,1.9861095E0,0E0,0E0,1.5852814E0,0E0,4.2887077E0,3.557773E0,2.775489E0,5.698917E0,4.193698E0,4.239744E0,5.1101346E0,0E0,0E0,0E0,0E0,4.1253853E-1,3.1070738E0,2.4235687E0,1.2655805E0,0E0,3.8647962E0,2.919778E0,4.553336E0,8.651962E-1,5.415947E0,3.857078E0,5.7085013E0,6.715407E0,5.291052E0,0E0,0E0,0E0,0E0,0E0,0E0,0E0,0E0,0E0,0E0,0E0,0E0,0E0,0E0,0E0,0E0,0E0,0E0,0E0,0E0,0E0,0E0,0E0,0E0,0E0,0E0],"parents":[2147483647,0,0,1,1,2,2,3,3,4,4,5,5,6,6,7,7,8,8,9,9,10,10,11,11,14,14,16,16,17,17,18,18,19,19,20,20,21,21,22,22,27,27,28,28,29,29,30,30,32,32,33,33,34,34,35,35,36,36,37,37,38,38,39,39,40,40],"right_children":[2,4,6,8,10,12,14,16,18,20,22,24,-1,-1,26,-1,28,30,32,34,36,38,40,-1,-1,-1,-1,42,44,46,48,-1,50,52,54,56,58,60,62,64,66,-1,-1,-1,-1,-1,-1,-1,-1,-1,-1,-1,-1,-1,-1,-1,-1,-1,-1,-1,-1,-1,-1,-1,-1,-1,-1],"split_conditions":[1.6906534E0,-1.4564114E0,-5.472421E-1,-2.9289818E-1,-1.2227848E0,-7.8289634E-1,-1.907791E0,-1.578496E0,5.1358163E-1,3.678399E-2,-4.888392E-1,-4.083964E-2,6.1545666E-2,-1.5322775E-2,6.458969E-1,2.482271E-2,1.7716978E-1,4.1022024E-1,-2.3748712E-1,-4.0578392E-1,2.3435125E-1,1.1899961E0,-7.281881E-1,3.899088E-2,-9.509686E-2,-6.3314172E-3,-1.3845384E-1,1.39062E-1,-6.0473216E-1,-1.4995329E-1,4.1899157E-1,5.169457E-2,-8.3859675E-2,-1.4429107E-1,-2.6586038E-1,-1.2863468E0,4.893695E-1,-9.857826E-1,1.8780736E0,-2.205337E-1,-1.4528024E0,-7.440036E-2,-1.5831704E-1,8.0676466E-2,-7.7195406E-2,9.9319555E-2,1.846786E-2,-1.0820254E-1,6.58714E-3,2.6307782E-2,-7.902402E-2,4.3608993E-2,-5.6374904E-2,6.926553E-2,-1.0212692E-1,1.2589306E-1,4.3675587E-2,9.482807E-2,-6.906959E-2,-3.979798E-3,-2.6797462E-2,3.994421E-2,-2.0653272E-2,8.421049E-3,-3.3613198E-2,8.752837E-2,6.362226E-3],"split_indices":[24,22,4,14,22,4,2,23,24,14,15,8,0,0,14,0,15,10,15,4,12,22,8,0,0,0,0,2,13,14,10,0,16,16,15,22,